=== Model information ===

Filename:     J48 TRAINING BRAND SALARY DISC.model
Scheme:weka.classifiers.trees.J48 -C 0.25 -M 2
Relation:weka.datagenerators.classifiers.classification.Agrawal-S_16_-n_10000_-F_2_-P_0.05-weka.filters.unsupervised.attribute.Remove-R7-8-weka.filters.unsupervised.attribute.Remove-R2-weka.filters.unsupervised.attribute.Discretize-B10-M-1.0-R1
Attributes:   7
              salary
              age
              elevel
              car
              zipcode
              credit
              brand

=== Classifier model ===

J48 pruned tree
------------------

salary = '(-inf-33000]'
|   age <= 58: 1 (646.0/3.0)
|   age > 58
|   |   age <= 61: 1 (50.0/11.0)
|   |   age > 61: 0 (337.0/146.0)
salary = '(33000-46000]'
|   age <= 59: 1 (691.0/19.0)
|   age > 59: 0 (316.0/13.0)
salary = '(46000-59000]'
|   age <= 60
|   |   age <= 40: 0 (349.0/127.0)
|   |   age > 40: 1 (306.0/29.0)
|   age > 60: 0 (307.0/4.0)
salary = '(59000-72000]'
|   age <= 59
|   |   age <= 40: 0 (341.0/18.0)
|   |   age > 40: 1 (308.0/31.0)
|   age > 59: 0 (320.0/20.0)
salary = '(72000-85000]'
|   age <= 60: 0 (700.0/102.0)
|   age > 60: 1 (330.0/85.0)
salary = '(85000-98000]'
|   age <= 60: 0 (678.0/43.0)
|   age > 60: 1 (345.0/5.0)
salary = '(98000-111000]'
|   age <= 38: 1 (313.0/64.0)
|   age > 38
|   |   age <= 59: 0 (331.0/25.0)
|   |   age > 59: 1 (340.0/9.0)
salary = '(111000-124000]'
|   age <= 62
|   |   age <= 58
|   |   |   age <= 41: 1 (340.0/31.0)
|   |   |   age > 41: 0 (262.0/23.0)
|   |   age > 58
|   |   |   elevel = 0: 1 (10.0/2.0)
|   |   |   elevel = 1: 1 (12.0/4.0)
|   |   |   elevel = 2: 1 (15.0/4.0)
|   |   |   elevel = 3: 1 (14.0/3.0)
|   |   |   elevel = 4: 0 (15.0/4.0)
|   age > 62: 1 (301.0)
salary = '(124000-137000]': 1 (1020.0/52.0)
salary = '(137000-inf)': 1 (1003.0)

Number of Leaves  : 	28

Size of the tree : 	44


=== Re-evaluation on test set ===

User supplied test set
Relation:     weka.datagenerators.classifiers.classification.Agrawal-S_1_-n_5000_-F_2_-P_0.05-weka.filters.unsupervised.attribute.Remove-R2,7-8-weka.filters.unsupervised.attribute.Discretize-B10-M-1.0-R1
Instances:     unknown (yet). Reading incrementally
Attributes:   7

=== Predictions on test set ===

inst#,    actual, predicted, error, probability distribution
     1          ?        1:0      +  *0.924  0.076
     2          ?        2:1      +   0     *1    
     3          ?        1:0      +  *0.912  0.088
     4          ?        2:1      +   0.005 *0.995
     5          ?        1:0      +  *0.937  0.063
     6          ?        1:0      +  *0.959  0.041
     7          ?        1:0      +  *0.937  0.063
     8          ?        2:1      +   0.027 *0.973
     9          ?        2:1      +   0.051 *0.949
    10          ?        1:0      +  *0.924  0.076
    11          ?        1:0      +  *0.636  0.364
    12          ?        1:0      +  *0.937  0.063
    13          ?        1:0      +  *0.854  0.146
    14          ?        1:0      +  *0.937  0.063
    15          ?        2:1      +   0.051 *0.949
    16          ?        2:1      +   0.005 *0.995
    17          ?        2:1      +   0     *1    
    18          ?        1:0      +  *0.854  0.146
    19          ?        2:1      +   0.095 *0.905
    20          ?        2:1      +   0.027 *0.973
    21          ?        1:0      +  *0.924  0.076
    22          ?        2:1      +   0.026 *0.974
    23          ?        2:1      +   0     *1    
    24          ?        2:1      +   0.204 *0.796
    25          ?        2:1      +   0.091 *0.909
    26          ?        2:1      +   0.027 *0.973
    27          ?        1:0      +  *0.987  0.013
    28          ?        2:1      +   0.258 *0.742
    29          ?        2:1      +   0.051 *0.949
    30          ?        1:0      +  *0.947  0.053
    31          ?        1:0      +  *0.567  0.433
    32          ?        2:1      +   0.005 *0.995
    33          ?        1:0      +  *0.912  0.088
    34          ?        1:0      +  *0.937  0.063
    35          ?        2:1      +   0.014 *0.986
    36          ?        2:1      +   0.014 *0.986
    37          ?        1:0      +  *0.854  0.146
    38          ?        1:0      +  *0.987  0.013
    39          ?        2:1      +   0.005 *0.995
    40          ?        1:0      +  *0.854  0.146
    41          ?        2:1      +   0.027 *0.973
    42          ?        1:0      +  *0.636  0.364
    43          ?        2:1      +   0.027 *0.973
    44          ?        1:0      +  *0.567  0.433
    45          ?        2:1      +   0.027 *0.973
    46          ?        2:1      +   0.095 *0.905
    47          ?        2:1      +   0.026 *0.974
    48          ?        2:1      +   0.027 *0.973
    49          ?        1:0      +  *0.959  0.041
    50          ?        2:1      +   0.095 *0.905
    51          ?        1:0      +  *0.959  0.041
    52          ?        1:0      +  *0.987  0.013
    53          ?        2:1      +   0.204 *0.796
    54          ?        1:0      +  *0.854  0.146
    55          ?        2:1      +   0.027 *0.973
    56          ?        1:0      +  *0.959  0.041
    57          ?        2:1      +   0     *1    
    58          ?        2:1      +   0     *1    
    59          ?        2:1      +   0.204 *0.796
    60          ?        1:0      +  *0.938  0.063
    61          ?        1:0      +  *0.947  0.053
    62          ?        1:0      +  *0.937  0.063
    63          ?        1:0      +  *0.937  0.063
    64          ?        1:0      +  *0.854  0.146
    65          ?        1:0      +  *0.959  0.041
    66          ?        2:1      +   0.027 *0.973
    67          ?        2:1      +   0.014 *0.986
    68          ?        1:0      +  *0.912  0.088
    69          ?        2:1      +   0.005 *0.995
    70          ?        1:0      +  *0.567  0.433
    71          ?        2:1      +   0.027 *0.973
    72          ?        1:0      +  *0.912  0.088
    73          ?        2:1      +   0.027 *0.973
    74          ?        2:1      +   0.027 *0.973
    75          ?        2:1      +   0.051 *0.949
    76          ?        2:1      +   0.051 *0.949
    77          ?        2:1      +   0.095 *0.905
    78          ?        2:1      +   0.051 *0.949
    79          ?        1:0      +  *0.912  0.088
    80          ?        1:0      +  *0.959  0.041
    81          ?        1:0      +  *0.959  0.041
    82          ?        1:0      +  *0.636  0.364
    83          ?        2:1      +   0.095 *0.905
    84          ?        2:1      +   0     *1    
    85          ?        2:1      +   0     *1    
    86          ?        2:1      +   0.258 *0.742
    87          ?        1:0      +  *0.567  0.433
    88          ?        2:1      +   0     *1    
    89          ?        2:1      +   0     *1    
    90          ?        2:1      +   0.2   *0.8  
    91          ?        1:0      +  *0.987  0.013
    92          ?        2:1      +   0.005 *0.995
    93          ?        1:0      +  *0.854  0.146
    94          ?        2:1      +   0.005 *0.995
    95          ?        2:1      +   0.101 *0.899
    96          ?        1:0      +  *0.959  0.041
    97          ?        1:0      +  *0.947  0.053
    98          ?        2:1      +   0     *1    
    99          ?        2:1      +   0     *1    
   100          ?        2:1      +   0.027 *0.973
   101          ?        1:0      +  *0.938  0.063
   102          ?        2:1      +   0.005 *0.995
   103          ?        1:0      +  *0.938  0.063
   104          ?        2:1      +   0.051 *0.949
   105          ?        2:1      +   0.026 *0.974
   106          ?        1:0      +  *0.567  0.433
   107          ?        2:1      +   0.051 *0.949
   108          ?        2:1      +   0.095 *0.905
   109          ?        2:1      +   0.027 *0.973
   110          ?        2:1      +   0.027 *0.973
   111          ?        2:1      +   0.005 *0.995
   112          ?        2:1      +   0.095 *0.905
   113          ?        1:0      +  *0.854  0.146
   114          ?        1:0      +  *0.912  0.088
   115          ?        1:0      +  *0.937  0.063
   116          ?        2:1      +   0.027 *0.973
   117          ?        1:0      +  *0.959  0.041
   118          ?        1:0      +  *0.959  0.041
   119          ?        2:1      +   0.051 *0.949
   120          ?        1:0      +  *0.854  0.146
   121          ?        2:1      +   0.095 *0.905
   122          ?        2:1      +   0     *1    
   123          ?        2:1      +   0     *1    
   124          ?        1:0      +  *0.938  0.063
   125          ?        1:0      +  *0.912  0.088
   126          ?        2:1      +   0     *1    
   127          ?        2:1      +   0.051 *0.949
   128          ?        1:0      +  *0.938  0.063
   129          ?        2:1      +   0.026 *0.974
   130          ?        1:0      +  *0.947  0.053
   131          ?        2:1      +   0.204 *0.796
   132          ?        2:1      +   0     *1    
   133          ?        2:1      +   0.258 *0.742
   134          ?        2:1      +   0.204 *0.796
   135          ?        1:0      +  *0.854  0.146
   136          ?        2:1      +   0.027 *0.973
   137          ?        1:0      +  *0.937  0.063
   138          ?        1:0      +  *0.937  0.063
   139          ?        1:0      +  *0.938  0.063
   140          ?        1:0      +  *0.937  0.063
   141          ?        2:1      +   0     *1    
   142          ?        1:0      +  *0.924  0.076
   143          ?        1:0      +  *0.937  0.063
   144          ?        1:0      +  *0.854  0.146
   145          ?        2:1      +   0.051 *0.949
   146          ?        1:0      +  *0.987  0.013
   147          ?        1:0      +  *0.937  0.063
   148          ?        1:0      +  *0.636  0.364
   149          ?        2:1      +   0.091 *0.909
   150          ?        2:1      +   0.051 *0.949
   151          ?        1:0      +  *0.567  0.433
   152          ?        2:1      +   0.027 *0.973
   153          ?        2:1      +   0.051 *0.949
   154          ?        2:1      +   0.051 *0.949
   155          ?        1:0      +  *0.924  0.076
   156          ?        1:0      +  *0.567  0.433
   157          ?        1:0      +  *0.937  0.063
   158          ?        1:0      +  *0.938  0.063
   159          ?        2:1      +   0.101 *0.899
   160          ?        2:1      +   0.027 *0.973
   161          ?        1:0      +  *0.854  0.146
   162          ?        2:1      +   0.027 *0.973
   163          ?        2:1      +   0     *1    
   164          ?        1:0      +  *0.567  0.433
   165          ?        2:1      +   0     *1    
   166          ?        1:0      +  *0.636  0.364
   167          ?        1:0      +  *0.924  0.076
   168          ?        2:1      +   0.091 *0.909
   169          ?        1:0      +  *0.636  0.364
   170          ?        2:1      +   0.026 *0.974
   171          ?        1:0      +  *0.912  0.088
   172          ?        1:0      +  *0.937  0.063
   173          ?        1:0      +  *0.959  0.041
   174          ?        2:1      +   0     *1    
   175          ?        2:1      +   0.091 *0.909
   176          ?        2:1      +   0.101 *0.899
   177          ?        2:1      +   0.095 *0.905
   178          ?        2:1      +   0.051 *0.949
   179          ?        2:1      +   0.204 *0.796
   180          ?        2:1      +   0.027 *0.973
   181          ?        1:0      +  *0.567  0.433
   182          ?        2:1      +   0.005 *0.995
   183          ?        1:0      +  *0.937  0.063
   184          ?        2:1      +   0.258 *0.742
   185          ?        1:0      +  *0.938  0.063
   186          ?        1:0      +  *0.947  0.053
   187          ?        2:1      +   0.091 *0.909
   188          ?        2:1      +   0.014 *0.986
   189          ?        2:1      +   0.051 *0.949
   190          ?        1:0      +  *0.854  0.146
   191          ?        1:0      +  *0.854  0.146
   192          ?        2:1      +   0.258 *0.742
   193          ?        2:1      +   0     *1    
   194          ?        2:1      +   0.027 *0.973
   195          ?        1:0      +  *0.987  0.013
   196          ?        2:1      +   0.258 *0.742
   197          ?        2:1      +   0.091 *0.909
   198          ?        2:1      +   0.091 *0.909
   199          ?        2:1      +   0.027 *0.973
   200          ?        2:1      +   0     *1    
   201          ?        2:1      +   0.051 *0.949
   202          ?        2:1      +   0     *1    
   203          ?        2:1      +   0.051 *0.949
   204          ?        2:1      +   0.026 *0.974
   205          ?        2:1      +   0.258 *0.742
   206          ?        2:1      +   0.005 *0.995
   207          ?        2:1      +   0.051 *0.949
   208          ?        2:1      +   0.204 *0.796
   209          ?        2:1      +   0.091 *0.909
   210          ?        2:1      +   0     *1    
   211          ?        2:1      +   0     *1    
   212          ?        2:1      +   0.051 *0.949
   213          ?        1:0      +  *0.987  0.013
   214          ?        2:1      +   0.258 *0.742
   215          ?        2:1      +   0     *1    
   216          ?        1:0      +  *0.947  0.053
   217          ?        2:1      +   0.091 *0.909
   218          ?        1:0      +  *0.937  0.063
   219          ?        2:1      +   0.027 *0.973
   220          ?        1:0      +  *0.854  0.146
   221          ?        2:1      +   0.026 *0.974
   222          ?        2:1      +   0.014 *0.986
   223          ?        2:1      +   0.258 *0.742
   224          ?        2:1      +   0.204 *0.796
   225          ?        1:0      +  *0.987  0.013
   226          ?        1:0      +  *0.959  0.041
   227          ?        2:1      +   0.005 *0.995
   228          ?        2:1      +   0.005 *0.995
   229          ?        1:0      +  *0.912  0.088
   230          ?        2:1      +   0.026 *0.974
   231          ?        2:1      +   0.051 *0.949
   232          ?        1:0      +  *0.854  0.146
   233          ?        2:1      +   0     *1    
   234          ?        1:0      +  *0.937  0.063
   235          ?        1:0      +  *0.854  0.146
   236          ?        2:1      +   0.051 *0.949
   237          ?        1:0      +  *0.924  0.076
   238          ?        2:1      +   0     *1    
   239          ?        1:0      +  *0.937  0.063
   240          ?        2:1      +   0.027 *0.973
   241          ?        1:0      +  *0.937  0.063
   242          ?        1:0      +  *0.987  0.013
   243          ?        2:1      +   0.204 *0.796
   244          ?        2:1      +   0     *1    
   245          ?        1:0      +  *0.987  0.013
   246          ?        2:1      +   0.051 *0.949
   247          ?        2:1      +   0.014 *0.986
   248          ?        2:1      +   0.101 *0.899
   249          ?        2:1      +   0.095 *0.905
   250          ?        1:0      +  *0.854  0.146
   251          ?        1:0      +  *0.959  0.041
   252          ?        2:1      +   0.101 *0.899
   253          ?        2:1      +   0.051 *0.949
   254          ?        1:0      +  *0.947  0.053
   255          ?        2:1      +   0     *1    
   256          ?        1:0      +  *0.924  0.076
   257          ?        2:1      +   0.051 *0.949
   258          ?        2:1      +   0.026 *0.974
   259          ?        2:1      +   0     *1    
   260          ?        2:1      +   0.026 *0.974
   261          ?        2:1      +   0     *1    
   262          ?        2:1      +   0.095 *0.905
   263          ?        2:1      +   0.051 *0.949
   264          ?        2:1      +   0     *1    
   265          ?        2:1      +   0     *1    
   266          ?        2:1      +   0.333 *0.667
   267          ?        1:0      +  *0.937  0.063
   268          ?        2:1      +   0     *1    
   269          ?        2:1      +   0     *1    
   270          ?        2:1      +   0.005 *0.995
   271          ?        2:1      +   0     *1    
   272          ?        2:1      +   0.101 *0.899
   273          ?        2:1      +   0.051 *0.949
   274          ?        2:1      +   0.051 *0.949
   275          ?        1:0      +  *0.938  0.063
   276          ?        1:0      +  *0.636  0.364
   277          ?        1:0      +  *0.636  0.364
   278          ?        1:0      +  *0.854  0.146
   279          ?        1:0      +  *0.854  0.146
   280          ?        2:1      +   0.051 *0.949
   281          ?        1:0      +  *0.959  0.041
   282          ?        2:1      +   0.026 *0.974
   283          ?        1:0      +  *0.854  0.146
   284          ?        2:1      +   0.091 *0.909
   285          ?        1:0      +  *0.938  0.063
   286          ?        2:1      +   0.014 *0.986
   287          ?        2:1      +   0.005 *0.995
   288          ?        1:0      +  *0.947  0.053
   289          ?        2:1      +   0.026 *0.974
   290          ?        2:1      +   0     *1    
   291          ?        2:1      +   0.258 *0.742
   292          ?        2:1      +   0.014 *0.986
   293          ?        1:0      +  *0.987  0.013
   294          ?        2:1      +   0.014 *0.986
   295          ?        1:0      +  *0.854  0.146
   296          ?        2:1      +   0     *1    
   297          ?        1:0      +  *0.938  0.063
   298          ?        1:0      +  *0.987  0.013
   299          ?        1:0      +  *0.959  0.041
   300          ?        2:1      +   0.091 *0.909
   301          ?        1:0      +  *0.959  0.041
   302          ?        1:0      +  *0.938  0.063
   303          ?        2:1      +   0.051 *0.949
   304          ?        1:0      +  *0.567  0.433
   305          ?        2:1      +   0.014 *0.986
   306          ?        1:0      +  *0.937  0.063
   307          ?        2:1      +   0.005 *0.995
   308          ?        2:1      +   0.027 *0.973
   309          ?        1:0      +  *0.854  0.146
   310          ?        2:1      +   0.051 *0.949
   311          ?        1:0      +  *0.938  0.063
   312          ?        2:1      +   0.101 *0.899
   313          ?        2:1      +   0.258 *0.742
   314          ?        2:1      +   0.101 *0.899
   315          ?        2:1      +   0     *1    
   316          ?        2:1      +   0     *1    
   317          ?        2:1      +   0.051 *0.949
   318          ?        1:0      +  *0.987  0.013
   319          ?        1:0      +  *0.854  0.146
   320          ?        2:1      +   0.091 *0.909
   321          ?        2:1      +   0.051 *0.949
   322          ?        2:1      +   0.027 *0.973
   323          ?        2:1      +   0.101 *0.899
   324          ?        2:1      +   0.22  *0.78 
   325          ?        2:1      +   0.051 *0.949
   326          ?        2:1      +   0.005 *0.995
   327          ?        1:0      +  *0.937  0.063
   328          ?        1:0      +  *0.924  0.076
   329          ?        2:1      +   0.051 *0.949
   330          ?        2:1      +   0.027 *0.973
   331          ?        2:1      +   0.258 *0.742
   332          ?        1:0      +  *0.636  0.364
   333          ?        1:0      +  *0.947  0.053
   334          ?        1:0      +  *0.854  0.146
   335          ?        1:0      +  *0.636  0.364
   336          ?        2:1      +   0.095 *0.905
   337          ?        2:1      +   0.027 *0.973
   338          ?        2:1      +   0     *1    
   339          ?        2:1      +   0     *1    
   340          ?        1:0      +  *0.987  0.013
   341          ?        1:0      +  *0.937  0.063
   342          ?        1:0      +  *0.924  0.076
   343          ?        2:1      +   0     *1    
   344          ?        2:1      +   0     *1    
   345          ?        2:1      +   0.101 *0.899
   346          ?        2:1      +   0.005 *0.995
   347          ?        1:0      +  *0.959  0.041
   348          ?        1:0      +  *0.937  0.063
   349          ?        2:1      +   0.005 *0.995
   350          ?        2:1      +   0.095 *0.905
   351          ?        2:1      +   0.258 *0.742
   352          ?        1:0      +  *0.854  0.146
   353          ?        1:0      +  *0.947  0.053
   354          ?        1:0      +  *0.854  0.146
   355          ?        1:0      +  *0.924  0.076
   356          ?        2:1      +   0     *1    
   357          ?        1:0      +  *0.959  0.041
   358          ?        1:0      +  *0.947  0.053
   359          ?        2:1      +   0     *1    
   360          ?        2:1      +   0.204 *0.796
   361          ?        2:1      +   0.258 *0.742
   362          ?        1:0      +  *0.567  0.433
   363          ?        2:1      +   0.095 *0.905
   364          ?        2:1      +   0     *1    
   365          ?        2:1      +   0     *1    
   366          ?        2:1      +   0     *1    
   367          ?        2:1      +   0.258 *0.742
   368          ?        2:1      +   0.051 *0.949
   369          ?        1:0      +  *0.636  0.364
   370          ?        1:0      +  *0.947  0.053
   371          ?        2:1      +   0.095 *0.905
   372          ?        1:0      +  *0.636  0.364
   373          ?        2:1      +   0     *1    
   374          ?        2:1      +   0.204 *0.796
   375          ?        2:1      +   0.101 *0.899
   376          ?        1:0      +  *0.854  0.146
   377          ?        2:1      +   0     *1    
   378          ?        1:0      +  *0.854  0.146
   379          ?        2:1      +   0.026 *0.974
   380          ?        2:1      +   0.258 *0.742
   381          ?        1:0      +  *0.854  0.146
   382          ?        2:1      +   0     *1    
   383          ?        2:1      +   0.101 *0.899
   384          ?        2:1      +   0.005 *0.995
   385          ?        1:0      +  *0.924  0.076
   386          ?        2:1      +   0     *1    
   387          ?        1:0      +  *0.987  0.013
   388          ?        2:1      +   0.258 *0.742
   389          ?        1:0      +  *0.959  0.041
   390          ?        2:1      +   0.005 *0.995
   391          ?        2:1      +   0     *1    
   392          ?        2:1      +   0     *1    
   393          ?        1:0      +  *0.854  0.146
   394          ?        2:1      +   0.027 *0.973
   395          ?        2:1      +   0.051 *0.949
   396          ?        2:1      +   0     *1    
   397          ?        1:0      +  *0.959  0.041
   398          ?        1:0      +  *0.924  0.076
   399          ?        1:0      +  *0.924  0.076
   400          ?        1:0      +  *0.959  0.041
   401          ?        2:1      +   0     *1    
   402          ?        2:1      +   0.026 *0.974
   403          ?        2:1      +   0.095 *0.905
   404          ?        1:0      +  *0.567  0.433
   405          ?        1:0      +  *0.937  0.063
   406          ?        2:1      +   0.204 *0.796
   407          ?        2:1      +   0.101 *0.899
   408          ?        2:1      +   0.204 *0.796
   409          ?        1:0      +  *0.924  0.076
   410          ?        1:0      +  *0.854  0.146
   411          ?        2:1      +   0.051 *0.949
   412          ?        1:0      +  *0.854  0.146
   413          ?        2:1      +   0.051 *0.949
   414          ?        2:1      +   0.091 *0.909
   415          ?        2:1      +   0.101 *0.899
   416          ?        2:1      +   0     *1    
   417          ?        2:1      +   0.101 *0.899
   418          ?        2:1      +   0.051 *0.949
   419          ?        2:1      +   0     *1    
   420          ?        2:1      +   0.258 *0.742
   421          ?        2:1      +   0.051 *0.949
   422          ?        2:1      +   0     *1    
   423          ?        2:1      +   0.027 *0.973
   424          ?        2:1      +   0.005 *0.995
   425          ?        1:0      +  *0.937  0.063
   426          ?        2:1      +   0     *1    
   427          ?        1:0      +  *0.854  0.146
   428          ?        2:1      +   0.005 *0.995
   429          ?        2:1      +   0.095 *0.905
   430          ?        2:1      +   0.014 *0.986
   431          ?        2:1      +   0.204 *0.796
   432          ?        2:1      +   0.095 *0.905
   433          ?        2:1      +   0     *1    
   434          ?        2:1      +   0.204 *0.796
   435          ?        2:1      +   0.051 *0.949
   436          ?        1:0      +  *0.567  0.433
   437          ?        2:1      +   0.101 *0.899
   438          ?        1:0      +  *0.924  0.076
   439          ?        2:1      +   0.051 *0.949
   440          ?        1:0      +  *0.959  0.041
   441          ?        2:1      +   0.051 *0.949
   442          ?        1:0      +  *0.937  0.063
   443          ?        1:0      +  *0.959  0.041
   444          ?        1:0      +  *0.959  0.041
   445          ?        1:0      +  *0.959  0.041
   446          ?        1:0      +  *0.636  0.364
   447          ?        2:1      +   0.027 *0.973
   448          ?        2:1      +   0.051 *0.949
   449          ?        2:1      +   0.027 *0.973
   450          ?        2:1      +   0.258 *0.742
   451          ?        1:0      +  *0.924  0.076
   452          ?        1:0      +  *0.937  0.063
   453          ?        2:1      +   0.051 *0.949
   454          ?        1:0      +  *0.636  0.364
   455          ?        2:1      +   0.051 *0.949
   456          ?        2:1      +   0.014 *0.986
   457          ?        2:1      +   0     *1    
   458          ?        1:0      +  *0.937  0.063
   459          ?        1:0      +  *0.854  0.146
   460          ?        1:0      +  *0.987  0.013
   461          ?        2:1      +   0     *1    
   462          ?        2:1      +   0.091 *0.909
   463          ?        1:0      +  *0.937  0.063
   464          ?        1:0      +  *0.567  0.433
   465          ?        1:0      +  *0.854  0.146
   466          ?        2:1      +   0.051 *0.949
   467          ?        1:0      +  *0.987  0.013
   468          ?        1:0      +  *0.947  0.053
   469          ?        2:1      +   0     *1    
   470          ?        2:1      +   0.091 *0.909
   471          ?        2:1      +   0.204 *0.796
   472          ?        1:0      +  *0.937  0.063
   473          ?        2:1      +   0.026 *0.974
   474          ?        1:0      +  *0.912  0.088
   475          ?        2:1      +   0.051 *0.949
   476          ?        2:1      +   0.091 *0.909
   477          ?        1:0      +  *0.924  0.076
   478          ?        1:0      +  *0.937  0.063
   479          ?        2:1      +   0.258 *0.742
   480          ?        1:0      +  *0.636  0.364
   481          ?        1:0      +  *0.912  0.088
   482          ?        2:1      +   0.095 *0.905
   483          ?        2:1      +   0.014 *0.986
   484          ?        1:0      +  *0.854  0.146
   485          ?        2:1      +   0.051 *0.949
   486          ?        1:0      +  *0.854  0.146
   487          ?        1:0      +  *0.987  0.013
   488          ?        2:1      +   0     *1    
   489          ?        1:0      +  *0.937  0.063
   490          ?        1:0      +  *0.636  0.364
   491          ?        2:1      +   0.051 *0.949
   492          ?        1:0      +  *0.912  0.088
   493          ?        1:0      +  *0.567  0.433
   494          ?        2:1      +   0     *1    
   495          ?        2:1      +   0     *1    
   496          ?        2:1      +   0.101 *0.899
   497          ?        2:1      +   0     *1    
   498          ?        1:0      +  *0.937  0.063
   499          ?        1:0      +  *0.924  0.076
   500          ?        1:0      +  *0.854  0.146
   501          ?        1:0      +  *0.959  0.041
   502          ?        1:0      +  *0.938  0.063
   503          ?        2:1      +   0.091 *0.909
   504          ?        1:0      +  *0.636  0.364
   505          ?        2:1      +   0.005 *0.995
   506          ?        2:1      +   0.014 *0.986
   507          ?        1:0      +  *0.636  0.364
   508          ?        1:0      +  *0.636  0.364
   509          ?        1:0      +  *0.567  0.433
   510          ?        2:1      +   0.258 *0.742
   511          ?        2:1      +   0.026 *0.974
   512          ?        2:1      +   0.101 *0.899
   513          ?        2:1      +   0.095 *0.905
   514          ?        2:1      +   0.026 *0.974
   515          ?        2:1      +   0     *1    
   516          ?        2:1      +   0.091 *0.909
   517          ?        2:1      +   0     *1    
   518          ?        1:0      +  *0.937  0.063
   519          ?        2:1      +   0.026 *0.974
   520          ?        2:1      +   0.091 *0.909
   521          ?        2:1      +   0.005 *0.995
   522          ?        1:0      +  *0.854  0.146
   523          ?        2:1      +   0.333 *0.667
   524          ?        2:1      +   0.095 *0.905
   525          ?        1:0      +  *0.937  0.063
   526          ?        2:1      +   0.101 *0.899
   527          ?        2:1      +   0     *1    
   528          ?        1:0      +  *0.854  0.146
   529          ?        2:1      +   0.005 *0.995
   530          ?        1:0      +  *0.938  0.063
   531          ?        2:1      +   0.051 *0.949
   532          ?        2:1      +   0.027 *0.973
   533          ?        2:1      +   0.091 *0.909
   534          ?        2:1      +   0     *1    
   535          ?        2:1      +   0     *1    
   536          ?        2:1      +   0     *1    
   537          ?        1:0      +  *0.937  0.063
   538          ?        2:1      +   0.005 *0.995
   539          ?        1:0      +  *0.959  0.041
   540          ?        1:0      +  *0.636  0.364
   541          ?        2:1      +   0.027 *0.973
   542          ?        2:1      +   0.005 *0.995
   543          ?        1:0      +  *0.854  0.146
   544          ?        1:0      +  *0.937  0.063
   545          ?        1:0      +  *0.947  0.053
   546          ?        2:1      +   0     *1    
   547          ?        1:0      +  *0.937  0.063
   548          ?        2:1      +   0.027 *0.973
   549          ?        2:1      +   0.005 *0.995
   550          ?        2:1      +   0.005 *0.995
   551          ?        2:1      +   0.014 *0.986
   552          ?        2:1      +   0.101 *0.899
   553          ?        1:0      +  *0.567  0.433
   554          ?        1:0      +  *0.959  0.041
   555          ?        2:1      +   0     *1    
   556          ?        1:0      +  *0.938  0.063
   557          ?        2:1      +   0.014 *0.986
   558          ?        2:1      +   0.095 *0.905
   559          ?        2:1      +   0.027 *0.973
   560          ?        2:1      +   0.258 *0.742
   561          ?        2:1      +   0.051 *0.949
   562          ?        1:0      +  *0.937  0.063
   563          ?        1:0      +  *0.938  0.063
   564          ?        1:0      +  *0.567  0.433
   565          ?        2:1      +   0.101 *0.899
   566          ?        2:1      +   0.051 *0.949
   567          ?        2:1      +   0.014 *0.986
   568          ?        1:0      +  *0.937  0.063
   569          ?        1:0      +  *0.959  0.041
   570          ?        2:1      +   0.005 *0.995
   571          ?        2:1      +   0     *1    
   572          ?        2:1      +   0     *1    
   573          ?        2:1      +   0     *1    
   574          ?        2:1      +   0.027 *0.973
   575          ?        2:1      +   0.091 *0.909
   576          ?        2:1      +   0.051 *0.949
   577          ?        1:0      +  *0.937  0.063
   578          ?        2:1      +   0     *1    
   579          ?        1:0      +  *0.854  0.146
   580          ?        2:1      +   0     *1    
   581          ?        2:1      +   0.095 *0.905
   582          ?        2:1      +   0     *1    
   583          ?        2:1      +   0.091 *0.909
   584          ?        1:0      +  *0.636  0.364
   585          ?        2:1      +   0.026 *0.974
   586          ?        2:1      +   0     *1    
   587          ?        2:1      +   0.258 *0.742
   588          ?        1:0      +  *0.567  0.433
   589          ?        2:1      +   0.095 *0.905
   590          ?        2:1      +   0.005 *0.995
   591          ?        2:1      +   0.204 *0.796
   592          ?        1:0      +  *0.912  0.088
   593          ?        2:1      +   0.22  *0.78 
   594          ?        2:1      +   0.051 *0.949
   595          ?        2:1      +   0     *1    
   596          ?        1:0      +  *0.924  0.076
   597          ?        1:0      +  *0.947  0.053
   598          ?        2:1      +   0.005 *0.995
   599          ?        1:0      +  *0.912  0.088
   600          ?        2:1      +   0.258 *0.742
   601          ?        2:1      +   0.204 *0.796
   602          ?        1:0      +  *0.987  0.013
   603          ?        2:1      +   0.091 *0.909
   604          ?        2:1      +   0.258 *0.742
   605          ?        1:0      +  *0.987  0.013
   606          ?        2:1      +   0.014 *0.986
   607          ?        1:0      +  *0.567  0.433
   608          ?        2:1      +   0     *1    
   609          ?        2:1      +   0.204 *0.796
   610          ?        2:1      +   0     *1    
   611          ?        1:0      +  *0.636  0.364
   612          ?        2:1      +   0     *1    
   613          ?        2:1      +   0.051 *0.949
   614          ?        1:0      +  *0.987  0.013
   615          ?        2:1      +   0.014 *0.986
   616          ?        1:0      +  *0.924  0.076
   617          ?        2:1      +   0.258 *0.742
   618          ?        2:1      +   0     *1    
   619          ?        1:0      +  *0.924  0.076
   620          ?        2:1      +   0.005 *0.995
   621          ?        2:1      +   0.026 *0.974
   622          ?        2:1      +   0.027 *0.973
   623          ?        2:1      +   0.101 *0.899
   624          ?        1:0      +  *0.854  0.146
   625          ?        2:1      +   0.091 *0.909
   626          ?        1:0      +  *0.937  0.063
   627          ?        1:0      +  *0.854  0.146
   628          ?        1:0      +  *0.947  0.053
   629          ?        2:1      +   0     *1    
   630          ?        1:0      +  *0.567  0.433
   631          ?        2:1      +   0     *1    
   632          ?        2:1      +   0     *1    
   633          ?        2:1      +   0     *1    
   634          ?        1:0      +  *0.854  0.146
   635          ?        2:1      +   0     *1    
   636          ?        1:0      +  *0.947  0.053
   637          ?        1:0      +  *0.567  0.433
   638          ?        2:1      +   0.027 *0.973
   639          ?        2:1      +   0     *1    
   640          ?        2:1      +   0.005 *0.995
   641          ?        1:0      +  *0.854  0.146
   642          ?        2:1      +   0.051 *0.949
   643          ?        1:0      +  *0.854  0.146
   644          ?        2:1      +   0.005 *0.995
   645          ?        2:1      +   0.051 *0.949
   646          ?        1:0      +  *0.854  0.146
   647          ?        1:0      +  *0.947  0.053
   648          ?        2:1      +   0.051 *0.949
   649          ?        1:0      +  *0.959  0.041
   650          ?        1:0      +  *0.912  0.088
   651          ?        1:0      +  *0.912  0.088
   652          ?        1:0      +  *0.947  0.053
   653          ?        1:0      +  *0.937  0.063
   654          ?        2:1      +   0.258 *0.742
   655          ?        1:0      +  *0.937  0.063
   656          ?        2:1      +   0     *1    
   657          ?        2:1      +   0     *1    
   658          ?        2:1      +   0.026 *0.974
   659          ?        2:1      +   0     *1    
   660          ?        1:0      +  *0.854  0.146
   661          ?        2:1      +   0.204 *0.796
   662          ?        1:0      +  *0.937  0.063
   663          ?        2:1      +   0.027 *0.973
   664          ?        2:1      +   0     *1    
   665          ?        1:0      +  *0.987  0.013
   666          ?        2:1      +   0     *1    
   667          ?        2:1      +   0.027 *0.973
   668          ?        1:0      +  *0.636  0.364
   669          ?        2:1      +   0     *1    
   670          ?        2:1      +   0.005 *0.995
   671          ?        2:1      +   0.005 *0.995
   672          ?        1:0      +  *0.636  0.364
   673          ?        1:0      +  *0.636  0.364
   674          ?        2:1      +   0.101 *0.899
   675          ?        1:0      +  *0.947  0.053
   676          ?        1:0      +  *0.987  0.013
   677          ?        2:1      +   0.051 *0.949
   678          ?        2:1      +   0.026 *0.974
   679          ?        1:0      +  *0.854  0.146
   680          ?        2:1      +   0.258 *0.742
   681          ?        2:1      +   0.051 *0.949
   682          ?        2:1      +   0.091 *0.909
   683          ?        1:0      +  *0.924  0.076
   684          ?        1:0      +  *0.987  0.013
   685          ?        2:1      +   0.095 *0.905
   686          ?        2:1      +   0.027 *0.973
   687          ?        2:1      +   0.014 *0.986
   688          ?        2:1      +   0.051 *0.949
   689          ?        1:0      +  *0.959  0.041
   690          ?        2:1      +   0.214 *0.786
   691          ?        2:1      +   0     *1    
   692          ?        2:1      +   0.051 *0.949
   693          ?        2:1      +   0.051 *0.949
   694          ?        2:1      +   0.091 *0.909
   695          ?        2:1      +   0.005 *0.995
   696          ?        1:0      +  *0.938  0.063
   697          ?        2:1      +   0.051 *0.949
   698          ?        2:1      +   0.101 *0.899
   699          ?        2:1      +   0.026 *0.974
   700          ?        2:1      +   0     *1    
   701          ?        2:1      +   0.014 *0.986
   702          ?        2:1      +   0     *1    
   703          ?        1:0      +  *0.567  0.433
   704          ?        2:1      +   0.051 *0.949
   705          ?        1:0      +  *0.854  0.146
   706          ?        2:1      +   0.027 *0.973
   707          ?        2:1      +   0.051 *0.949
   708          ?        1:0      +  *0.636  0.364
   709          ?        1:0      +  *0.938  0.063
   710          ?        2:1      +   0.051 *0.949
   711          ?        2:1      +   0.101 *0.899
   712          ?        2:1      +   0     *1    
   713          ?        2:1      +   0.027 *0.973
   714          ?        2:1      +   0.091 *0.909
   715          ?        1:0      +  *0.938  0.063
   716          ?        2:1      +   0.204 *0.796
   717          ?        2:1      +   0.101 *0.899
   718          ?        2:1      +   0.026 *0.974
   719          ?        2:1      +   0     *1    
   720          ?        2:1      +   0.027 *0.973
   721          ?        1:0      +  *0.959  0.041
   722          ?        2:1      +   0.095 *0.905
   723          ?        2:1      +   0.005 *0.995
   724          ?        1:0      +  *0.959  0.041
   725          ?        1:0      +  *0.959  0.041
   726          ?        2:1      +   0     *1    
   727          ?        1:0      +  *0.854  0.146
   728          ?        2:1      +   0.101 *0.899
   729          ?        2:1      +   0     *1    
   730          ?        2:1      +   0.258 *0.742
   731          ?        1:0      +  *0.854  0.146
   732          ?        1:0      +  *0.567  0.433
   733          ?        2:1      +   0.027 *0.973
   734          ?        1:0      +  *0.854  0.146
   735          ?        1:0      +  *0.937  0.063
   736          ?        1:0      +  *0.938  0.063
   737          ?        1:0      +  *0.924  0.076
   738          ?        1:0      +  *0.987  0.013
   739          ?        1:0      +  *0.636  0.364
   740          ?        2:1      +   0.091 *0.909
   741          ?        1:0      +  *0.567  0.433
   742          ?        2:1      +   0.22  *0.78 
   743          ?        1:0      +  *0.937  0.063
   744          ?        2:1      +   0.051 *0.949
   745          ?        2:1      +   0.027 *0.973
   746          ?        2:1      +   0.101 *0.899
   747          ?        1:0      +  *0.854  0.146
   748          ?        1:0      +  *0.938  0.063
   749          ?        2:1      +   0     *1    
   750          ?        1:0      +  *0.567  0.433
   751          ?        2:1      +   0.204 *0.796
   752          ?        1:0      +  *0.854  0.146
   753          ?        1:0      +  *0.938  0.063
   754          ?        2:1      +   0.051 *0.949
   755          ?        1:0      +  *0.636  0.364
   756          ?        1:0      +  *0.937  0.063
   757          ?        2:1      +   0.095 *0.905
   758          ?        1:0      +  *0.947  0.053
   759          ?        1:0      +  *0.959  0.041
   760          ?        1:0      +  *0.912  0.088
   761          ?        2:1      +   0     *1    
   762          ?        2:1      +   0.027 *0.973
   763          ?        1:0      +  *0.937  0.063
   764          ?        1:0      +  *0.937  0.063
   765          ?        1:0      +  *0.938  0.063
   766          ?        2:1      +   0.258 *0.742
   767          ?        2:1      +   0.101 *0.899
   768          ?        1:0      +  *0.937  0.063
   769          ?        1:0      +  *0.937  0.063
   770          ?        1:0      +  *0.937  0.063
   771          ?        2:1      +   0.051 *0.949
   772          ?        1:0      +  *0.636  0.364
   773          ?        1:0      +  *0.854  0.146
   774          ?        1:0      +  *0.912  0.088
   775          ?        2:1      +   0     *1    
   776          ?        2:1      +   0     *1    
   777          ?        2:1      +   0.204 *0.796
   778          ?        2:1      +   0.005 *0.995
   779          ?        2:1      +   0.101 *0.899
   780          ?        1:0      +  *0.947  0.053
   781          ?        2:1      +   0.258 *0.742
   782          ?        2:1      +   0.204 *0.796
   783          ?        2:1      +   0.051 *0.949
   784          ?        2:1      +   0.005 *0.995
   785          ?        1:0      +  *0.959  0.041
   786          ?        2:1      +   0.091 *0.909
   787          ?        1:0      +  *0.959  0.041
   788          ?        1:0      +  *0.567  0.433
   789          ?        2:1      +   0.027 *0.973
   790          ?        1:0      +  *0.947  0.053
   791          ?        2:1      +   0     *1    
   792          ?        1:0      +  *0.959  0.041
   793          ?        2:1      +   0.051 *0.949
   794          ?        2:1      +   0.095 *0.905
   795          ?        2:1      +   0     *1    
   796          ?        1:0      +  *0.947  0.053
   797          ?        1:0      +  *0.854  0.146
   798          ?        2:1      +   0     *1    
   799          ?        1:0      +  *0.987  0.013
   800          ?        1:0      +  *0.854  0.146
   801          ?        1:0      +  *0.937  0.063
   802          ?        2:1      +   0     *1    
   803          ?        2:1      +   0.051 *0.949
   804          ?        2:1      +   0.005 *0.995
   805          ?        2:1      +   0.258 *0.742
   806          ?        2:1      +   0.026 *0.974
   807          ?        1:0      +  *0.938  0.063
   808          ?        1:0      +  *0.987  0.013
   809          ?        2:1      +   0.005 *0.995
   810          ?        1:0      +  *0.567  0.433
   811          ?        2:1      +   0.005 *0.995
   812          ?        2:1      +   0.014 *0.986
   813          ?        1:0      +  *0.959  0.041
   814          ?        1:0      +  *0.912  0.088
   815          ?        2:1      +   0.095 *0.905
   816          ?        1:0      +  *0.937  0.063
   817          ?        2:1      +   0.027 *0.973
   818          ?        2:1      +   0.027 *0.973
   819          ?        2:1      +   0.051 *0.949
   820          ?        2:1      +   0.026 *0.974
   821          ?        2:1      +   0.091 *0.909
   822          ?        1:0      +  *0.924  0.076
   823          ?        2:1      +   0.026 *0.974
   824          ?        2:1      +   0.005 *0.995
   825          ?        1:0      +  *0.937  0.063
   826          ?        2:1      +   0.005 *0.995
   827          ?        1:0      +  *0.854  0.146
   828          ?        1:0      +  *0.854  0.146
   829          ?        2:1      +   0     *1    
   830          ?        1:0      +  *0.567  0.433
   831          ?        1:0      +  *0.947  0.053
   832          ?        2:1      +   0.027 *0.973
   833          ?        2:1      +   0     *1    
   834          ?        2:1      +   0.051 *0.949
   835          ?        2:1      +   0.027 *0.973
   836          ?        2:1      +   0.051 *0.949
   837          ?        2:1      +   0.091 *0.909
   838          ?        2:1      +   0.091 *0.909
   839          ?        1:0      +  *0.567  0.433
   840          ?        2:1      +   0     *1    
   841          ?        2:1      +   0     *1    
   842          ?        2:1      +   0.027 *0.973
   843          ?        1:0      +  *0.854  0.146
   844          ?        2:1      +   0.026 *0.974
   845          ?        1:0      +  *0.937  0.063
   846          ?        2:1      +   0     *1    
   847          ?        2:1      +   0.005 *0.995
   848          ?        2:1      +   0.027 *0.973
   849          ?        2:1      +   0.026 *0.974
   850          ?        1:0      +  *0.912  0.088
   851          ?        1:0      +  *0.959  0.041
   852          ?        1:0      +  *0.947  0.053
   853          ?        2:1      +   0.095 *0.905
   854          ?        1:0      +  *0.987  0.013
   855          ?        2:1      +   0     *1    
   856          ?        2:1      +   0     *1    
   857          ?        2:1      +   0.027 *0.973
   858          ?        2:1      +   0     *1    
   859          ?        1:0      +  *0.938  0.063
   860          ?        2:1      +   0.091 *0.909
   861          ?        2:1      +   0.014 *0.986
   862          ?        1:0      +  *0.987  0.013
   863          ?        2:1      +   0     *1    
   864          ?        2:1      +   0     *1    
   865          ?        1:0      +  *0.924  0.076
   866          ?        2:1      +   0.027 *0.973
   867          ?        2:1      +   0.204 *0.796
   868          ?        2:1      +   0.258 *0.742
   869          ?        1:0      +  *0.854  0.146
   870          ?        1:0      +  *0.937  0.063
   871          ?        1:0      +  *0.924  0.076
   872          ?        2:1      +   0     *1    
   873          ?        1:0      +  *0.854  0.146
   874          ?        2:1      +   0.051 *0.949
   875          ?        2:1      +   0     *1    
   876          ?        2:1      +   0.005 *0.995
   877          ?        2:1      +   0.091 *0.909
   878          ?        1:0      +  *0.959  0.041
   879          ?        1:0      +  *0.912  0.088
   880          ?        1:0      +  *0.937  0.063
   881          ?        2:1      +   0.101 *0.899
   882          ?        1:0      +  *0.924  0.076
   883          ?        2:1      +   0.027 *0.973
   884          ?        2:1      +   0.014 *0.986
   885          ?        1:0      +  *0.959  0.041
   886          ?        2:1      +   0.027 *0.973
   887          ?        1:0      +  *0.959  0.041
   888          ?        2:1      +   0.026 *0.974
   889          ?        1:0      +  *0.854  0.146
   890          ?        1:0      +  *0.937  0.063
   891          ?        1:0      +  *0.959  0.041
   892          ?        2:1      +   0.014 *0.986
   893          ?        1:0      +  *0.854  0.146
   894          ?        1:0      +  *0.937  0.063
   895          ?        1:0      +  *0.959  0.041
   896          ?        1:0      +  *0.947  0.053
   897          ?        2:1      +   0     *1    
   898          ?        2:1      +   0     *1    
   899          ?        2:1      +   0     *1    
   900          ?        1:0      +  *0.854  0.146
   901          ?        2:1      +   0.091 *0.909
   902          ?        1:0      +  *0.947  0.053
   903          ?        1:0      +  *0.987  0.013
   904          ?        2:1      +   0.014 *0.986
   905          ?        2:1      +   0.101 *0.899
   906          ?        2:1      +   0.027 *0.973
   907          ?        2:1      +   0.051 *0.949
   908          ?        2:1      +   0.095 *0.905
   909          ?        2:1      +   0.101 *0.899
   910          ?        1:0      +  *0.987  0.013
   911          ?        1:0      +  *0.912  0.088
   912          ?        2:1      +   0.005 *0.995
   913          ?        1:0      +  *0.937  0.063
   914          ?        2:1      +   0.091 *0.909
   915          ?        2:1      +   0.258 *0.742
   916          ?        2:1      +   0.027 *0.973
   917          ?        2:1      +   0.051 *0.949
   918          ?        1:0      +  *0.937  0.063
   919          ?        1:0      +  *0.938  0.063
   920          ?        2:1      +   0.005 *0.995
   921          ?        2:1      +   0.051 *0.949
   922          ?        2:1      +   0.051 *0.949
   923          ?        2:1      +   0.027 *0.973
   924          ?        2:1      +   0.091 *0.909
   925          ?        1:0      +  *0.924  0.076
   926          ?        1:0      +  *0.636  0.364
   927          ?        1:0      +  *0.636  0.364
   928          ?        2:1      +   0.051 *0.949
   929          ?        1:0      +  *0.987  0.013
   930          ?        2:1      +   0.051 *0.949
   931          ?        2:1      +   0.026 *0.974
   932          ?        1:0      +  *0.636  0.364
   933          ?        1:0      +  *0.924  0.076
   934          ?        2:1      +   0.014 *0.986
   935          ?        1:0      +  *0.854  0.146
   936          ?        1:0      +  *0.938  0.063
   937          ?        2:1      +   0     *1    
   938          ?        2:1      +   0.051 *0.949
   939          ?        2:1      +   0     *1    
   940          ?        1:0      +  *0.947  0.053
   941          ?        2:1      +   0.027 *0.973
   942          ?        2:1      +   0.005 *0.995
   943          ?        2:1      +   0.051 *0.949
   944          ?        2:1      +   0     *1    
   945          ?        2:1      +   0     *1    
   946          ?        1:0      +  *0.987  0.013
   947          ?        1:0      +  *0.912  0.088
   948          ?        1:0      +  *0.937  0.063
   949          ?        2:1      +   0.095 *0.905
   950          ?        1:0      +  *0.937  0.063
   951          ?        1:0      +  *0.937  0.063
   952          ?        1:0      +  *0.636  0.364
   953          ?        1:0      +  *0.937  0.063
   954          ?        2:1      +   0.026 *0.974
   955          ?        2:1      +   0     *1    
   956          ?        1:0      +  *0.636  0.364
   957          ?        1:0      +  *0.924  0.076
   958          ?        2:1      +   0     *1    
   959          ?        1:0      +  *0.854  0.146
   960          ?        1:0      +  *0.937  0.063
   961          ?        2:1      +   0.051 *0.949
   962          ?        2:1      +   0.091 *0.909
   963          ?        2:1      +   0.051 *0.949
   964          ?        1:0      +  *0.937  0.063
   965          ?        2:1      +   0.091 *0.909
   966          ?        2:1      +   0.051 *0.949
   967          ?        2:1      +   0.026 *0.974
   968          ?        1:0      +  *0.987  0.013
   969          ?        2:1      +   0.204 *0.796
   970          ?        2:1      +   0.026 *0.974
   971          ?        1:0      +  *0.854  0.146
   972          ?        2:1      +   0     *1    
   973          ?        1:0      +  *0.924  0.076
   974          ?        1:0      +  *0.636  0.364
   975          ?        1:0      +  *0.987  0.013
   976          ?        2:1      +   0.005 *0.995
   977          ?        2:1      +   0.005 *0.995
   978          ?        1:0      +  *0.987  0.013
   979          ?        1:0      +  *0.959  0.041
   980          ?        2:1      +   0.014 *0.986
   981          ?        2:1      +   0.027 *0.973
   982          ?        1:0      +  *0.959  0.041
   983          ?        2:1      +   0.005 *0.995
   984          ?        1:0      +  *0.854  0.146
   985          ?        1:0      +  *0.924  0.076
   986          ?        1:0      +  *0.937  0.063
   987          ?        2:1      +   0     *1    
   988          ?        1:0      +  *0.636  0.364
   989          ?        2:1      +   0.051 *0.949
   990          ?        1:0      +  *0.947  0.053
   991          ?        1:0      +  *0.987  0.013
   992          ?        2:1      +   0.014 *0.986
   993          ?        2:1      +   0.091 *0.909
   994          ?        2:1      +   0.051 *0.949
   995          ?        2:1      +   0.051 *0.949
   996          ?        1:0      +  *0.567  0.433
   997          ?        2:1      +   0.051 *0.949
   998          ?        2:1      +   0.005 *0.995
   999          ?        2:1      +   0.051 *0.949
  1000          ?        1:0      +  *0.947  0.053
  1001          ?        2:1      +   0.258 *0.742
  1002          ?        2:1      +   0     *1    
  1003          ?        2:1      +   0     *1    
  1004          ?        1:0      +  *0.947  0.053
  1005          ?        2:1      +   0     *1    
  1006          ?        2:1      +   0.095 *0.905
  1007          ?        2:1      +   0.101 *0.899
  1008          ?        1:0      +  *0.854  0.146
  1009          ?        2:1      +   0.027 *0.973
  1010          ?        1:0      +  *0.938  0.063
  1011          ?        2:1      +   0.051 *0.949
  1012          ?        1:0      +  *0.854  0.146
  1013          ?        2:1      +   0.027 *0.973
  1014          ?        2:1      +   0.027 *0.973
  1015          ?        2:1      +   0.014 *0.986
  1016          ?        2:1      +   0     *1    
  1017          ?        2:1      +   0.027 *0.973
  1018          ?        1:0      +  *0.937  0.063
  1019          ?        2:1      +   0     *1    
  1020          ?        2:1      +   0.095 *0.905
  1021          ?        2:1      +   0.005 *0.995
  1022          ?        1:0      +  *0.924  0.076
  1023          ?        1:0      +  *0.937  0.063
  1024          ?        2:1      +   0.051 *0.949
  1025          ?        2:1      +   0.095 *0.905
  1026          ?        2:1      +   0.026 *0.974
  1027          ?        2:1      +   0.091 *0.909
  1028          ?        2:1      +   0     *1    
  1029          ?        2:1      +   0.204 *0.796
  1030          ?        1:0      +  *0.937  0.063
  1031          ?        1:0      +  *0.937  0.063
  1032          ?        2:1      +   0     *1    
  1033          ?        2:1      +   0.027 *0.973
  1034          ?        1:0      +  *0.854  0.146
  1035          ?        1:0      +  *0.987  0.013
  1036          ?        2:1      +   0.2   *0.8  
  1037          ?        2:1      +   0.051 *0.949
  1038          ?        2:1      +   0.101 *0.899
  1039          ?        1:0      +  *0.937  0.063
  1040          ?        2:1      +   0     *1    
  1041          ?        1:0      +  *0.937  0.063
  1042          ?        2:1      +   0.027 *0.973
  1043          ?        1:0      +  *0.987  0.013
  1044          ?        2:1      +   0     *1    
  1045          ?        2:1      +   0     *1    
  1046          ?        2:1      +   0.027 *0.973
  1047          ?        1:0      +  *0.912  0.088
  1048          ?        1:0      +  *0.854  0.146
  1049          ?        2:1      +   0.051 *0.949
  1050          ?        2:1      +   0.101 *0.899
  1051          ?        2:1      +   0     *1    
  1052          ?        2:1      +   0.051 *0.949
  1053          ?        2:1      +   0.095 *0.905
  1054          ?        2:1      +   0.005 *0.995
  1055          ?        2:1      +   0.204 *0.796
  1056          ?        2:1      +   0     *1    
  1057          ?        1:0      +  *0.924  0.076
  1058          ?        2:1      +   0.258 *0.742
  1059          ?        2:1      +   0.014 *0.986
  1060          ?        2:1      +   0.005 *0.995
  1061          ?        1:0      +  *0.854  0.146
  1062          ?        1:0      +  *0.938  0.063
  1063          ?        2:1      +   0.026 *0.974
  1064          ?        2:1      +   0.051 *0.949
  1065          ?        2:1      +   0.014 *0.986
  1066          ?        2:1      +   0.051 *0.949
  1067          ?        1:0      +  *0.912  0.088
  1068          ?        2:1      +   0.051 *0.949
  1069          ?        1:0      +  *0.938  0.063
  1070          ?        2:1      +   0.091 *0.909
  1071          ?        2:1      +   0.091 *0.909
  1072          ?        2:1      +   0.027 *0.973
  1073          ?        2:1      +   0.027 *0.973
  1074          ?        1:0      +  *0.854  0.146
  1075          ?        1:0      +  *0.912  0.088
  1076          ?        1:0      +  *0.959  0.041
  1077          ?        2:1      +   0.027 *0.973
  1078          ?        2:1      +   0.005 *0.995
  1079          ?        2:1      +   0.095 *0.905
  1080          ?        2:1      +   0     *1    
  1081          ?        2:1      +   0.051 *0.949
  1082          ?        1:0      +  *0.938  0.063
  1083          ?        2:1      +   0.005 *0.995
  1084          ?        1:0      +  *0.937  0.063
  1085          ?        1:0      +  *0.854  0.146
  1086          ?        2:1      +   0.051 *0.949
  1087          ?        2:1      +   0.204 *0.796
  1088          ?        1:0      +  *0.912  0.088
  1089          ?        2:1      +   0.204 *0.796
  1090          ?        1:0      +  *0.636  0.364
  1091          ?        1:0      +  *0.937  0.063
  1092          ?        2:1      +   0     *1    
  1093          ?        2:1      +   0.005 *0.995
  1094          ?        2:1      +   0.014 *0.986
  1095          ?        2:1      +   0     *1    
  1096          ?        2:1      +   0.095 *0.905
  1097          ?        1:0      +  *0.854  0.146
  1098          ?        2:1      +   0     *1    
  1099          ?        2:1      +   0     *1    
  1100          ?        2:1      +   0     *1    
  1101          ?        1:0      +  *0.924  0.076
  1102          ?        2:1      +   0.027 *0.973
  1103          ?        2:1      +   0.091 *0.909
  1104          ?        1:0      +  *0.924  0.076
  1105          ?        1:0      +  *0.636  0.364
  1106          ?        2:1      +   0.026 *0.974
  1107          ?        1:0      +  *0.947  0.053
  1108          ?        2:1      +   0.091 *0.909
  1109          ?        2:1      +   0.101 *0.899
  1110          ?        2:1      +   0.051 *0.949
  1111          ?        1:0      +  *0.854  0.146
  1112          ?        2:1      +   0.095 *0.905
  1113          ?        2:1      +   0.026 *0.974
  1114          ?        1:0      +  *0.636  0.364
  1115          ?        1:0      +  *0.938  0.063
  1116          ?        1:0      +  *0.987  0.013
  1117          ?        1:0      +  *0.912  0.088
  1118          ?        1:0      +  *0.636  0.364
  1119          ?        2:1      +   0.051 *0.949
  1120          ?        1:0      +  *0.987  0.013
  1121          ?        2:1      +   0.091 *0.909
  1122          ?        1:0      +  *0.937  0.063
  1123          ?        2:1      +   0.22  *0.78 
  1124          ?        2:1      +   0.026 *0.974
  1125          ?        2:1      +   0.095 *0.905
  1126          ?        2:1      +   0.014 *0.986
  1127          ?        2:1      +   0.027 *0.973
  1128          ?        1:0      +  *0.912  0.088
  1129          ?        2:1      +   0.027 *0.973
  1130          ?        2:1      +   0.101 *0.899
  1131          ?        2:1      +   0.091 *0.909
  1132          ?        2:1      +   0.091 *0.909
  1133          ?        2:1      +   0.204 *0.796
  1134          ?        2:1      +   0.026 *0.974
  1135          ?        1:0      +  *0.987  0.013
  1136          ?        2:1      +   0     *1    
  1137          ?        2:1      +   0.091 *0.909
  1138          ?        2:1      +   0     *1    
  1139          ?        1:0      +  *0.912  0.088
  1140          ?        1:0      +  *0.937  0.063
  1141          ?        2:1      +   0.027 *0.973
  1142          ?        2:1      +   0.258 *0.742
  1143          ?        2:1      +   0.027 *0.973
  1144          ?        2:1      +   0     *1    
  1145          ?        1:0      +  *0.854  0.146
  1146          ?        2:1      +   0.027 *0.973
  1147          ?        2:1      +   0     *1    
  1148          ?        1:0      +  *0.636  0.364
  1149          ?        2:1      +   0.014 *0.986
  1150          ?        1:0      +  *0.937  0.063
  1151          ?        1:0      +  *0.854  0.146
  1152          ?        1:0      +  *0.937  0.063
  1153          ?        1:0      +  *0.854  0.146
  1154          ?        2:1      +   0.258 *0.742
  1155          ?        1:0      +  *0.567  0.433
  1156          ?        2:1      +   0.026 *0.974
  1157          ?        2:1      +   0     *1    
  1158          ?        1:0      +  *0.937  0.063
  1159          ?        2:1      +   0.258 *0.742
  1160          ?        2:1      +   0     *1    
  1161          ?        2:1      +   0.051 *0.949
  1162          ?        2:1      +   0.258 *0.742
  1163          ?        2:1      +   0.027 *0.973
  1164          ?        2:1      +   0.091 *0.909
  1165          ?        1:0      +  *0.987  0.013
  1166          ?        2:1      +   0.204 *0.796
  1167          ?        2:1      +   0     *1    
  1168          ?        1:0      +  *0.854  0.146
  1169          ?        1:0      +  *0.924  0.076
  1170          ?        2:1      +   0.005 *0.995
  1171          ?        2:1      +   0     *1    
  1172          ?        2:1      +   0.005 *0.995
  1173          ?        1:0      +  *0.636  0.364
  1174          ?        2:1      +   0     *1    
  1175          ?        1:0      +  *0.567  0.433
  1176          ?        2:1      +   0.258 *0.742
  1177          ?        2:1      +   0.091 *0.909
  1178          ?        2:1      +   0.095 *0.905
  1179          ?        1:0      +  *0.924  0.076
  1180          ?        2:1      +   0.026 *0.974
  1181          ?        1:0      +  *0.987  0.013
  1182          ?        1:0      +  *0.947  0.053
  1183          ?        1:0      +  *0.924  0.076
  1184          ?        1:0      +  *0.938  0.063
  1185          ?        2:1      +   0     *1    
  1186          ?        2:1      +   0     *1    
  1187          ?        2:1      +   0.005 *0.995
  1188          ?        1:0      +  *0.912  0.088
  1189          ?        2:1      +   0     *1    
  1190          ?        2:1      +   0     *1    
  1191          ?        1:0      +  *0.912  0.088
  1192          ?        2:1      +   0.005 *0.995
  1193          ?        2:1      +   0.005 *0.995
  1194          ?        2:1      +   0     *1    
  1195          ?        2:1      +   0     *1    
  1196          ?        2:1      +   0.026 *0.974
  1197          ?        1:0      +  *0.959  0.041
  1198          ?        2:1      +   0     *1    
  1199          ?        2:1      +   0.051 *0.949
  1200          ?        2:1      +   0.027 *0.973
  1201          ?        1:0      +  *0.938  0.063
  1202          ?        2:1      +   0.204 *0.796
  1203          ?        2:1      +   0.095 *0.905
  1204          ?        1:0      +  *0.567  0.433
  1205          ?        1:0      +  *0.854  0.146
  1206          ?        2:1      +   0.014 *0.986
  1207          ?        2:1      +   0.014 *0.986
  1208          ?        1:0      +  *0.987  0.013
  1209          ?        2:1      +   0.014 *0.986
  1210          ?        2:1      +   0.027 *0.973
  1211          ?        1:0      +  *0.924  0.076
  1212          ?        2:1      +   0.22  *0.78 
  1213          ?        1:0      +  *0.636  0.364
  1214          ?        1:0      +  *0.937  0.063
  1215          ?        2:1      +   0     *1    
  1216          ?        2:1      +   0.051 *0.949
  1217          ?        2:1      +   0     *1    
  1218          ?        2:1      +   0.22  *0.78 
  1219          ?        2:1      +   0.204 *0.796
  1220          ?        2:1      +   0.101 *0.899
  1221          ?        2:1      +   0.051 *0.949
  1222          ?        2:1      +   0.026 *0.974
  1223          ?        1:0      +  *0.636  0.364
  1224          ?        2:1      +   0     *1    
  1225          ?        1:0      +  *0.912  0.088
  1226          ?        1:0      +  *0.636  0.364
  1227          ?        2:1      +   0.005 *0.995
  1228          ?        2:1      +   0.026 *0.974
  1229          ?        1:0      +  *0.924  0.076
  1230          ?        1:0      +  *0.854  0.146
  1231          ?        2:1      +   0.005 *0.995
  1232          ?        1:0      +  *0.924  0.076
  1233          ?        1:0      +  *0.636  0.364
  1234          ?        2:1      +   0.091 *0.909
  1235          ?        2:1      +   0.027 *0.973
  1236          ?        2:1      +   0.014 *0.986
  1237          ?        2:1      +   0     *1    
  1238          ?        1:0      +  *0.987  0.013
  1239          ?        1:0      +  *0.937  0.063
  1240          ?        2:1      +   0     *1    
  1241          ?        1:0      +  *0.937  0.063
  1242          ?        1:0      +  *0.924  0.076
  1243          ?        2:1      +   0.005 *0.995
  1244          ?        2:1      +   0.005 *0.995
  1245          ?        1:0      +  *0.959  0.041
  1246          ?        1:0      +  *0.938  0.063
  1247          ?        1:0      +  *0.959  0.041
  1248          ?        2:1      +   0.051 *0.949
  1249          ?        2:1      +   0.095 *0.905
  1250          ?        2:1      +   0.051 *0.949
  1251          ?        2:1      +   0.258 *0.742
  1252          ?        2:1      +   0     *1    
  1253          ?        2:1      +   0     *1    
  1254          ?        2:1      +   0.027 *0.973
  1255          ?        2:1      +   0     *1    
  1256          ?        2:1      +   0.091 *0.909
  1257          ?        1:0      +  *0.959  0.041
  1258          ?        2:1      +   0.258 *0.742
  1259          ?        2:1      +   0.101 *0.899
  1260          ?        1:0      +  *0.937  0.063
  1261          ?        1:0      +  *0.636  0.364
  1262          ?        2:1      +   0.051 *0.949
  1263          ?        2:1      +   0.101 *0.899
  1264          ?        2:1      +   0     *1    
  1265          ?        2:1      +   0.091 *0.909
  1266          ?        1:0      +  *0.912  0.088
  1267          ?        2:1      +   0     *1    
  1268          ?        2:1      +   0.051 *0.949
  1269          ?        2:1      +   0     *1    
  1270          ?        2:1      +   0.204 *0.796
  1271          ?        2:1      +   0.051 *0.949
  1272          ?        1:0      +  *0.912  0.088
  1273          ?        1:0      +  *0.567  0.433
  1274          ?        2:1      +   0.101 *0.899
  1275          ?        1:0      +  *0.924  0.076
  1276          ?        2:1      +   0.101 *0.899
  1277          ?        2:1      +   0     *1    
  1278          ?        2:1      +   0     *1    
  1279          ?        2:1      +   0.095 *0.905
  1280          ?        1:0      +  *0.937  0.063
  1281          ?        2:1      +   0.026 *0.974
  1282          ?        1:0      +  *0.987  0.013
  1283          ?        2:1      +   0.027 *0.973
  1284          ?        1:0      +  *0.937  0.063
  1285          ?        1:0      +  *0.636  0.364
  1286          ?        1:0      +  *0.937  0.063
  1287          ?        2:1      +   0     *1    
  1288          ?        1:0      +  *0.959  0.041
  1289          ?        2:1      +   0.051 *0.949
  1290          ?        2:1      +   0.027 *0.973
  1291          ?        2:1      +   0.091 *0.909
  1292          ?        1:0      +  *0.636  0.364
  1293          ?        1:0      +  *0.854  0.146
  1294          ?        2:1      +   0.101 *0.899
  1295          ?        2:1      +   0     *1    
  1296          ?        1:0      +  *0.854  0.146
  1297          ?        2:1      +   0.005 *0.995
  1298          ?        1:0      +  *0.937  0.063
  1299          ?        2:1      +   0.027 *0.973
  1300          ?        2:1      +   0.026 *0.974
  1301          ?        2:1      +   0.027 *0.973
  1302          ?        1:0      +  *0.854  0.146
  1303          ?        2:1      +   0     *1    
  1304          ?        1:0      +  *0.987  0.013
  1305          ?        1:0      +  *0.924  0.076
  1306          ?        2:1      +   0.258 *0.742
  1307          ?        2:1      +   0.091 *0.909
  1308          ?        2:1      +   0     *1    
  1309          ?        1:0      +  *0.937  0.063
  1310          ?        2:1      +   0.091 *0.909
  1311          ?        2:1      +   0.005 *0.995
  1312          ?        1:0      +  *0.854  0.146
  1313          ?        2:1      +   0.027 *0.973
  1314          ?        2:1      +   0     *1    
  1315          ?        1:0      +  *0.567  0.433
  1316          ?        2:1      +   0.051 *0.949
  1317          ?        2:1      +   0.051 *0.949
  1318          ?        2:1      +   0.026 *0.974
  1319          ?        2:1      +   0.005 *0.995
  1320          ?        1:0      +  *0.937  0.063
  1321          ?        1:0      +  *0.938  0.063
  1322          ?        2:1      +   0.091 *0.909
  1323          ?        2:1      +   0.095 *0.905
  1324          ?        2:1      +   0.22  *0.78 
  1325          ?        2:1      +   0.027 *0.973
  1326          ?        1:0      +  *0.854  0.146
  1327          ?        1:0      +  *0.947  0.053
  1328          ?        2:1      +   0.026 *0.974
  1329          ?        2:1      +   0     *1    
  1330          ?        2:1      +   0.091 *0.909
  1331          ?        1:0      +  *0.937  0.063
  1332          ?        2:1      +   0.026 *0.974
  1333          ?        1:0      +  *0.636  0.364
  1334          ?        2:1      +   0.051 *0.949
  1335          ?        1:0      +  *0.987  0.013
  1336          ?        2:1      +   0.026 *0.974
  1337          ?        1:0      +  *0.912  0.088
  1338          ?        2:1      +   0.22  *0.78 
  1339          ?        1:0      +  *0.924  0.076
  1340          ?        2:1      +   0     *1    
  1341          ?        1:0      +  *0.636  0.364
  1342          ?        2:1      +   0.051 *0.949
  1343          ?        2:1      +   0.005 *0.995
  1344          ?        2:1      +   0.258 *0.742
  1345          ?        2:1      +   0.258 *0.742
  1346          ?        2:1      +   0.091 *0.909
  1347          ?        2:1      +   0.258 *0.742
  1348          ?        1:0      +  *0.854  0.146
  1349          ?        1:0      +  *0.959  0.041
  1350          ?        1:0      +  *0.924  0.076
  1351          ?        1:0      +  *0.947  0.053
  1352          ?        1:0      +  *0.912  0.088
  1353          ?        1:0      +  *0.912  0.088
  1354          ?        2:1      +   0.267 *0.733
  1355          ?        2:1      +   0.026 *0.974
  1356          ?        1:0      +  *0.854  0.146
  1357          ?        1:0      +  *0.987  0.013
  1358          ?        2:1      +   0.051 *0.949
  1359          ?        2:1      +   0.204 *0.796
  1360          ?        1:0      +  *0.959  0.041
  1361          ?        1:0      +  *0.636  0.364
  1362          ?        2:1      +   0     *1    
  1363          ?        2:1      +   0.005 *0.995
  1364          ?        1:0      +  *0.947  0.053
  1365          ?        1:0      +  *0.938  0.063
  1366          ?        2:1      +   0     *1    
  1367          ?        1:0      +  *0.854  0.146
  1368          ?        1:0      +  *0.854  0.146
  1369          ?        1:0      +  *0.959  0.041
  1370          ?        2:1      +   0     *1    
  1371          ?        1:0      +  *0.567  0.433
  1372          ?        2:1      +   0.258 *0.742
  1373          ?        2:1      +   0.258 *0.742
  1374          ?        2:1      +   0.051 *0.949
  1375          ?        2:1      +   0.091 *0.909
  1376          ?        1:0      +  *0.912  0.088
  1377          ?        1:0      +  *0.854  0.146
  1378          ?        1:0      +  *0.987  0.013
  1379          ?        2:1      +   0.091 *0.909
  1380          ?        2:1      +   0     *1    
  1381          ?        2:1      +   0     *1    
  1382          ?        2:1      +   0.051 *0.949
  1383          ?        2:1      +   0.091 *0.909
  1384          ?        2:1      +   0.014 *0.986
  1385          ?        2:1      +   0.095 *0.905
  1386          ?        2:1      +   0.091 *0.909
  1387          ?        2:1      +   0.051 *0.949
  1388          ?        1:0      +  *0.959  0.041
  1389          ?        2:1      +   0.101 *0.899
  1390          ?        2:1      +   0     *1    
  1391          ?        1:0      +  *0.854  0.146
  1392          ?        2:1      +   0.051 *0.949
  1393          ?        2:1      +   0.005 *0.995
  1394          ?        2:1      +   0     *1    
  1395          ?        2:1      +   0.014 *0.986
  1396          ?        2:1      +   0.101 *0.899
  1397          ?        2:1      +   0.051 *0.949
  1398          ?        2:1      +   0.214 *0.786
  1399          ?        2:1      +   0.027 *0.973
  1400          ?        1:0      +  *0.854  0.146
  1401          ?        1:0      +  *0.567  0.433
  1402          ?        1:0      +  *0.636  0.364
  1403          ?        2:1      +   0     *1    
  1404          ?        1:0      +  *0.937  0.063
  1405          ?        1:0      +  *0.938  0.063
  1406          ?        1:0      +  *0.912  0.088
  1407          ?        2:1      +   0     *1    
  1408          ?        2:1      +   0.204 *0.796
  1409          ?        2:1      +   0.101 *0.899
  1410          ?        2:1      +   0.026 *0.974
  1411          ?        2:1      +   0     *1    
  1412          ?        2:1      +   0.095 *0.905
  1413          ?        2:1      +   0.027 *0.973
  1414          ?        1:0      +  *0.912  0.088
  1415          ?        2:1      +   0.095 *0.905
  1416          ?        2:1      +   0.101 *0.899
  1417          ?        1:0      +  *0.959  0.041
  1418          ?        2:1      +   0.027 *0.973
  1419          ?        2:1      +   0.026 *0.974
  1420          ?        2:1      +   0.051 *0.949
  1421          ?        1:0      +  *0.567  0.433
  1422          ?        2:1      +   0     *1    
  1423          ?        2:1      +   0.095 *0.905
  1424          ?        1:0      +  *0.854  0.146
  1425          ?        2:1      +   0.005 *0.995
  1426          ?        1:0      +  *0.947  0.053
  1427          ?        2:1      +   0.051 *0.949
  1428          ?        1:0      +  *0.937  0.063
  1429          ?        2:1      +   0.026 *0.974
  1430          ?        2:1      +   0.051 *0.949
  1431          ?        1:0      +  *0.987  0.013
  1432          ?        2:1      +   0.027 *0.973
  1433          ?        1:0      +  *0.938  0.063
  1434          ?        1:0      +  *0.959  0.041
  1435          ?        1:0      +  *0.636  0.364
  1436          ?        1:0      +  *0.854  0.146
  1437          ?        2:1      +   0     *1    
  1438          ?        2:1      +   0.026 *0.974
  1439          ?        2:1      +   0.005 *0.995
  1440          ?        1:0      +  *0.947  0.053
  1441          ?        1:0      +  *0.937  0.063
  1442          ?        2:1      +   0     *1    
  1443          ?        1:0      +  *0.912  0.088
  1444          ?        1:0      +  *0.854  0.146
  1445          ?        2:1      +   0.051 *0.949
  1446          ?        1:0      +  *0.854  0.146
  1447          ?        1:0      +  *0.937  0.063
  1448          ?        2:1      +   0.204 *0.796
  1449          ?        1:0      +  *0.854  0.146
  1450          ?        2:1      +   0.091 *0.909
  1451          ?        1:0      +  *0.937  0.063
  1452          ?        2:1      +   0.095 *0.905
  1453          ?        1:0      +  *0.937  0.063
  1454          ?        2:1      +   0.027 *0.973
  1455          ?        2:1      +   0.027 *0.973
  1456          ?        2:1      +   0.204 *0.796
  1457          ?        2:1      +   0     *1    
  1458          ?        2:1      +   0.101 *0.899
  1459          ?        1:0      +  *0.987  0.013
  1460          ?        2:1      +   0.005 *0.995
  1461          ?        2:1      +   0     *1    
  1462          ?        2:1      +   0.027 *0.973
  1463          ?        2:1      +   0.027 *0.973
  1464          ?        1:0      +  *0.937  0.063
  1465          ?        2:1      +   0     *1    
  1466          ?        2:1      +   0.026 *0.974
  1467          ?        2:1      +   0.027 *0.973
  1468          ?        2:1      +   0.051 *0.949
  1469          ?        2:1      +   0.005 *0.995
  1470          ?        2:1      +   0.014 *0.986
  1471          ?        2:1      +   0     *1    
  1472          ?        2:1      +   0.22  *0.78 
  1473          ?        2:1      +   0.014 *0.986
  1474          ?        1:0      +  *0.937  0.063
  1475          ?        2:1      +   0     *1    
  1476          ?        2:1      +   0     *1    
  1477          ?        2:1      +   0.204 *0.796
  1478          ?        1:0      +  *0.959  0.041
  1479          ?        2:1      +   0     *1    
  1480          ?        1:0      +  *0.938  0.063
  1481          ?        2:1      +   0     *1    
  1482          ?        2:1      +   0.091 *0.909
  1483          ?        2:1      +   0     *1    
  1484          ?        2:1      +   0.005 *0.995
  1485          ?        2:1      +   0.005 *0.995
  1486          ?        2:1      +   0.095 *0.905
  1487          ?        1:0      +  *0.987  0.013
  1488          ?        1:0      +  *0.987  0.013
  1489          ?        2:1      +   0.005 *0.995
  1490          ?        1:0      +  *0.937  0.063
  1491          ?        2:1      +   0.027 *0.973
  1492          ?        1:0      +  *0.924  0.076
  1493          ?        2:1      +   0.026 *0.974
  1494          ?        2:1      +   0.005 *0.995
  1495          ?        1:0      +  *0.924  0.076
  1496          ?        2:1      +   0.258 *0.742
  1497          ?        1:0      +  *0.937  0.063
  1498          ?        1:0      +  *0.733  0.267
  1499          ?        1:0      +  *0.854  0.146
  1500          ?        1:0      +  *0.854  0.146
  1501          ?        2:1      +   0     *1    
  1502          ?        1:0      +  *0.959  0.041
  1503          ?        1:0      +  *0.912  0.088
  1504          ?        1:0      +  *0.938  0.063
  1505          ?        2:1      +   0.051 *0.949
  1506          ?        2:1      +   0     *1    
  1507          ?        2:1      +   0.258 *0.742
  1508          ?        2:1      +   0.051 *0.949
  1509          ?        1:0      +  *0.987  0.013
  1510          ?        2:1      +   0.005 *0.995
  1511          ?        1:0      +  *0.987  0.013
  1512          ?        2:1      +   0.027 *0.973
  1513          ?        1:0      +  *0.959  0.041
  1514          ?        2:1      +   0.258 *0.742
  1515          ?        2:1      +   0     *1    
  1516          ?        2:1      +   0     *1    
  1517          ?        2:1      +   0     *1    
  1518          ?        2:1      +   0     *1    
  1519          ?        2:1      +   0.22  *0.78 
  1520          ?        2:1      +   0     *1    
  1521          ?        2:1      +   0.051 *0.949
  1522          ?        2:1      +   0.204 *0.796
  1523          ?        1:0      +  *0.937  0.063
  1524          ?        1:0      +  *0.938  0.063
  1525          ?        2:1      +   0     *1    
  1526          ?        1:0      +  *0.912  0.088
  1527          ?        2:1      +   0     *1    
  1528          ?        2:1      +   0     *1    
  1529          ?        2:1      +   0     *1    
  1530          ?        2:1      +   0.005 *0.995
  1531          ?        2:1      +   0     *1    
  1532          ?        1:0      +  *0.938  0.063
  1533          ?        1:0      +  *0.937  0.063
  1534          ?        2:1      +   0.026 *0.974
  1535          ?        1:0      +  *0.937  0.063
  1536          ?        2:1      +   0.026 *0.974
  1537          ?        1:0      +  *0.636  0.364
  1538          ?        2:1      +   0.005 *0.995
  1539          ?        2:1      +   0.014 *0.986
  1540          ?        1:0      +  *0.854  0.146
  1541          ?        2:1      +   0     *1    
  1542          ?        1:0      +  *0.947  0.053
  1543          ?        2:1      +   0.051 *0.949
  1544          ?        2:1      +   0.095 *0.905
  1545          ?        2:1      +   0.051 *0.949
  1546          ?        2:1      +   0.091 *0.909
  1547          ?        2:1      +   0     *1    
  1548          ?        2:1      +   0.027 *0.973
  1549          ?        1:0      +  *0.854  0.146
  1550          ?        2:1      +   0.051 *0.949
  1551          ?        2:1      +   0.051 *0.949
  1552          ?        2:1      +   0.005 *0.995
  1553          ?        2:1      +   0.005 *0.995
  1554          ?        1:0      +  *0.937  0.063
  1555          ?        2:1      +   0     *1    
  1556          ?        2:1      +   0.026 *0.974
  1557          ?        2:1      +   0     *1    
  1558          ?        2:1      +   0.027 *0.973
  1559          ?        1:0      +  *0.987  0.013
  1560          ?        1:0      +  *0.854  0.146
  1561          ?        2:1      +   0.014 *0.986
  1562          ?        2:1      +   0.005 *0.995
  1563          ?        2:1      +   0     *1    
  1564          ?        1:0      +  *0.959  0.041
  1565          ?        2:1      +   0     *1    
  1566          ?        1:0      +  *0.854  0.146
  1567          ?        2:1      +   0     *1    
  1568          ?        2:1      +   0.051 *0.949
  1569          ?        1:0      +  *0.567  0.433
  1570          ?        2:1      +   0.204 *0.796
  1571          ?        1:0      +  *0.987  0.013
  1572          ?        2:1      +   0.091 *0.909
  1573          ?        1:0      +  *0.947  0.053
  1574          ?        2:1      +   0.005 *0.995
  1575          ?        1:0      +  *0.937  0.063
  1576          ?        1:0      +  *0.924  0.076
  1577          ?        2:1      +   0     *1    
  1578          ?        2:1      +   0.051 *0.949
  1579          ?        2:1      +   0     *1    
  1580          ?        2:1      +   0.005 *0.995
  1581          ?        1:0      +  *0.937  0.063
  1582          ?        2:1      +   0     *1    
  1583          ?        2:1      +   0.091 *0.909
  1584          ?        1:0      +  *0.959  0.041
  1585          ?        2:1      +   0.005 *0.995
  1586          ?        1:0      +  *0.937  0.063
  1587          ?        2:1      +   0.026 *0.974
  1588          ?        1:0      +  *0.854  0.146
  1589          ?        2:1      +   0.258 *0.742
  1590          ?        2:1      +   0.027 *0.973
  1591          ?        2:1      +   0.051 *0.949
  1592          ?        2:1      +   0.027 *0.973
  1593          ?        2:1      +   0     *1    
  1594          ?        2:1      +   0     *1    
  1595          ?        1:0      +  *0.987  0.013
  1596          ?        2:1      +   0.026 *0.974
  1597          ?        1:0      +  *0.959  0.041
  1598          ?        2:1      +   0.005 *0.995
  1599          ?        2:1      +   0.027 *0.973
  1600          ?        1:0      +  *0.567  0.433
  1601          ?        1:0      +  *0.924  0.076
  1602          ?        2:1      +   0.051 *0.949
  1603          ?        2:1      +   0.101 *0.899
  1604          ?        1:0      +  *0.636  0.364
  1605          ?        2:1      +   0.101 *0.899
  1606          ?        2:1      +   0     *1    
  1607          ?        1:0      +  *0.987  0.013
  1608          ?        2:1      +   0.027 *0.973
  1609          ?        2:1      +   0.051 *0.949
  1610          ?        2:1      +   0.051 *0.949
  1611          ?        1:0      +  *0.938  0.063
  1612          ?        2:1      +   0.095 *0.905
  1613          ?        2:1      +   0     *1    
  1614          ?        1:0      +  *0.987  0.013
  1615          ?        2:1      +   0     *1    
  1616          ?        2:1      +   0.027 *0.973
  1617          ?        1:0      +  *0.854  0.146
  1618          ?        1:0      +  *0.937  0.063
  1619          ?        2:1      +   0.214 *0.786
  1620          ?        2:1      +   0.051 *0.949
  1621          ?        1:0      +  *0.959  0.041
  1622          ?        2:1      +   0.204 *0.796
  1623          ?        2:1      +   0     *1    
  1624          ?        1:0      +  *0.924  0.076
  1625          ?        1:0      +  *0.947  0.053
  1626          ?        1:0      +  *0.854  0.146
  1627          ?        1:0      +  *0.937  0.063
  1628          ?        1:0      +  *0.912  0.088
  1629          ?        1:0      +  *0.938  0.063
  1630          ?        1:0      +  *0.854  0.146
  1631          ?        2:1      +   0.005 *0.995
  1632          ?        1:0      +  *0.636  0.364
  1633          ?        1:0      +  *0.947  0.053
  1634          ?        2:1      +   0.027 *0.973
  1635          ?        2:1      +   0.051 *0.949
  1636          ?        2:1      +   0.005 *0.995
  1637          ?        2:1      +   0.051 *0.949
  1638          ?        2:1      +   0.014 *0.986
  1639          ?        1:0      +  *0.947  0.053
  1640          ?        2:1      +   0.095 *0.905
  1641          ?        1:0      +  *0.947  0.053
  1642          ?        2:1      +   0.095 *0.905
  1643          ?        2:1      +   0     *1    
  1644          ?        2:1      +   0     *1    
  1645          ?        2:1      +   0.014 *0.986
  1646          ?        1:0      +  *0.567  0.433
  1647          ?        1:0      +  *0.947  0.053
  1648          ?        1:0      +  *0.937  0.063
  1649          ?        2:1      +   0.051 *0.949
  1650          ?        2:1      +   0.005 *0.995
  1651          ?        2:1      +   0.095 *0.905
  1652          ?        2:1      +   0.051 *0.949
  1653          ?        2:1      +   0.051 *0.949
  1654          ?        2:1      +   0.005 *0.995
  1655          ?        2:1      +   0.027 *0.973
  1656          ?        1:0      +  *0.924  0.076
  1657          ?        2:1      +   0.027 *0.973
  1658          ?        1:0      +  *0.854  0.146
  1659          ?        2:1      +   0.014 *0.986
  1660          ?        2:1      +   0.051 *0.949
  1661          ?        2:1      +   0.051 *0.949
  1662          ?        1:0      +  *0.947  0.053
  1663          ?        1:0      +  *0.937  0.063
  1664          ?        1:0      +  *0.937  0.063
  1665          ?        2:1      +   0.027 *0.973
  1666          ?        1:0      +  *0.924  0.076
  1667          ?        2:1      +   0.027 *0.973
  1668          ?        1:0      +  *0.959  0.041
  1669          ?        2:1      +   0.005 *0.995
  1670          ?        1:0      +  *0.937  0.063
  1671          ?        2:1      +   0.091 *0.909
  1672          ?        1:0      +  *0.924  0.076
  1673          ?        2:1      +   0.2   *0.8  
  1674          ?        2:1      +   0.258 *0.742
  1675          ?        2:1      +   0.051 *0.949
  1676          ?        2:1      +   0.005 *0.995
  1677          ?        2:1      +   0     *1    
  1678          ?        1:0      +  *0.987  0.013
  1679          ?        2:1      +   0.027 *0.973
  1680          ?        2:1      +   0.051 *0.949
  1681          ?        1:0      +  *0.959  0.041
  1682          ?        1:0      +  *0.854  0.146
  1683          ?        2:1      +   0.026 *0.974
  1684          ?        2:1      +   0.095 *0.905
  1685          ?        1:0      +  *0.937  0.063
  1686          ?        2:1      +   0     *1    
  1687          ?        2:1      +   0.051 *0.949
  1688          ?        1:0      +  *0.937  0.063
  1689          ?        1:0      +  *0.937  0.063
  1690          ?        1:0      +  *0.987  0.013
  1691          ?        1:0      +  *0.567  0.433
  1692          ?        1:0      +  *0.937  0.063
  1693          ?        1:0      +  *0.938  0.063
  1694          ?        1:0      +  *0.937  0.063
  1695          ?        2:1      +   0.014 *0.986
  1696          ?        1:0      +  *0.854  0.146
  1697          ?        1:0      +  *0.938  0.063
  1698          ?        2:1      +   0.051 *0.949
  1699          ?        1:0      +  *0.947  0.053
  1700          ?        2:1      +   0     *1    
  1701          ?        2:1      +   0     *1    
  1702          ?        2:1      +   0.091 *0.909
  1703          ?        2:1      +   0     *1    
  1704          ?        1:0      +  *0.938  0.063
  1705          ?        1:0      +  *0.636  0.364
  1706          ?        1:0      +  *0.938  0.063
  1707          ?        2:1      +   0.091 *0.909
  1708          ?        1:0      +  *0.567  0.433
  1709          ?        2:1      +   0.014 *0.986
  1710          ?        2:1      +   0.027 *0.973
  1711          ?        2:1      +   0.051 *0.949
  1712          ?        1:0      +  *0.937  0.063
  1713          ?        2:1      +   0.091 *0.909
  1714          ?        2:1      +   0.101 *0.899
  1715          ?        2:1      +   0.204 *0.796
  1716          ?        2:1      +   0.005 *0.995
  1717          ?        1:0      +  *0.959  0.041
  1718          ?        2:1      +   0     *1    
  1719          ?        1:0      +  *0.636  0.364
  1720          ?        1:0      +  *0.937  0.063
  1721          ?        1:0      +  *0.924  0.076
  1722          ?        2:1      +   0     *1    
  1723          ?        2:1      +   0.014 *0.986
  1724          ?        2:1      +   0.204 *0.796
  1725          ?        2:1      +   0.005 *0.995
  1726          ?        2:1      +   0     *1    
  1727          ?        2:1      +   0.204 *0.796
  1728          ?        2:1      +   0.026 *0.974
  1729          ?        1:0      +  *0.912  0.088
  1730          ?        2:1      +   0.027 *0.973
  1731          ?        1:0      +  *0.912  0.088
  1732          ?        2:1      +   0.095 *0.905
  1733          ?        2:1      +   0.026 *0.974
  1734          ?        2:1      +   0.101 *0.899
  1735          ?        2:1      +   0.005 *0.995
  1736          ?        2:1      +   0     *1    
  1737          ?        1:0      +  *0.947  0.053
  1738          ?        1:0      +  *0.987  0.013
  1739          ?        1:0      +  *0.912  0.088
  1740          ?        1:0      +  *0.854  0.146
  1741          ?        1:0      +  *0.947  0.053
  1742          ?        2:1      +   0.027 *0.973
  1743          ?        2:1      +   0.027 *0.973
  1744          ?        2:1      +   0     *1    
  1745          ?        1:0      +  *0.959  0.041
  1746          ?        1:0      +  *0.854  0.146
  1747          ?        2:1      +   0.091 *0.909
  1748          ?        1:0      +  *0.912  0.088
  1749          ?        1:0      +  *0.937  0.063
  1750          ?        2:1      +   0.027 *0.973
  1751          ?        1:0      +  *0.938  0.063
  1752          ?        2:1      +   0.014 *0.986
  1753          ?        1:0      +  *0.987  0.013
  1754          ?        2:1      +   0.091 *0.909
  1755          ?        2:1      +   0.051 *0.949
  1756          ?        2:1      +   0.258 *0.742
  1757          ?        2:1      +   0.027 *0.973
  1758          ?        2:1      +   0.101 *0.899
  1759          ?        1:0      +  *0.924  0.076
  1760          ?        1:0      +  *0.938  0.063
  1761          ?        1:0      +  *0.854  0.146
  1762          ?        2:1      +   0     *1    
  1763          ?        2:1      +   0.258 *0.742
  1764          ?        1:0      +  *0.567  0.433
  1765          ?        2:1      +   0.051 *0.949
  1766          ?        1:0      +  *0.636  0.364
  1767          ?        2:1      +   0.095 *0.905
  1768          ?        2:1      +   0.051 *0.949
  1769          ?        1:0      +  *0.733  0.267
  1770          ?        1:0      +  *0.567  0.433
  1771          ?        1:0      +  *0.937  0.063
  1772          ?        1:0      +  *0.987  0.013
  1773          ?        1:0      +  *0.938  0.063
  1774          ?        2:1      +   0.051 *0.949
  1775          ?        2:1      +   0.005 *0.995
  1776          ?        2:1      +   0.005 *0.995
  1777          ?        2:1      +   0     *1    
  1778          ?        2:1      +   0     *1    
  1779          ?        1:0      +  *0.912  0.088
  1780          ?        2:1      +   0.051 *0.949
  1781          ?        2:1      +   0.005 *0.995
  1782          ?        2:1      +   0     *1    
  1783          ?        1:0      +  *0.937  0.063
  1784          ?        2:1      +   0.005 *0.995
  1785          ?        1:0      +  *0.912  0.088
  1786          ?        2:1      +   0     *1    
  1787          ?        2:1      +   0.091 *0.909
  1788          ?        1:0      +  *0.987  0.013
  1789          ?        1:0      +  *0.912  0.088
  1790          ?        2:1      +   0.005 *0.995
  1791          ?        2:1      +   0.027 *0.973
  1792          ?        1:0      +  *0.937  0.063
  1793          ?        2:1      +   0.026 *0.974
  1794          ?        2:1      +   0.014 *0.986
  1795          ?        1:0      +  *0.854  0.146
  1796          ?        2:1      +   0     *1    
  1797          ?        2:1      +   0.027 *0.973
  1798          ?        1:0      +  *0.938  0.063
  1799          ?        2:1      +   0.051 *0.949
  1800          ?        1:0      +  *0.924  0.076
  1801          ?        2:1      +   0.258 *0.742
  1802          ?        2:1      +   0.005 *0.995
  1803          ?        2:1      +   0.204 *0.796
  1804          ?        2:1      +   0.095 *0.905
  1805          ?        2:1      +   0.005 *0.995
  1806          ?        1:0      +  *0.959  0.041
  1807          ?        1:0      +  *0.937  0.063
  1808          ?        1:0      +  *0.959  0.041
  1809          ?        2:1      +   0.258 *0.742
  1810          ?        2:1      +   0     *1    
  1811          ?        2:1      +   0     *1    
  1812          ?        2:1      +   0.027 *0.973
  1813          ?        2:1      +   0.091 *0.909
  1814          ?        1:0      +  *0.567  0.433
  1815          ?        2:1      +   0.014 *0.986
  1816          ?        2:1      +   0     *1    
  1817          ?        2:1      +   0.014 *0.986
  1818          ?        2:1      +   0.051 *0.949
  1819          ?        2:1      +   0     *1    
  1820          ?        2:1      +   0.091 *0.909
  1821          ?        2:1      +   0     *1    
  1822          ?        2:1      +   0     *1    
  1823          ?        2:1      +   0.051 *0.949
  1824          ?        2:1      +   0.095 *0.905
  1825          ?        2:1      +   0     *1    
  1826          ?        2:1      +   0.051 *0.949
  1827          ?        1:0      +  *0.924  0.076
  1828          ?        1:0      +  *0.567  0.433
  1829          ?        1:0      +  *0.959  0.041
  1830          ?        2:1      +   0.051 *0.949
  1831          ?        2:1      +   0.027 *0.973
  1832          ?        2:1      +   0     *1    
  1833          ?        1:0      +  *0.636  0.364
  1834          ?        1:0      +  *0.987  0.013
  1835          ?        2:1      +   0     *1    
  1836          ?        1:0      +  *0.947  0.053
  1837          ?        2:1      +   0.091 *0.909
  1838          ?        2:1      +   0     *1    
  1839          ?        2:1      +   0.014 *0.986
  1840          ?        1:0      +  *0.636  0.364
  1841          ?        1:0      +  *0.924  0.076
  1842          ?        1:0      +  *0.938  0.063
  1843          ?        2:1      +   0.258 *0.742
  1844          ?        1:0      +  *0.912  0.088
  1845          ?        2:1      +   0     *1    
  1846          ?        2:1      +   0     *1    
  1847          ?        1:0      +  *0.947  0.053
  1848          ?        2:1      +   0.091 *0.909
  1849          ?        2:1      +   0.258 *0.742
  1850          ?        1:0      +  *0.937  0.063
  1851          ?        1:0      +  *0.636  0.364
  1852          ?        2:1      +   0.051 *0.949
  1853          ?        2:1      +   0.051 *0.949
  1854          ?        2:1      +   0.005 *0.995
  1855          ?        1:0      +  *0.636  0.364
  1856          ?        1:0      +  *0.924  0.076
  1857          ?        2:1      +   0     *1    
  1858          ?        2:1      +   0.027 *0.973
  1859          ?        1:0      +  *0.912  0.088
  1860          ?        1:0      +  *0.567  0.433
  1861          ?        1:0      +  *0.636  0.364
  1862          ?        2:1      +   0.091 *0.909
  1863          ?        1:0      +  *0.937  0.063
  1864          ?        1:0      +  *0.924  0.076
  1865          ?        2:1      +   0.258 *0.742
  1866          ?        2:1      +   0     *1    
  1867          ?        2:1      +   0.258 *0.742
  1868          ?        2:1      +   0.095 *0.905
  1869          ?        2:1      +   0.005 *0.995
  1870          ?        1:0      +  *0.912  0.088
  1871          ?        1:0      +  *0.924  0.076
  1872          ?        2:1      +   0.095 *0.905
  1873          ?        1:0      +  *0.959  0.041
  1874          ?        1:0      +  *0.854  0.146
  1875          ?        1:0      +  *0.854  0.146
  1876          ?        2:1      +   0.258 *0.742
  1877          ?        1:0      +  *0.854  0.146
  1878          ?        2:1      +   0     *1    
  1879          ?        2:1      +   0.204 *0.796
  1880          ?        1:0      +  *0.959  0.041
  1881          ?        1:0      +  *0.636  0.364
  1882          ?        2:1      +   0.051 *0.949
  1883          ?        2:1      +   0.051 *0.949
  1884          ?        2:1      +   0.051 *0.949
  1885          ?        1:0      +  *0.567  0.433
  1886          ?        1:0      +  *0.636  0.364
  1887          ?        2:1      +   0.027 *0.973
  1888          ?        2:1      +   0.095 *0.905
  1889          ?        1:0      +  *0.854  0.146
  1890          ?        2:1      +   0.258 *0.742
  1891          ?        1:0      +  *0.947  0.053
  1892          ?        2:1      +   0.027 *0.973
  1893          ?        1:0      +  *0.854  0.146
  1894          ?        1:0      +  *0.938  0.063
  1895          ?        2:1      +   0.204 *0.796
  1896          ?        1:0      +  *0.947  0.053
  1897          ?        2:1      +   0.204 *0.796
  1898          ?        1:0      +  *0.854  0.146
  1899          ?        2:1      +   0.091 *0.909
  1900          ?        2:1      +   0.026 *0.974
  1901          ?        1:0      +  *0.987  0.013
  1902          ?        2:1      +   0.005 *0.995
  1903          ?        2:1      +   0.22  *0.78 
  1904          ?        2:1      +   0     *1    
  1905          ?        2:1      +   0.258 *0.742
  1906          ?        2:1      +   0.258 *0.742
  1907          ?        1:0      +  *0.937  0.063
  1908          ?        2:1      +   0.258 *0.742
  1909          ?        2:1      +   0.027 *0.973
  1910          ?        1:0      +  *0.959  0.041
  1911          ?        2:1      +   0.101 *0.899
  1912          ?        2:1      +   0.005 *0.995
  1913          ?        1:0      +  *0.854  0.146
  1914          ?        1:0      +  *0.938  0.063
  1915          ?        1:0      +  *0.854  0.146
