=== Run information ===

Scheme:weka.classifiers.trees.J48 -C 0.25 -M 2
Relation:     weka.datagenerators.classifiers.classification.Agrawal-S_16_-n_10000_-F_2_-P_0.05-weka.filters.unsupervised.attribute.Remove-R7-8-weka.filters.unsupervised.attribute.Remove-R2
Instances:    10000
Attributes:   7
              salary
              age
              elevel
              car
              zipcode
              credit
              brand
Test mode:evaluate on training data

=== Classifier model (full training set) ===

J48 pruned tree
------------------

salary <= 125058.216748
|   salary <= 45570.475515
|   |   age <= 59: 1 (1340.0/23.0)
|   |   age > 59
|   |   |   salary <= 30848.552312
|   |   |   |   salary <= 24972.871141: 1 (148.0/39.0)
|   |   |   |   salary > 24972.871141
|   |   |   |   |   age <= 61: 1 (14.0/2.0)
|   |   |   |   |   age > 61: 0 (158.0/45.0)
|   |   |   salary > 30848.552312: 0 (348.0/14.0)
|   salary > 45570.475515
|   |   salary <= 100191.785343
|   |   |   age <= 40
|   |   |   |   salary <= 51922.383157: 1 (160.0/52.0)
|   |   |   |   salary > 51922.383157: 0 (1308.0/98.0)
|   |   |   age > 40
|   |   |   |   car = 1
|   |   |   |   |   zipcode = 0
|   |   |   |   |   |   elevel = 0: 0 (2.0/1.0)
|   |   |   |   |   |   elevel = 1: 1 (3.0/1.0)
|   |   |   |   |   |   elevel = 2: 0 (4.0)
|   |   |   |   |   |   elevel = 3: 1 (2.0)
|   |   |   |   |   |   elevel = 4: 1 (3.0/1.0)
|   |   |   |   |   zipcode = 1: 0 (17.0/7.0)
|   |   |   |   |   zipcode = 2
|   |   |   |   |   |   salary <= 61538.799629: 0 (4.0)
|   |   |   |   |   |   salary > 61538.799629: 1 (5.0/1.0)
|   |   |   |   |   zipcode = 3
|   |   |   |   |   |   salary <= 88864.911839: 0 (13.0/3.0)
|   |   |   |   |   |   salary > 88864.911839: 1 (5.0)
|   |   |   |   |   zipcode = 4
|   |   |   |   |   |   elevel = 0: 0 (3.0/1.0)
|   |   |   |   |   |   elevel = 1: 0 (0.0)
|   |   |   |   |   |   elevel = 2: 0 (5.0/1.0)
|   |   |   |   |   |   elevel = 3: 1 (3.0)
|   |   |   |   |   |   elevel = 4: 0 (0.0)
|   |   |   |   |   zipcode = 5: 0 (14.0/3.0)
|   |   |   |   |   zipcode = 6: 1 (14.0/5.0)
|   |   |   |   |   zipcode = 7: 0 (16.0/7.0)
|   |   |   |   |   zipcode = 8: 0 (19.0/8.0)
|   |   |   |   car = 2: 0 (138.0/58.0)
|   |   |   |   car = 3
|   |   |   |   |   zipcode = 0
|   |   |   |   |   |   credit <= 348544.49362: 0 (12.0/1.0)
|   |   |   |   |   |   credit > 348544.49362: 1 (6.0/2.0)
|   |   |   |   |   zipcode = 1
|   |   |   |   |   |   age <= 50: 1 (4.0)
|   |   |   |   |   |   age > 50: 0 (11.0/3.0)
|   |   |   |   |   zipcode = 2: 0 (13.0/6.0)
|   |   |   |   |   zipcode = 3
|   |   |   |   |   |   salary <= 67603.678887: 1 (3.0/1.0)
|   |   |   |   |   |   salary > 67603.678887: 0 (7.0/2.0)
|   |   |   |   |   zipcode = 4
|   |   |   |   |   |   elevel = 0
|   |   |   |   |   |   |   credit <= 193313.014267: 1 (4.0)
|   |   |   |   |   |   |   credit > 193313.014267: 0 (2.0)
|   |   |   |   |   |   elevel = 1
|   |   |   |   |   |   |   salary <= 72016.769331: 0 (2.0)
|   |   |   |   |   |   |   salary > 72016.769331: 1 (3.0)
|   |   |   |   |   |   elevel = 2: 1 (2.0)
|   |   |   |   |   |   elevel = 3: 0 (2.0)
|   |   |   |   |   |   elevel = 4
|   |   |   |   |   |   |   credit <= 257665.313498: 0 (3.0)
|   |   |   |   |   |   |   credit > 257665.313498: 1 (2.0)
|   |   |   |   |   zipcode = 5: 1 (23.0/8.0)
|   |   |   |   |   zipcode = 6: 0 (18.0/7.0)
|   |   |   |   |   zipcode = 7
|   |   |   |   |   |   elevel = 0: 0 (1.0)
|   |   |   |   |   |   elevel = 1: 0 (4.0)
|   |   |   |   |   |   elevel = 2: 0 (2.0/1.0)
|   |   |   |   |   |   elevel = 3: 1 (4.0)
|   |   |   |   |   |   elevel = 4: 0 (4.0/1.0)
|   |   |   |   |   zipcode = 8: 1 (16.0/7.0)
|   |   |   |   car = 4
|   |   |   |   |   zipcode = 0: 1 (15.0/5.0)
|   |   |   |   |   zipcode = 1
|   |   |   |   |   |   elevel = 0: 1 (1.0)
|   |   |   |   |   |   elevel = 1
|   |   |   |   |   |   |   age <= 61: 0 (3.0)
|   |   |   |   |   |   |   age > 61: 1 (3.0)
|   |   |   |   |   |   elevel = 2: 1 (1.0)
|   |   |   |   |   |   elevel = 3
|   |   |   |   |   |   |   credit <= 107005.316139: 0 (2.0)
|   |   |   |   |   |   |   credit > 107005.316139: 1 (4.0)
|   |   |   |   |   |   elevel = 4: 0 (2.0/1.0)
|   |   |   |   |   zipcode = 2: 0 (11.0/2.0)
|   |   |   |   |   zipcode = 3
|   |   |   |   |   |   salary <= 88624.669663: 0 (11.0/2.0)
|   |   |   |   |   |   salary > 88624.669663: 1 (3.0)
|   |   |   |   |   zipcode = 4
|   |   |   |   |   |   elevel = 0
|   |   |   |   |   |   |   credit <= 128995.408236: 1 (3.0)
|   |   |   |   |   |   |   credit > 128995.408236: 0 (3.0)
|   |   |   |   |   |   elevel = 1: 1 (5.0/1.0)
|   |   |   |   |   |   elevel = 2: 1 (2.0)
|   |   |   |   |   |   elevel = 3
|   |   |   |   |   |   |   credit <= 101566.653064: 0 (3.0)
|   |   |   |   |   |   |   credit > 101566.653064: 1 (5.0)
|   |   |   |   |   |   elevel = 4: 0 (3.0/1.0)
|   |   |   |   |   zipcode = 5
|   |   |   |   |   |   credit <= 102161.657751: 1 (3.0)
|   |   |   |   |   |   credit > 102161.657751: 0 (12.0/4.0)
|   |   |   |   |   zipcode = 6
|   |   |   |   |   |   salary <= 79169.149987: 0 (12.0/4.0)
|   |   |   |   |   |   salary > 79169.149987: 1 (5.0/1.0)
|   |   |   |   |   zipcode = 7: 0 (10.0/4.0)
|   |   |   |   |   zipcode = 8
|   |   |   |   |   |   salary <= 56219.225775: 0 (3.0/1.0)
|   |   |   |   |   |   salary > 56219.225775: 1 (7.0/2.0)
|   |   |   |   car = 5
|   |   |   |   |   zipcode = 0
|   |   |   |   |   |   salary <= 71959.962161: 0 (3.0/1.0)
|   |   |   |   |   |   salary > 71959.962161: 1 (5.0/1.0)
|   |   |   |   |   zipcode = 1: 1 (14.0/6.0)
|   |   |   |   |   zipcode = 2
|   |   |   |   |   |   elevel = 0: 1 (5.0/1.0)
|   |   |   |   |   |   elevel = 1
|   |   |   |   |   |   |   age <= 63: 1 (3.0)
|   |   |   |   |   |   |   age > 63: 0 (3.0/1.0)
|   |   |   |   |   |   elevel = 2: 0 (5.0/1.0)
|   |   |   |   |   |   elevel = 3: 0 (1.0)
|   |   |   |   |   |   elevel = 4: 1 (6.0/1.0)
|   |   |   |   |   zipcode = 3: 0 (13.0/6.0)
|   |   |   |   |   zipcode = 4: 1 (11.0/5.0)
|   |   |   |   |   zipcode = 5
|   |   |   |   |   |   elevel = 0: 0 (3.0)
|   |   |   |   |   |   elevel = 1: 0 (2.0/1.0)
|   |   |   |   |   |   elevel = 2: 1 (5.0)
|   |   |   |   |   |   elevel = 3: 1 (4.0/1.0)
|   |   |   |   |   |   elevel = 4
|   |   |   |   |   |   |   credit <= 248311.043277: 0 (4.0/1.0)
|   |   |   |   |   |   |   credit > 248311.043277: 1 (2.0)
|   |   |   |   |   zipcode = 6: 0 (21.0/7.0)
|   |   |   |   |   zipcode = 7
|   |   |   |   |   |   elevel = 0
|   |   |   |   |   |   |   credit <= 295058.084236: 0 (6.0/1.0)
|   |   |   |   |   |   |   credit > 295058.084236: 1 (2.0)
|   |   |   |   |   |   elevel = 1: 0 (0.0)
|   |   |   |   |   |   elevel = 2: 1 (2.0)
|   |   |   |   |   |   elevel = 3: 0 (2.0)
|   |   |   |   |   |   elevel = 4: 0 (2.0/1.0)
|   |   |   |   |   zipcode = 8
|   |   |   |   |   |   elevel = 0
|   |   |   |   |   |   |   salary <= 70920.03086: 0 (2.0)
|   |   |   |   |   |   |   salary > 70920.03086: 1 (4.0/1.0)
|   |   |   |   |   |   elevel = 1: 0 (3.0/1.0)
|   |   |   |   |   |   elevel = 2: 0 (2.0)
|   |   |   |   |   |   elevel = 3
|   |   |   |   |   |   |   age <= 57: 1 (3.0)
|   |   |   |   |   |   |   age > 57: 0 (3.0/1.0)
|   |   |   |   |   |   elevel = 4: 1 (2.0)
|   |   |   |   car = 6
|   |   |   |   |   credit <= 175401.668538: 1 (38.0/15.0)
|   |   |   |   |   credit > 175401.668538
|   |   |   |   |   |   salary <= 90081.954296: 0 (68.0/31.0)
|   |   |   |   |   |   salary > 90081.954296: 1 (14.0/3.0)
|   |   |   |   car = 7
|   |   |   |   |   zipcode = 0: 0 (14.0/4.0)
|   |   |   |   |   zipcode = 1
|   |   |   |   |   |   age <= 59: 0 (9.0)
|   |   |   |   |   |   age > 59
|   |   |   |   |   |   |   salary <= 75688.215425: 0 (4.0)
|   |   |   |   |   |   |   salary > 75688.215425: 1 (8.0)
|   |   |   |   |   zipcode = 2
|   |   |   |   |   |   elevel = 0: 1 (2.0)
|   |   |   |   |   |   elevel = 1
|   |   |   |   |   |   |   salary <= 63305.721501: 0 (2.0)
|   |   |   |   |   |   |   salary > 63305.721501: 1 (2.0)
|   |   |   |   |   |   elevel = 2: 1 (3.0/1.0)
|   |   |   |   |   |   elevel = 3: 0 (1.0)
|   |   |   |   |   |   elevel = 4: 0 (4.0/1.0)
|   |   |   |   |   zipcode = 3
|   |   |   |   |   |   credit <= 180303.47322: 1 (3.0/1.0)
|   |   |   |   |   |   credit > 180303.47322: 0 (5.0)
|   |   |   |   |   zipcode = 4
|   |   |   |   |   |   age <= 58: 0 (4.0)
|   |   |   |   |   |   age > 58: 1 (2.0)
|   |   |   |   |   zipcode = 5
|   |   |   |   |   |   salary <= 89803.874427: 0 (20.0/5.0)
|   |   |   |   |   |   salary > 89803.874427: 1 (3.0)
|   |   |   |   |   zipcode = 6: 1 (19.0/9.0)
|   |   |   |   |   zipcode = 7
|   |   |   |   |   |   credit <= 284585.114819: 1 (6.0/1.0)
|   |   |   |   |   |   credit > 284585.114819: 0 (11.0/4.0)
|   |   |   |   |   zipcode = 8
|   |   |   |   |   |   salary <= 68117.004832: 0 (8.0/3.0)
|   |   |   |   |   |   salary > 68117.004832: 1 (6.0/1.0)
|   |   |   |   car = 8
|   |   |   |   |   zipcode = 0: 0 (17.0/6.0)
|   |   |   |   |   zipcode = 1: 1 (21.0/9.0)
|   |   |   |   |   zipcode = 2
|   |   |   |   |   |   elevel = 0: 0 (2.0/1.0)
|   |   |   |   |   |   elevel = 1
|   |   |   |   |   |   |   salary <= 56805.223459: 0 (2.0)
|   |   |   |   |   |   |   salary > 56805.223459: 1 (2.0)
|   |   |   |   |   |   elevel = 2
|   |   |   |   |   |   |   salary <= 86832.153969: 1 (3.0/1.0)
|   |   |   |   |   |   |   salary > 86832.153969: 0 (2.0)
|   |   |   |   |   |   elevel = 3: 0 (2.0)
|   |   |   |   |   |   elevel = 4: 1 (4.0)
|   |   |   |   |   zipcode = 3
|   |   |   |   |   |   credit <= 302309.023629
|   |   |   |   |   |   |   credit <= 159135.801114: 0 (3.0/1.0)
|   |   |   |   |   |   |   credit > 159135.801114: 1 (4.0)
|   |   |   |   |   |   credit > 302309.023629: 0 (5.0)
|   |   |   |   |   zipcode = 4: 0 (12.0/2.0)
|   |   |   |   |   zipcode = 5: 1 (13.0/5.0)
|   |   |   |   |   zipcode = 6: 1 (14.0/6.0)
|   |   |   |   |   zipcode = 7: 0 (14.0/6.0)
|   |   |   |   |   zipcode = 8
|   |   |   |   |   |   age <= 69
|   |   |   |   |   |   |   age <= 56: 1 (4.0/1.0)
|   |   |   |   |   |   |   age > 56: 0 (8.0)
|   |   |   |   |   |   age > 69: 1 (4.0)
|   |   |   |   car = 9: 1 (115.0/49.0)
|   |   |   |   car = 10
|   |   |   |   |   zipcode = 0: 1 (15.0/7.0)
|   |   |   |   |   zipcode = 1
|   |   |   |   |   |   salary <= 64540.868912: 1 (11.0/4.0)
|   |   |   |   |   |   salary > 64540.868912: 0 (12.0/3.0)
|   |   |   |   |   zipcode = 2: 1 (16.0/6.0)
|   |   |   |   |   zipcode = 3: 0 (13.0/6.0)
|   |   |   |   |   zipcode = 4: 0 (17.0/4.0)
|   |   |   |   |   zipcode = 5: 1 (15.0/4.0)
|   |   |   |   |   zipcode = 6
|   |   |   |   |   |   salary <= 75622.178071: 0 (6.0/2.0)
|   |   |   |   |   |   salary > 75622.178071: 1 (6.0/1.0)
|   |   |   |   |   zipcode = 7
|   |   |   |   |   |   salary <= 66090.674818: 1 (8.0/2.0)
|   |   |   |   |   |   salary > 66090.674818
|   |   |   |   |   |   |   age <= 66: 0 (6.0)
|   |   |   |   |   |   |   age > 66: 1 (3.0)
|   |   |   |   |   zipcode = 8: 1 (15.0/6.0)
|   |   |   |   car = 11
|   |   |   |   |   zipcode = 0
|   |   |   |   |   |   elevel = 0: 0 (2.0/1.0)
|   |   |   |   |   |   elevel = 1: 1 (3.0/1.0)
|   |   |   |   |   |   elevel = 2: 0 (5.0/1.0)
|   |   |   |   |   |   elevel = 3
|   |   |   |   |   |   |   age <= 52: 0 (2.0)
|   |   |   |   |   |   |   age > 52: 1 (2.0)
|   |   |   |   |   |   elevel = 4: 1 (6.0/1.0)
|   |   |   |   |   zipcode = 1
|   |   |   |   |   |   elevel = 0: 0 (2.0/1.0)
|   |   |   |   |   |   elevel = 1: 1 (4.0)
|   |   |   |   |   |   elevel = 2: 0 (4.0/1.0)
|   |   |   |   |   |   elevel = 3: 0 (3.0/1.0)
|   |   |   |   |   |   elevel = 4: 0 (3.0)
|   |   |   |   |   zipcode = 2
|   |   |   |   |   |   salary <= 65079.684098: 1 (4.0)
|   |   |   |   |   |   salary > 65079.684098: 0 (9.0/2.0)
|   |   |   |   |   zipcode = 3: 1 (11.0/5.0)
|   |   |   |   |   zipcode = 4: 1 (15.0/2.0)
|   |   |   |   |   zipcode = 5: 0 (15.0/7.0)
|   |   |   |   |   zipcode = 6: 0 (12.0/4.0)
|   |   |   |   |   zipcode = 7
|   |   |   |   |   |   salary <= 85196.450921: 0 (8.0/2.0)
|   |   |   |   |   |   salary > 85196.450921: 1 (5.0)
|   |   |   |   |   zipcode = 8
|   |   |   |   |   |   elevel = 0
|   |   |   |   |   |   |   salary <= 85221.703545: 1 (2.0)
|   |   |   |   |   |   |   salary > 85221.703545: 0 (2.0)
|   |   |   |   |   |   elevel = 1: 1 (2.0)
|   |   |   |   |   |   elevel = 2: 1 (4.0/1.0)
|   |   |   |   |   |   elevel = 3: 0 (1.0)
|   |   |   |   |   |   elevel = 4: 0 (4.0/1.0)
|   |   |   |   car = 12
|   |   |   |   |   zipcode = 0
|   |   |   |   |   |   elevel = 0: 0 (3.0)
|   |   |   |   |   |   elevel = 1
|   |   |   |   |   |   |   age <= 62: 1 (3.0/1.0)
|   |   |   |   |   |   |   age > 62: 0 (4.0)
|   |   |   |   |   |   elevel = 2: 1 (3.0)
|   |   |   |   |   |   elevel = 3: 1 (2.0)
|   |   |   |   |   |   elevel = 4: 1 (4.0/1.0)
|   |   |   |   |   zipcode = 1
|   |   |   |   |   |   salary <= 96812.920271: 1 (10.0/2.0)
|   |   |   |   |   |   salary > 96812.920271: 0 (2.0)
|   |   |   |   |   zipcode = 2: 0 (8.0/3.0)
|   |   |   |   |   zipcode = 3: 0 (18.0/4.0)
|   |   |   |   |   zipcode = 4: 1 (13.0/5.0)
|   |   |   |   |   zipcode = 5: 0 (14.0/6.0)
|   |   |   |   |   zipcode = 6: 1 (15.0/5.0)
|   |   |   |   |   zipcode = 7
|   |   |   |   |   |   elevel = 0: 1 (5.0/1.0)
|   |   |   |   |   |   elevel = 1: 1 (3.0/1.0)
|   |   |   |   |   |   elevel = 2: 0 (2.0)
|   |   |   |   |   |   elevel = 3: 0 (3.0)
|   |   |   |   |   |   elevel = 4
|   |   |   |   |   |   |   age <= 68: 1 (4.0)
|   |   |   |   |   |   |   age > 68: 0 (3.0)
|   |   |   |   |   zipcode = 8: 1 (15.0/7.0)
|   |   |   |   car = 13
|   |   |   |   |   zipcode = 0: 1 (12.0/3.0)
|   |   |   |   |   zipcode = 1: 0 (10.0/5.0)
|   |   |   |   |   zipcode = 2: 0 (14.0/4.0)
|   |   |   |   |   zipcode = 3: 1 (7.0/3.0)
|   |   |   |   |   zipcode = 4
|   |   |   |   |   |   salary <= 68767.777041: 0 (5.0)
|   |   |   |   |   |   salary > 68767.777041: 1 (4.0/1.0)
|   |   |   |   |   zipcode = 5: 0 (9.0/4.0)
|   |   |   |   |   zipcode = 6: 1 (17.0/6.0)
|   |   |   |   |   zipcode = 7
|   |   |   |   |   |   age <= 65: 0 (11.0/4.0)
|   |   |   |   |   |   age > 65: 1 (6.0)
|   |   |   |   |   zipcode = 8
|   |   |   |   |   |   elevel = 0: 1 (2.0)
|   |   |   |   |   |   elevel = 1: 0 (2.0)
|   |   |   |   |   |   elevel = 2: 1 (3.0)
|   |   |   |   |   |   elevel = 3: 0 (1.0)
|   |   |   |   |   |   elevel = 4: 0 (1.0)
|   |   |   |   car = 14: 1 (131.0/59.0)
|   |   |   |   car = 15
|   |   |   |   |   elevel = 0
|   |   |   |   |   |   credit <= 96275.545656: 0 (11.0/4.0)
|   |   |   |   |   |   credit > 96275.545656: 1 (19.0/7.0)
|   |   |   |   |   elevel = 1: 0 (37.0/17.0)
|   |   |   |   |   elevel = 2: 1 (29.0/13.0)
|   |   |   |   |   elevel = 3: 1 (29.0/12.0)
|   |   |   |   |   elevel = 4: 0 (40.0/10.0)
|   |   |   |   car = 16
|   |   |   |   |   zipcode = 0: 1 (9.0/3.0)
|   |   |   |   |   zipcode = 1: 1 (11.0/4.0)
|   |   |   |   |   zipcode = 2
|   |   |   |   |   |   salary <= 59628.936275: 1 (6.0/2.0)
|   |   |   |   |   |   salary > 59628.936275: 0 (14.0/6.0)
|   |   |   |   |   zipcode = 3: 1 (11.0/3.0)
|   |   |   |   |   zipcode = 4: 0 (10.0/5.0)
|   |   |   |   |   zipcode = 5
|   |   |   |   |   |   salary <= 88801.243717: 0 (9.0/2.0)
|   |   |   |   |   |   salary > 88801.243717: 1 (5.0)
|   |   |   |   |   zipcode = 6
|   |   |   |   |   |   age <= 43: 1 (2.0)
|   |   |   |   |   |   age > 43: 0 (19.0/4.0)
|   |   |   |   |   zipcode = 7: 1 (12.0/5.0)
|   |   |   |   |   zipcode = 8: 0 (16.0/7.0)
|   |   |   |   car = 17: 1 (142.0/68.0)
|   |   |   |   car = 18
|   |   |   |   |   zipcode = 0: 1 (12.0/3.0)
|   |   |   |   |   zipcode = 1
|   |   |   |   |   |   age <= 55: 1 (7.0/2.0)
|   |   |   |   |   |   age > 55: 0 (9.0/1.0)
|   |   |   |   |   zipcode = 2
|   |   |   |   |   |   elevel = 0: 1 (2.0)
|   |   |   |   |   |   elevel = 1: 1 (10.0/2.0)
|   |   |   |   |   |   elevel = 2: 0 (4.0/1.0)
|   |   |   |   |   |   elevel = 3: 1 (3.0)
|   |   |   |   |   |   elevel = 4
|   |   |   |   |   |   |   age <= 54: 1 (2.0)
|   |   |   |   |   |   |   age > 54: 0 (4.0)
|   |   |   |   |   zipcode = 3
|   |   |   |   |   |   elevel = 0
|   |   |   |   |   |   |   salary <= 63063.668714: 0 (2.0)
|   |   |   |   |   |   |   salary > 63063.668714: 1 (3.0)
|   |   |   |   |   |   elevel = 1: 0 (3.0)
|   |   |   |   |   |   elevel = 2
|   |   |   |   |   |   |   salary <= 87306.399592: 0 (2.0)
|   |   |   |   |   |   |   salary > 87306.399592: 1 (2.0)
|   |   |   |   |   |   elevel = 3: 1 (3.0)
|   |   |   |   |   |   elevel = 4: 0 (3.0)
|   |   |   |   |   zipcode = 4: 0 (22.0/8.0)
|   |   |   |   |   zipcode = 5
|   |   |   |   |   |   elevel = 0
|   |   |   |   |   |   |   salary <= 69248.372552: 0 (3.0)
|   |   |   |   |   |   |   salary > 69248.372552: 1 (3.0)
|   |   |   |   |   |   elevel = 1
|   |   |   |   |   |   |   credit <= 295622.376681: 0 (3.0)
|   |   |   |   |   |   |   credit > 295622.376681: 1 (2.0)
|   |   |   |   |   |   elevel = 2: 0 (4.0)
|   |   |   |   |   |   elevel = 3: 1 (1.0)
|   |   |   |   |   |   elevel = 4: 0 (2.0)
|   |   |   |   |   zipcode = 6: 0 (12.0/3.0)
|   |   |   |   |   zipcode = 7
|   |   |   |   |   |   credit <= 365135.27883: 0 (10.0/4.0)
|   |   |   |   |   |   credit > 365135.27883: 1 (6.0)
|   |   |   |   |   zipcode = 8: 1 (14.0/5.0)
|   |   |   |   car = 19
|   |   |   |   |   zipcode = 0: 0 (20.0/8.0)
|   |   |   |   |   zipcode = 1: 0 (17.0/6.0)
|   |   |   |   |   zipcode = 2
|   |   |   |   |   |   credit <= 175685.967941: 1 (6.0/1.0)
|   |   |   |   |   |   credit > 175685.967941
|   |   |   |   |   |   |   age <= 65: 0 (9.0/2.0)
|   |   |   |   |   |   |   age > 65: 1 (5.0/1.0)
|   |   |   |   |   zipcode = 3: 1 (14.0/5.0)
|   |   |   |   |   zipcode = 4
|   |   |   |   |   |   elevel = 0: 0 (1.0)
|   |   |   |   |   |   elevel = 1: 1 (3.0)
|   |   |   |   |   |   elevel = 2
|   |   |   |   |   |   |   credit <= 412399.644803: 0 (3.0)
|   |   |   |   |   |   |   credit > 412399.644803: 1 (2.0)
|   |   |   |   |   |   elevel = 3: 0 (2.0)
|   |   |   |   |   |   elevel = 4: 1 (3.0/1.0)
|   |   |   |   |   zipcode = 5
|   |   |   |   |   |   elevel = 0
|   |   |   |   |   |   |   salary <= 61600.36214: 0 (3.0)
|   |   |   |   |   |   |   salary > 61600.36214: 1 (2.0)
|   |   |   |   |   |   elevel = 1: 0 (3.0/1.0)
|   |   |   |   |   |   elevel = 2: 0 (3.0/1.0)
|   |   |   |   |   |   elevel = 3: 1 (5.0/1.0)
|   |   |   |   |   |   elevel = 4: 0 (4.0/1.0)
|   |   |   |   |   zipcode = 6
|   |   |   |   |   |   age <= 66: 0 (18.0/7.0)
|   |   |   |   |   |   age > 66: 1 (10.0/3.0)
|   |   |   |   |   zipcode = 7: 0 (21.0/7.0)
|   |   |   |   |   zipcode = 8: 1 (13.0/6.0)
|   |   |   |   car = 20
|   |   |   |   |   zipcode = 0: 0 (17.0/7.0)
|   |   |   |   |   zipcode = 1
|   |   |   |   |   |   credit <= 99920.550377: 0 (2.0)
|   |   |   |   |   |   credit > 99920.550377: 1 (7.0)
|   |   |   |   |   zipcode = 2
|   |   |   |   |   |   age <= 57: 1 (6.0/2.0)
|   |   |   |   |   |   age > 57: 0 (8.0/2.0)
|   |   |   |   |   zipcode = 3
|   |   |   |   |   |   elevel = 0: 1 (2.0)
|   |   |   |   |   |   elevel = 1: 0 (4.0/1.0)
|   |   |   |   |   |   elevel = 2: 0 (0.0)
|   |   |   |   |   |   elevel = 3: 1 (2.0)
|   |   |   |   |   |   elevel = 4: 0 (5.0/1.0)
|   |   |   |   |   zipcode = 4
|   |   |   |   |   |   elevel = 0: 1 (3.0/1.0)
|   |   |   |   |   |   elevel = 1: 0 (6.0/1.0)
|   |   |   |   |   |   elevel = 2: 0 (2.0)
|   |   |   |   |   |   elevel = 3: 0 (3.0/1.0)
|   |   |   |   |   |   elevel = 4: 1 (3.0)
|   |   |   |   |   zipcode = 5: 1 (11.0/5.0)
|   |   |   |   |   zipcode = 6: 0 (14.0/5.0)
|   |   |   |   |   zipcode = 7: 1 (8.0/3.0)
|   |   |   |   |   zipcode = 8: 0 (13.0/5.0)
|   |   salary > 100191.785343
|   |   |   age <= 38: 1 (591.0/42.0)
|   |   |   age > 38
|   |   |   |   age <= 58
|   |   |   |   |   salary <= 122788.802806: 0 (535.0/47.0)
|   |   |   |   |   salary > 122788.802806
|   |   |   |   |   |   zipcode = 0
|   |   |   |   |   |   |   credit <= 253880.390278: 1 (6.0)
|   |   |   |   |   |   |   credit > 253880.390278: 0 (5.0/1.0)
|   |   |   |   |   |   zipcode = 1: 0 (4.0)
|   |   |   |   |   |   zipcode = 2
|   |   |   |   |   |   |   credit <= 173429.385247: 0 (2.0)
|   |   |   |   |   |   |   credit > 173429.385247: 1 (8.0/1.0)
|   |   |   |   |   |   zipcode = 3: 0 (5.0)
|   |   |   |   |   |   zipcode = 4
|   |   |   |   |   |   |   age <= 51: 0 (2.0)
|   |   |   |   |   |   |   age > 51: 1 (2.0)
|   |   |   |   |   |   zipcode = 5: 1 (3.0/1.0)
|   |   |   |   |   |   zipcode = 6
|   |   |   |   |   |   |   credit <= 235019.069311: 0 (3.0)
|   |   |   |   |   |   |   credit > 235019.069311: 1 (4.0)
|   |   |   |   |   |   zipcode = 7: 0 (9.0/2.0)
|   |   |   |   |   |   zipcode = 8: 1 (6.0/2.0)
|   |   |   |   age > 58: 1 (696.0/40.0)
salary > 125058.216748: 1 (1934.0/36.0)

Number of Leaves  : 	329

Size of the tree : 	456


Time taken to build model: 0.18 seconds

=== Predictions on training set ===

inst#,    actual, predicted, error, probability distribution
     1        1:0        1:0         *0.912  0.088
     2        2:1        2:1          0.057 *0.943
     3        1:0        1:0         *0.925  0.075
     4        2:1        2:1          0.395 *0.605
     5        1:0        2:1      +   0.325 *0.675
     6        2:1        2:1          0.019 *0.981
     7        2:1        2:1          0.019 *0.981
     8        2:1        2:1          0.057 *0.943
     9        1:0        1:0         *0.925  0.075
    10        2:1        2:1          0.017 *0.983
    11        2:1        1:0      +  *0.778  0.222
    12        1:0        2:1      +   0.019 *0.981
    13        2:1        1:0      +  *0.667  0.333
    14        1:0        1:0         *0.925  0.075
    15        1:0        1:0         *0.544  0.456
    16        2:1        2:1          0.019 *0.981
    17        2:1        2:1          0.071 *0.929
    18        1:0        1:0         *0.912  0.088
    19        1:0        1:0         *0.912  0.088
    20        2:1        2:1          0     *1    
    21        1:0        1:0         *0.58   0.42 
    22        2:1        1:0      +  *0.75   0.25 
    23        2:1        2:1          0.264 *0.736
    24        2:1        2:1          0.017 *0.983
    25        2:1        2:1          0.017 *0.983
    26        2:1        2:1          0.2   *0.8  
    27        2:1        2:1          0.017 *0.983
    28        2:1        2:1          0.017 *0.983
    29        1:0        1:0         *0.58   0.42 
    30        2:1        2:1          0.057 *0.943
    31        2:1        2:1          0.019 *0.981
    32        1:0        1:0         *0.647  0.353
    33        2:1        1:0      +  *0.925  0.075
    34        1:0        1:0         *0.789  0.211
    35        2:1        2:1          0.019 *0.981
    36        2:1        2:1          0.017 *0.983
    37        2:1        2:1          0.017 *0.983
    38        2:1        2:1          0     *1    
    39        1:0        2:1      +   0.071 *0.929
    40        1:0        1:0         *1      0    
    41        2:1        2:1          0.071 *0.929
    42        2:1        2:1          0.019 *0.981
    43        2:1        2:1          0.325 *0.675
    44        1:0        1:0         *0.925  0.075
    45        2:1        1:0      +  *0.667  0.333
    46        2:1        2:1          0.019 *0.981
    47        1:0        1:0         *0.75   0.25 
    48        2:1        2:1          0     *1    
    49        2:1        2:1          0     *1    
    50        1:0        1:0         *0.818  0.182
    51        2:1        2:1          0.017 *0.983
    52        1:0        2:1      +   0.385 *0.615
    53        1:0        2:1      +   0.019 *0.981
    54        1:0        1:0         *0.912  0.088
    55        2:1        2:1          0.167 *0.833
    56        1:0        1:0         *0.925  0.075
    57        1:0        1:0         *0.727  0.273
    58        1:0        1:0         *0.912  0.088
    59        2:1        2:1          0.017 *0.983
    60        1:0        2:1      +   0.071 *0.929
    61        1:0        1:0         *0.96   0.04 
    62        2:1        2:1          0.019 *0.981
    63        2:1        1:0      +  *0.58   0.42 
    64        2:1        2:1          0.017 *0.983
    65        1:0        1:0         *0.75   0.25 
    66        1:0        1:0         *0.925  0.075
    67        1:0        1:0         *0.643  0.357
    68        2:1        2:1          0.019 *0.981
    69        1:0        1:0         *0.8    0.2  
    70        2:1        2:1          0.019 *0.981
    71        1:0        2:1      +   0.426 *0.574
    72        2:1        2:1          0.019 *0.981
    73        1:0        2:1      +   0.057 *0.943
    74        2:1        2:1          0.019 *0.981
    75        2:1        2:1          0.057 *0.943
    76        2:1        2:1          0.019 *0.981
    77        2:1        2:1          0.019 *0.981
    78        2:1        2:1          0.45  *0.55 
    79        1:0        1:0         *0.96   0.04 
    80        2:1        2:1          0.019 *0.981
    81        2:1        2:1          0.019 *0.981
    82        2:1        2:1          0.017 *0.983
    83        2:1        2:1          0     *1    
    84        2:1        2:1          0.019 *0.981
    85        1:0        1:0         *1      0    
    86        2:1        2:1          0.019 *0.981
    87        2:1        2:1          0.333 *0.667
    88        1:0        1:0         *0.75   0.25 
    89        2:1        2:1          0.325 *0.675
    90        2:1        2:1          0.017 *0.983
    91        1:0        1:0         *0.75   0.25 
    92        2:1        2:1          0.071 *0.929
    93        2:1        2:1          0.017 *0.983
    94        2:1        2:1          0.057 *0.943
    95        1:0        2:1      +   0.325 *0.675
    96        1:0        2:1      +   0.325 *0.675
    97        2:1        2:1          0.017 *0.983
    98        2:1        2:1          0.019 *0.981
    99        1:0        1:0         *0.925  0.075
   100        2:1        2:1          0     *1    
   101        2:1        2:1          0.017 *0.983
   102        2:1        2:1          0.071 *0.929
   103        2:1        1:0      +  *0.714  0.286
   104        2:1        2:1          0.019 *0.981
   105        2:1        2:1          0.45  *0.55 
   106        1:0        2:1      +   0.45  *0.55 
   107        2:1        2:1          0.017 *0.983
   108        1:0        1:0         *0.789  0.211
   109        2:1        2:1          0.017 *0.983
   110        2:1        2:1          0.264 *0.736
   111        2:1        2:1          0.019 *0.981
   112        2:1        1:0      +  *0.789  0.211
   113        2:1        2:1          0.019 *0.981
   114        1:0        1:0         *0.533  0.467
   115        2:1        2:1          0.019 *0.981
   116        1:0        1:0         *0.636  0.364
   117        2:1        2:1          0.057 *0.943
   118        2:1        2:1          0.057 *0.943
   119        2:1        2:1          0.019 *0.981
   120        2:1        2:1          0.057 *0.943
   121        2:1        2:1          0.071 *0.929
   122        2:1        2:1          0.325 *0.675
   123        1:0        1:0         *0.925  0.075
   124        2:1        2:1          0.017 *0.983
   125        2:1        2:1          0.019 *0.981
   126        1:0        2:1      +   0.45  *0.55 
   127        2:1        2:1          0.057 *0.943
   128        2:1        2:1          0.071 *0.929
   129        2:1        2:1          0.071 *0.929
   130        2:1        2:1          0.017 *0.983
   131        1:0        1:0         *0.925  0.075
   132        2:1        2:1          0.019 *0.981
   133        2:1        2:1          0.017 *0.983
   134        1:0        1:0         *0.925  0.075
   135        2:1        2:1          0.357 *0.643
   136        2:1        2:1          0.017 *0.983
   137        2:1        2:1          0.017 *0.983
   138        1:0        1:0         *0.912  0.088
   139        2:1        2:1          0.133 *0.867
   140        2:1        2:1          0.071 *0.929
   141        2:1        2:1          0.019 *0.981
   142        2:1        2:1          0.071 *0.929
   143        2:1        2:1          0.426 *0.574
   144        2:1        2:1          0.019 *0.981
   145        2:1        2:1          0.017 *0.983
   146        2:1        2:1          0.057 *0.943
   147        2:1        2:1          0.019 *0.981
   148        1:0        1:0         *0.96   0.04 
   149        2:1        2:1          0.017 *0.983
   150        2:1        2:1          0.019 *0.981
   151        1:0        1:0         *0.912  0.088
   152        1:0        1:0         *0.58   0.42 
   153        2:1        2:1          0.019 *0.981
   154        2:1        2:1          0.017 *0.983
   155        2:1        1:0      +  *0.96   0.04 
   156        2:1        2:1          0.019 *0.981
   157        2:1        2:1          0.019 *0.981
   158        2:1        2:1          0.057 *0.943
   159        1:0        1:0         *0.925  0.075
   160        2:1        2:1          0.017 *0.983
   161        1:0        1:0         *1      0    
   162        2:1        2:1          0.019 *0.981
   163        2:1        2:1          0     *1    
   164        2:1        2:1          0     *1    
   165        2:1        2:1          0.017 *0.983
   166        2:1        2:1          0.071 *0.929
   167        1:0        1:0         *0.715  0.285
   168        2:1        2:1          0.019 *0.981
   169        1:0        1:0         *0.912  0.088
   170        2:1        2:1          0.019 *0.981
   171        2:1        2:1          0.057 *0.943
   172        2:1        2:1          0.333 *0.667
   173        1:0        1:0         *0.925  0.075
   174        2:1        2:1          0.057 *0.943
   175        2:1        2:1          0.019 *0.981
   176        1:0        2:1      +   0.264 *0.736
   177        2:1        2:1          0.017 *0.983
   178        2:1        1:0      +  *0.615  0.385
   179        1:0        1:0         *0.75   0.25 
   180        2:1        2:1          0.017 *0.983
   181        2:1        2:1          0     *1    
   182        2:1        2:1          0.019 *0.981
   183        2:1        2:1          0.057 *0.943
   184        1:0        1:0         *0.541  0.459
   185        1:0        1:0         *0.925  0.075
   186        2:1        2:1          0.019 *0.981
   187        2:1        2:1          0     *1    
   188        2:1        2:1          0.019 *0.981
   189        2:1        2:1          0.019 *0.981
   190        2:1        2:1          0.071 *0.929
   191        1:0        1:0         *0.75   0.25 
   192        1:0        1:0         *0.925  0.075
   193        1:0        1:0         *0.925  0.075
   194        1:0        1:0         *0.925  0.075
   195        2:1        2:1          0.019 *0.981
   196        1:0        1:0         *0.912  0.088
   197        1:0        2:1      +   0.357 *0.643
   198        2:1        2:1          0.348 *0.652
   199        2:1        2:1          0.017 *0.983
   200        2:1        2:1          0.325 *0.675
   201        1:0        1:0         *0.925  0.075
   202        2:1        2:1          0     *1    
   203        1:0        1:0         *0.96   0.04 
   204        1:0        2:1      +   0.325 *0.675
   205        1:0        1:0         *0.818  0.182
   206        2:1        2:1          0.019 *0.981
   207        2:1        2:1          0.071 *0.929
   208        2:1        2:1          0.019 *0.981
   209        1:0        1:0         *0.563  0.438
   210        2:1        2:1          0.019 *0.981
   211        1:0        1:0         *0.96   0.04 
   212        1:0        1:0         *0.925  0.075
   213        1:0        1:0         *0.925  0.075
   214        1:0        2:1      +   0.438 *0.563
   215        1:0        1:0         *0.925  0.075
   216        2:1        2:1          0.45  *0.55 
   217        1:0        1:0         *0.925  0.075
   218        1:0        1:0         *0.96   0.04 
   219        2:1        2:1          0.019 *0.981
   220        2:1        2:1          0.017 *0.983
   221        2:1        2:1          0.448 *0.552
   222        1:0        1:0         *0.925  0.075
   223        1:0        1:0         *0.833  0.167
   224        1:0        1:0         *0.912  0.088
   225        2:1        2:1          0.071 *0.929
   226        1:0        1:0         *0.667  0.333
   227        2:1        2:1          0.057 *0.943
   228        1:0        1:0         *0.912  0.088
   229        2:1        2:1          0.214 *0.786
   230        1:0        1:0         *0.58   0.42 
   231        1:0        1:0         *0.75   0.25 
   232        2:1        2:1          0.071 *0.929
   233        1:0        1:0         *0.925  0.075
   234        2:1        2:1          0.017 *0.983
   235        2:1        2:1          0.057 *0.943
   236        2:1        2:1          0.479 *0.521
   237        2:1        2:1          0.057 *0.943
   238        2:1        1:0      +  *0.611  0.389
   239        1:0        1:0         *0.912  0.088
   240        1:0        1:0         *0.925  0.075
   241        1:0        1:0         *0.925  0.075
   242        1:0        1:0         *0.925  0.075
   243        2:1        2:1          0.057 *0.943
   244        1:0        1:0         *0.579  0.421
   245        2:1        2:1          0.019 *0.981
   246        2:1        2:1          0.019 *0.981
   247        1:0        1:0         *0.925  0.075
   248        2:1        2:1          0.017 *0.983
   249        2:1        2:1          0.071 *0.929
   250        2:1        2:1          0.017 *0.983
   251        2:1        2:1          0     *1    
   252        2:1        2:1          0.071 *0.929
   253        1:0        2:1      +   0.375 *0.625
   254        2:1        2:1          0.019 *0.981
   255        2:1        2:1          0.017 *0.983
   256        2:1        2:1          0.017 *0.983
   257        2:1        2:1          0.057 *0.943
   258        2:1        2:1          0.019 *0.981
   259        2:1        2:1          0.057 *0.943
   260        1:0        1:0         *0.925  0.075
   261        2:1        2:1          0.019 *0.981
   262        2:1        2:1          0.017 *0.983
   263        1:0        1:0         *1      0    
   264        2:1        1:0      +  *0.912  0.088
   265        1:0        1:0         *0.96   0.04 
   266        2:1        2:1          0.019 *0.981
   267        2:1        2:1          0.019 *0.981
   268        2:1        2:1          0.267 *0.733
   269        1:0        1:0         *0.925  0.075
   270        1:0        1:0         *0.912  0.088
   271        1:0        2:1      +   0.479 *0.521
   272        1:0        1:0         *0.96   0.04 
   273        2:1        2:1          0.017 *0.983
   274        1:0        2:1      +   0.395 *0.605
   275        1:0        2:1      +   0.264 *0.736
   276        2:1        2:1          0.017 *0.983
   277        2:1        2:1          0.017 *0.983
   278        2:1        2:1          0.019 *0.981
   279        2:1        2:1          0.017 *0.983
   280        2:1        2:1          0     *1    
   281        2:1        2:1          0.019 *0.981
   282        2:1        2:1          0.019 *0.981
   283        1:0        1:0         *0.912  0.088
   284        2:1        2:1          0.071 *0.929
   285        1:0        1:0         *1      0    
   286        2:1        2:1          0.071 *0.929
   287        1:0        1:0         *0.833  0.167
   288        2:1        2:1          0.057 *0.943
   289        2:1        2:1          0.057 *0.943
   290        2:1        2:1          0.019 *0.981
   291        2:1        2:1          0.019 *0.981
   292        1:0        1:0         *0.925  0.075
   293        1:0        1:0         *0.925  0.075
   294        2:1        2:1          0.017 *0.983
   295        2:1        2:1          0.019 *0.981
   296        2:1        2:1          0.071 *0.929
   297        2:1        2:1          0.017 *0.983
   298        2:1        2:1          0.019 *0.981
   299        2:1        2:1          0.019 *0.981
   300        2:1        2:1          0.017 *0.983
   301        2:1        2:1          0.017 *0.983
   302        2:1        2:1          0.017 *0.983
   303        2:1        2:1          0.019 *0.981
   304        1:0        1:0         *0.925  0.075
   305        1:0        1:0         *0.58   0.42 
   306        1:0        1:0         *0.96   0.04 
   307        1:0        1:0         *0.96   0.04 
   308        2:1        2:1          0.019 *0.981
   309        2:1        2:1          0.019 *0.981
   310        2:1        2:1          0.019 *0.981
   311        2:1        2:1          0.019 *0.981
   312        2:1        2:1          0.057 *0.943
   313        2:1        2:1          0.057 *0.943
   314        2:1        2:1          0.019 *0.981
   315        1:0        1:0         *0.96   0.04 
   316        1:0        1:0         *0.912  0.088
   317        1:0        1:0         *0.789  0.211
   318        2:1        2:1          0.017 *0.983
   319        1:0        1:0         *0.925  0.075
   320        1:0        2:1      +   0.017 *0.983
   321        2:1        2:1          0.019 *0.981
   322        1:0        1:0         *0.925  0.075
   323        2:1        2:1          0.017 *0.983
   324        2:1        1:0      +  *0.538  0.462
   325        1:0        1:0         *0.925  0.075
   326        2:1        2:1          0.017 *0.983
   327        1:0        1:0         *0.96   0.04 
   328        1:0        1:0         *0.715  0.285
   329        1:0        1:0         *0.96   0.04 
   330        2:1        2:1          0.462 *0.538
   331        1:0        1:0         *0.925  0.075
   332        2:1        2:1          0.019 *0.981
   333        2:1        2:1          0.019 *0.981
   334        2:1        2:1          0.019 *0.981
   335        1:0        1:0         *0.75   0.25 
   336        1:0        1:0         *0.912  0.088
   337        1:0        1:0         *0.912  0.088
   338        2:1        2:1          0.264 *0.736
   339        2:1        2:1          0.019 *0.981
   340        2:1        2:1          0.019 *0.981
   341        2:1        2:1          0.017 *0.983
   342        2:1        2:1          0.019 *0.981
   343        2:1        2:1          0.019 *0.981
   344        1:0        1:0         *0.912  0.088
   345        2:1        1:0      +  *0.96   0.04 
   346        2:1        2:1          0.071 *0.929
   347        2:1        2:1          0.426 *0.574
   348        2:1        2:1          0.368 *0.632
   349        2:1        2:1          0.2   *0.8  
   350        1:0        2:1      +   0.325 *0.675
   351        2:1        1:0      +  *0.58   0.42 
   352        2:1        2:1          0     *1    
   353        2:1        2:1          0.019 *0.981
   354        1:0        1:0         *0.538  0.462
   355        1:0        1:0         *0.925  0.075
   356        1:0        1:0         *0.912  0.088
   357        1:0        1:0         *1      0    
   358        1:0        2:1      +   0.2   *0.8  
   359        1:0        2:1      +   0.057 *0.943
   360        1:0        1:0         *0.58   0.42 
   361        2:1        1:0      +  *0.925  0.075
   362        2:1        1:0      +  *0.563  0.438
   363        2:1        1:0      +  *0.6    0.4  
   364        2:1        2:1          0.019 *0.981
   365        1:0        1:0         *0.715  0.285
   366        1:0        1:0         *0.912  0.088
   367        1:0        2:1      +   0.325 *0.675
   368        2:1        2:1          0.071 *0.929
   369        2:1        2:1          0     *1    
   370        1:0        1:0         *0.611  0.389
   371        2:1        2:1          0.325 *0.675
   372        2:1        2:1          0.019 *0.981
   373        2:1        2:1          0.019 *0.981
   374        1:0        1:0         *0.544  0.456
   375        1:0        1:0         *0.925  0.075
   376        2:1        2:1          0.017 *0.983
   377        1:0        2:1      +   0.357 *0.643
   378        1:0        1:0         *0.925  0.075
   379        1:0        1:0         *0.925  0.075
   380        1:0        1:0         *0.778  0.222
   381        2:1        2:1          0     *1    
   382        2:1        2:1          0.019 *0.981
   383        1:0        1:0         *1      0    
   384        2:1        2:1          0.057 *0.943
   385        2:1        2:1          0.017 *0.983
   386        2:1        1:0      +  *0.533  0.467
   387        1:0        2:1      +   0.429 *0.571
   388        2:1        2:1          0.017 *0.983
   389        2:1        2:1          0.017 *0.983
   390        1:0        1:0         *0.912  0.088
   391        1:0        1:0         *0.715  0.285
   392        2:1        2:1          0.019 *0.981
   393        1:0        1:0         *0.786  0.214
   394        2:1        2:1          0.017 *0.983
   395        2:1        2:1          0     *1    
   396        2:1        2:1          0.019 *0.981
   397        1:0        1:0         *0.96   0.04 
   398        1:0        2:1      +   0.25  *0.75 
   399        2:1        2:1          0.019 *0.981
   400        2:1        2:1          0.017 *0.983
   401        1:0        1:0         *0.789  0.211
   402        2:1        2:1          0.071 *0.929
   403        1:0        1:0         *0.96   0.04 
   404        1:0        1:0         *0.96   0.04 
   405        2:1        2:1          0.017 *0.983
   406        1:0        2:1      +   0.474 *0.526
   407        1:0        1:0         *0.541  0.459
   408        2:1        2:1          0.017 *0.983
   409        1:0        1:0         *0.5    0.5  
   410        2:1        2:1          0.017 *0.983
   411        2:1        2:1          0.057 *0.943
   412        2:1        1:0      +  *0.6    0.4  
   413        1:0        2:1      +   0.348 *0.652
   414        2:1        2:1          0.264 *0.736
   415        2:1        2:1          0.019 *0.981
   416        1:0        2:1      +   0.426 *0.574
   417        1:0        1:0         *0.778  0.222
   418        2:1        2:1          0.019 *0.981
   419        1:0        1:0         *0.571  0.429
   420        2:1        2:1          0.375 *0.625
   421        1:0        1:0         *0.912  0.088
   422        2:1        2:1          0.4   *0.6  
   423        1:0        1:0         *0.912  0.088
   424        2:1        2:1          0.264 *0.736
   425        2:1        2:1          0.264 *0.736
   426        1:0        2:1      +   0.395 *0.605
   427        1:0        1:0         *1      0    
   428        2:1        2:1          0.017 *0.983
   429        1:0        1:0         *0.912  0.088
   430        1:0        1:0         *0.715  0.285
   431        2:1        2:1          0.333 *0.667
   432        1:0        1:0         *0.96   0.04 
   433        1:0        1:0         *1      0    
   434        2:1        2:1          0.057 *0.943
   435        2:1        2:1          0.019 *0.981
   436        1:0        1:0         *0.715  0.285
   437        1:0        1:0         *0.925  0.075
   438        1:0        1:0         *0.5    0.5  
   439        1:0        1:0         *0.75   0.25 
   440        2:1        2:1          0.019 *0.981
   441        2:1        2:1          0.057 *0.943
   442        2:1        2:1          0.057 *0.943
   443        2:1        2:1          0.019 *0.981
   444        2:1        2:1          0.057 *0.943
   445        1:0        2:1      +   0.273 *0.727
   446        1:0        2:1      +   0.462 *0.538
   447        1:0        1:0         *0.925  0.075
   448        1:0        1:0         *0.925  0.075
   449        2:1        2:1          0.019 *0.981
   450        2:1        1:0      +  *0.715  0.285
   451        1:0        1:0         *0.6    0.4  
   452        2:1        2:1          0.057 *0.943
   453        1:0        1:0         *0.925  0.075
   454        2:1        2:1          0.019 *0.981
   455        1:0        1:0         *0.912  0.088
   456        1:0        1:0         *0.715  0.285
   457        1:0        1:0         *0.96   0.04 
   458        2:1        2:1          0.057 *0.943
   459        2:1        2:1          0.017 *0.983
   460        1:0        2:1      +   0.45  *0.55 
   461        2:1        2:1          0.017 *0.983
   462        2:1        2:1          0.019 *0.981
   463        2:1        2:1          0.019 *0.981
   464        2:1        2:1          0.017 *0.983
   465        2:1        2:1          0.019 *0.981
   466        2:1        2:1          0.071 *0.929
   467        1:0        1:0         *0.925  0.075
   468        2:1        2:1          0.017 *0.983
   469        1:0        1:0         *0.925  0.075
   470        2:1        2:1          0.019 *0.981
   471        1:0        1:0         *0.778  0.222
   472        1:0        1:0         *0.925  0.075
   473        2:1        2:1          0.019 *0.981
   474        2:1        2:1          0.017 *0.983
   475        1:0        1:0         *0.533  0.467
   476        2:1        2:1          0.019 *0.981
   477        2:1        2:1          0.479 *0.521
   478        2:1        2:1          0.017 *0.983
   479        1:0        1:0         *0.786  0.214
   480        1:0        1:0         *0.925  0.075
   481        1:0        1:0         *0.912  0.088
   482        1:0        1:0         *0.96   0.04 
   483        2:1        1:0      +  *0.611  0.389
   484        2:1        2:1          0.019 *0.981
   485        2:1        2:1          0.019 *0.981
   486        1:0        1:0         *0.912  0.088
   487        2:1        2:1          0.071 *0.929
   488        2:1        2:1          0.019 *0.981
   489        2:1        2:1          0.348 *0.652
   490        1:0        1:0         *0.925  0.075
   491        2:1        2:1          0.019 *0.981
   492        2:1        2:1          0.017 *0.983
   493        1:0        1:0         *0.925  0.075
   494        2:1        2:1          0.019 *0.981
   495        2:1        1:0      +  *0.925  0.075
   496        1:0        1:0         *0.714  0.286
   497        2:1        2:1          0.017 *0.983
   498        1:0        2:1      +   0.071 *0.929
   499        2:1        2:1          0     *1    
   500        2:1        2:1          0.071 *0.929
   501        1:0        2:1      +   0.414 *0.586
   502        1:0        1:0         *0.96   0.04 
   503        2:1        2:1          0.375 *0.625
   504        2:1        2:1          0.017 *0.983
   505        2:1        2:1          0.019 *0.981
   506        2:1        2:1          0.017 *0.983
   507        2:1        2:1          0     *1    
   508        2:1        2:1          0.017 *0.983
   509        2:1        2:1          0     *1    
   510        2:1        2:1          0.019 *0.981
   511        2:1        2:1          0.057 *0.943
   512        1:0        2:1      +   0.325 *0.675
   513        2:1        2:1          0.019 *0.981
   514        2:1        2:1          0.071 *0.929
   515        2:1        2:1          0.017 *0.983
   516        2:1        2:1          0.017 *0.983
   517        1:0        2:1      +   0.325 *0.675
   518        2:1        2:1          0.019 *0.981
   519        1:0        1:0         *0.925  0.075
   520        2:1        2:1          0.057 *0.943
   521        2:1        2:1          0.474 *0.526
   522        2:1        2:1          0.019 *0.981
   523        2:1        2:1          0.017 *0.983
   524        1:0        1:0         *0.715  0.285
   525        1:0        1:0         *0.96   0.04 
   526        1:0        1:0         *0.912  0.088
   527        2:1        2:1          0.057 *0.943
   528        2:1        2:1          0.017 *0.983
   529        1:0        1:0         *0.925  0.075
   530        2:1        2:1          0.019 *0.981
   531        2:1        2:1          0.019 *0.981
   532        1:0        1:0         *1      0    
   533        1:0        1:0         *0.714  0.286
   534        2:1        2:1          0.017 *0.983
   535        1:0        1:0         *0.912  0.088
   536        1:0        1:0         *0.925  0.075
   537        2:1        2:1          0.017 *0.983
   538        2:1        2:1          0.019 *0.981
   539        2:1        2:1          0.017 *0.983
   540        2:1        2:1          0.019 *0.981
   541        1:0        1:0         *0.58   0.42 
   542        1:0        1:0         *0.727  0.273
   543        2:1        2:1          0.019 *0.981
   544        1:0        2:1      +   0.45  *0.55 
   545        1:0        1:0         *0.75   0.25 
   546        2:1        2:1          0.019 *0.981
   547        1:0        2:1      +   0.45  *0.55 
   548        2:1        2:1          0.357 *0.643
   549        2:1        2:1          0.017 *0.983
   550        1:0        1:0         *0.58   0.42 
   551        1:0        1:0         *0.715  0.285
   552        2:1        2:1          0.071 *0.929
   553        2:1        2:1          0.45  *0.55 
   554        2:1        2:1          0     *1    
   555        1:0        1:0         *0.611  0.389
   556        2:1        2:1          0.057 *0.943
   557        2:1        2:1          0.017 *0.983
   558        1:0        1:0         *0.912  0.088
   559        1:0        1:0         *0.925  0.075
   560        2:1        2:1          0     *1    
   561        2:1        2:1          0.071 *0.929
   562        1:0        1:0         *0.588  0.412
   563        2:1        2:1          0.017 *0.983
   564        2:1        2:1          0.474 *0.526
   565        1:0        1:0         *0.96   0.04 
   566        1:0        1:0         *0.533  0.467
   567        2:1        2:1          0.017 *0.983
   568        2:1        2:1          0.019 *0.981
   569        2:1        2:1          0.264 *0.736
   570        2:1        2:1          0.019 *0.981
   571        2:1        2:1          0.017 *0.983
   572        1:0        1:0         *0.6    0.4  
   573        2:1        2:1          0.019 *0.981
   574        2:1        2:1          0.017 *0.983
   575        2:1        2:1          0.019 *0.981
   576        2:1        2:1          0.019 *0.981
   577        1:0        1:0         *0.925  0.075
   578        2:1        2:1          0.019 *0.981
   579        2:1        2:1          0.019 *0.981
   580        1:0        1:0         *0.541  0.459
   581        2:1        2:1          0.333 *0.667
   582        1:0        1:0         *0.925  0.075
   583        2:1        2:1          0.019 *0.981
   584        1:0        2:1      +   0.429 *0.571
   585        2:1        2:1          0.017 *0.983
   586        2:1        2:1          0.019 *0.981
   587        1:0        1:0         *0.925  0.075
   588        2:1        2:1          0     *1    
   589        2:1        2:1          0.325 *0.675
   590        1:0        1:0         *0.925  0.075
   591        1:0        2:1      +   0.429 *0.571
   592        2:1        2:1          0.017 *0.983
   593        1:0        1:0         *0.912  0.088
   594        1:0        1:0         *0.925  0.075
   595        2:1        2:1          0.017 *0.983
   596        1:0        2:1      +   0.167 *0.833
   597        1:0        1:0         *0.544  0.456
   598        1:0        1:0         *0.538  0.462
   599        2:1        2:1          0.071 *0.929
   600        1:0        1:0         *0.75   0.25 
   601        1:0        1:0         *0.925  0.075
   602        2:1        2:1          0.357 *0.643
   603        2:1        2:1          0.353 *0.647
   604        2:1        2:1          0.019 *0.981
   605        2:1        2:1          0.017 *0.983
   606        2:1        2:1          0.017 *0.983
   607        2:1        2:1          0.019 *0.981
   608        1:0        1:0         *1      0    
   609        1:0        1:0         *0.925  0.075
   610        1:0        1:0         *0.715  0.285
   611        1:0        1:0         *0.925  0.075
   612        1:0        1:0         *0.715  0.285
   613        2:1        2:1          0.019 *0.981
   614        1:0        1:0         *0.912  0.088
   615        1:0        1:0         *1      0    
   616        1:0        1:0         *0.925  0.075
   617        1:0        1:0         *0.667  0.333
   618        2:1        2:1          0.057 *0.943
   619        2:1        2:1          0.017 *0.983
   620        1:0        1:0         *0.925  0.075
   621        2:1        1:0      +  *0.611  0.389
   622        1:0        1:0         *0.96   0.04 
   623        2:1        2:1          0.019 *0.981
   624        2:1        1:0      +  *0.667  0.333
   625        2:1        2:1          0.25  *0.75 
   626        2:1        2:1          0.017 *0.983
   627        2:1        2:1          0.017 *0.983
   628        1:0        1:0         *0.925  0.075
   629        2:1        2:1          0.057 *0.943
   630        2:1        2:1          0.017 *0.983
   631        1:0        1:0         *0.818  0.182
   632        1:0        1:0         *0.912  0.088
   633        1:0        1:0         *1      0    
   634        1:0        1:0         *0.925  0.075
   635        1:0        1:0         *0.925  0.075
   636        1:0        1:0         *0.912  0.088
   637        2:1        1:0      +  *0.5    0.5  
   638        2:1        2:1          0.017 *0.983
   639        2:1        2:1          0.019 *0.981
   640        2:1        2:1          0.019 *0.981
   641        2:1        2:1          0.057 *0.943
   642        1:0        2:1      +   0.325 *0.675
   643        1:0        1:0         *0.769  0.231
   644        2:1        2:1          0.017 *0.983
   645        1:0        1:0         *0.75   0.25 
   646        2:1        2:1          0.017 *0.983
   647        2:1        2:1          0.019 *0.981
   648        2:1        2:1          0.2   *0.8  
   649        1:0        1:0         *0.96   0.04 
   650        2:1        2:1          0.395 *0.605
   651        2:1        2:1          0.057 *0.943
   652        2:1        2:1          0.267 *0.733
   653        1:0        1:0         *0.912  0.088
   654        2:1        2:1          0.019 *0.981
   655        2:1        1:0      +  *0.925  0.075
   656        1:0        1:0         *0.925  0.075
   657        1:0        1:0         *0.96   0.04 
   658        2:1        1:0      +  *0.925  0.075
   659        1:0        1:0         *0.925  0.075
   660        1:0        1:0         *0.925  0.075
   661        1:0        1:0         *0.925  0.075
   662        2:1        2:1          0.057 *0.943
   663        1:0        1:0         *0.667  0.333
   664        1:0        2:1      +   0.353 *0.647
   665        1:0        1:0         *0.912  0.088
   666        2:1        2:1          0.017 *0.983
   667        2:1        2:1          0.017 *0.983
   668        2:1        2:1          0.019 *0.981
   669        2:1        2:1          0.071 *0.929
   670        2:1        2:1          0.019 *0.981
   671        2:1        2:1          0.057 *0.943
   672        2:1        2:1          0.017 *0.983
   673        2:1        2:1          0.019 *0.981
   674        1:0        1:0         *0.96   0.04 
   675        2:1        2:1          0.273 *0.727
   676        2:1        2:1          0.019 *0.981
   677        2:1        2:1          0.019 *0.981
   678        1:0        1:0         *0.912  0.088
   679        1:0        1:0         *0.925  0.075
   680        2:1        2:1          0.019 *0.981
   681        2:1        2:1          0.019 *0.981
   682        2:1        2:1          0.264 *0.736
   683        2:1        2:1          0.467 *0.533
   684        2:1        2:1          0.019 *0.981
   685        1:0        2:1      +   0.455 *0.545
   686        2:1        2:1          0     *1    
   687        2:1        2:1          0.017 *0.983
   688        2:1        2:1          0.019 *0.981
   689        1:0        1:0         *0.58   0.42 
   690        2:1        1:0      +  *0.96   0.04 
   691        2:1        2:1          0.071 *0.929
   692        2:1        2:1          0.071 *0.929
   693        2:1        1:0      +  *0.778  0.222
   694        1:0        2:1      +   0.45  *0.55 
   695        2:1        2:1          0.019 *0.981
   696        2:1        2:1          0.071 *0.929
   697        1:0        1:0         *0.833  0.167
   698        2:1        2:1          0.019 *0.981
   699        2:1        2:1          0.333 *0.667
   700        2:1        2:1          0.019 *0.981
   701        2:1        2:1          0.143 *0.857
   702        1:0        1:0         *0.925  0.075
   703        2:1        2:1          0     *1    
   704        1:0        1:0         *0.667  0.333
   705        1:0        1:0         *0.917  0.083
   706        2:1        2:1          0.019 *0.981
   707        2:1        2:1          0.071 *0.929
   708        2:1        2:1          0.45  *0.55 
   709        2:1        2:1          0.017 *0.983
   710        2:1        2:1          0.017 *0.983
   711        2:1        2:1          0.019 *0.981
   712        2:1        2:1          0.017 *0.983
   713        1:0        1:0         *0.96   0.04 
   714        2:1        2:1          0.071 *0.929
   715        1:0        1:0         *0.58   0.42 
   716        1:0        1:0         *0.833  0.167
   717        2:1        1:0      +  *0.912  0.088
   718        1:0        2:1      +   0.45  *0.55 
   719        2:1        2:1          0.019 *0.981
   720        2:1        2:1          0     *1    
   721        2:1        2:1          0.071 *0.929
   722        1:0        1:0         *0.636  0.364
   723        2:1        2:1          0.071 *0.929
   724        2:1        2:1          0.019 *0.981
   725        2:1        2:1          0.019 *0.981
   726        2:1        2:1          0.071 *0.929
   727        2:1        2:1          0.071 *0.929
   728        2:1        2:1          0.264 *0.736
   729        1:0        1:0         *0.5    0.5  
   730        1:0        1:0         *0.925  0.075
   731        2:1        2:1          0.325 *0.675
   732        2:1        2:1          0.071 *0.929
   733        1:0        1:0         *0.96   0.04 
   734        2:1        2:1          0.017 *0.983
   735        2:1        2:1          0.019 *0.981
   736        2:1        2:1          0.017 *0.983
   737        2:1        1:0      +  *0.58   0.42 
   738        2:1        2:1          0.019 *0.981
   739        1:0        1:0         *1      0    
   740        2:1        1:0      +  *0.579  0.421
   741        2:1        1:0      +  *0.925  0.075
   742        1:0        1:0         *0.715  0.285
   743        1:0        1:0         *0.912  0.088
   744        2:1        2:1          0.057 *0.943
   745        1:0        1:0         *0.912  0.088
   746        2:1        1:0      +  *0.778  0.222
   747        2:1        2:1          0.017 *0.983
   748        2:1        1:0      +  *0.667  0.333
   749        2:1        2:1          0.071 *0.929
   750        1:0        1:0         *0.96   0.04 
   751        2:1        1:0      +  *0.912  0.088
   752        2:1        2:1          0.325 *0.675
   753        2:1        2:1          0.071 *0.929
   754        1:0        2:1      +   0.071 *0.929
   755        1:0        2:1      +   0.364 *0.636
   756        2:1        2:1          0.019 *0.981
   757        1:0        1:0         *0.563  0.438
   758        2:1        2:1          0.019 *0.981
   759        2:1        2:1          0.019 *0.981
   760        2:1        2:1          0.325 *0.675
   761        1:0        1:0         *0.925  0.075
   762        2:1        2:1          0.264 *0.736
   763        2:1        1:0      +  *0.544  0.456
   764        1:0        1:0         *0.925  0.075
   765        1:0        1:0         *0.96   0.04 
   766        1:0        1:0         *0.925  0.075
   767        2:1        2:1          0.019 *0.981
   768        1:0        1:0         *0.58   0.42 
   769        2:1        2:1          0.071 *0.929
   770        2:1        2:1          0.375 *0.625
   771        1:0        1:0         *0.925  0.075
   772        2:1        2:1          0.019 *0.981
   773        1:0        2:1      +   0.474 *0.526
   774        2:1        2:1          0.019 *0.981
   775        2:1        2:1          0.057 *0.943
   776        2:1        2:1          0.017 *0.983
   777        2:1        2:1          0.019 *0.981
   778        1:0        1:0         *0.833  0.167
   779        2:1        2:1          0.017 *0.983
   780        2:1        2:1          0.019 *0.981
   781        2:1        2:1          0.325 *0.675
   782        1:0        2:1      +   0.357 *0.643
   783        2:1        2:1          0.017 *0.983
   784        1:0        1:0         *0.912  0.088
   785        1:0        1:0         *0.925  0.075
   786        2:1        2:1          0.364 *0.636
   787        1:0        1:0         *0.563  0.438
   788        1:0        1:0         *0.75   0.25 
   789        2:1        2:1          0.017 *0.983
   790        2:1        2:1          0.017 *0.983
   791        2:1        2:1          0.071 *0.929
   792        2:1        2:1          0.019 *0.981
   793        2:1        2:1          0.017 *0.983
   794        2:1        1:0      +  *0.571  0.429
   795        1:0        1:0         *0.96   0.04 
   796        2:1        2:1          0     *1    
   797        2:1        2:1          0.017 *0.983
   798        2:1        2:1          0.25  *0.75 
   799        2:1        2:1          0.438 *0.563
   800        2:1        2:1          0.071 *0.929
   801        2:1        1:0      +  *0.636  0.364
   802        2:1        2:1          0.019 *0.981
   803        2:1        2:1          0.019 *0.981
   804        1:0        1:0         *0.667  0.333
   805        1:0        1:0         *0.925  0.075
   806        1:0        1:0         *0.925  0.075
   807        1:0        1:0         *0.912  0.088
   808        1:0        1:0         *0.6    0.4  
   809        2:1        2:1          0.167 *0.833
   810        1:0        1:0         *0.912  0.088
   811        1:0        1:0         *0.636  0.364
   812        1:0        1:0         *0.833  0.167
   813        2:1        2:1          0.017 *0.983
   814        1:0        2:1      +   0.325 *0.675
   815        2:1        2:1          0.071 *0.929
   816        1:0        1:0         *0.925  0.075
   817        2:1        2:1          0.019 *0.981
   818        1:0        1:0         *0.544  0.456
   819        2:1        1:0      +  *0.643  0.357
   820        1:0        1:0         *0.96   0.04 
   821        1:0        1:0         *0.925  0.075
   822        1:0        1:0         *1      0    
   823        1:0        1:0         *0.925  0.075
   824        1:0        1:0         *0.925  0.075
   825        2:1        2:1          0.448 *0.552
   826        2:1        2:1          0.019 *0.981
   827        1:0        1:0         *1      0    
   828        2:1        1:0      +  *0.58   0.42 
   829        1:0        1:0         *0.912  0.088
   830        1:0        1:0         *0.925  0.075
   831        1:0        2:1      +   0.264 *0.736
   832        2:1        2:1          0.017 *0.983
   833        2:1        2:1          0.017 *0.983
   834        2:1        2:1          0.057 *0.943
   835        2:1        2:1          0.167 *0.833
   836        1:0        1:0         *0.925  0.075
   837        2:1        2:1          0.071 *0.929
   838        1:0        2:1      +   0.2   *0.8  
   839        2:1        2:1          0.019 *0.981
   840        2:1        2:1          0.017 *0.983
   841        2:1        2:1          0.426 *0.574
   842        2:1        2:1          0.019 *0.981
   843        2:1        2:1          0.019 *0.981
   844        2:1        2:1          0.019 *0.981
   845        2:1        2:1          0.057 *0.943
   846        2:1        2:1          0.019 *0.981
   847        1:0        1:0         *0.889  0.111
   848        2:1        2:1          0.017 *0.983
   849        2:1        2:1          0.019 *0.981
   850        1:0        1:0         *0.925  0.075
   851        2:1        2:1          0.071 *0.929
   852        2:1        2:1          0.017 *0.983
   853        1:0        1:0         *0.925  0.075
   854        2:1        2:1          0.057 *0.943
   855        1:0        1:0         *0.925  0.075
   856        2:1        2:1          0     *1    
   857        1:0        1:0         *0.58   0.42 
   858        1:0        1:0         *0.912  0.088
   859        2:1        2:1          0.019 *0.981
   860        1:0        1:0         *0.925  0.075
   861        2:1        2:1          0.017 *0.983
   862        2:1        1:0      +  *0.544  0.456
   863        1:0        1:0         *0.925  0.075
   864        2:1        2:1          0.017 *0.983
   865        1:0        1:0         *0.925  0.075
   866        2:1        2:1          0     *1    
   867        2:1        2:1          0.019 *0.981
   868        1:0        1:0         *0.925  0.075
   869        2:1        1:0      +  *0.912  0.088
   870        1:0        1:0         *0.925  0.075
   871        1:0        2:1      +   0.019 *0.981
   872        2:1        2:1          0.071 *0.929
   873        1:0        2:1      +   0.448 *0.552
   874        2:1        2:1          0.019 *0.981
   875        1:0        1:0         *0.715  0.285
   876        2:1        2:1          0.017 *0.983
   877        2:1        2:1          0.057 *0.943
   878        2:1        2:1          0.019 *0.981
   879        2:1        2:1          0.071 *0.929
   880        1:0        2:1      +   0.448 *0.552
   881        1:0        2:1      +   0.45  *0.55 
   882        2:1        2:1          0.017 *0.983
   883        2:1        2:1          0.017 *0.983
   884        2:1        2:1          0.2   *0.8  
   885        2:1        2:1          0.071 *0.929
   886        1:0        2:1      +   0.333 *0.667
   887        2:1        2:1          0.325 *0.675
   888        2:1        2:1          0.479 *0.521
   889        2:1        2:1          0.071 *0.929
   890        2:1        2:1          0.017 *0.983
   891        2:1        2:1          0.017 *0.983
   892        2:1        2:1          0.071 *0.929
   893        2:1        2:1          0.057 *0.943
   894        1:0        1:0         *0.925  0.075
   895        2:1        2:1          0.071 *0.929
   896        2:1        2:1          0.071 *0.929
   897        2:1        1:0      +  *0.579  0.421
   898        1:0        2:1      +   0.4   *0.6  
   899        2:1        2:1          0.019 *0.981
   900        2:1        2:1          0.019 *0.981
   901        2:1        1:0      +  *0.625  0.375
   902        1:0        1:0         *0.917  0.083
   903        1:0        1:0         *0.925  0.075
   904        1:0        1:0         *0.925  0.075
   905        2:1        2:1          0.019 *0.981
   906        1:0        2:1      +   0.426 *0.574
   907        1:0        2:1      +   0.448 *0.552
   908        2:1        1:0      +  *0.925  0.075
   909        2:1        2:1          0.057 *0.943
   910        1:0        1:0         *0.912  0.088
   911        2:1        2:1          0.019 *0.981
   912        2:1        2:1          0.429 *0.571
   913        2:1        2:1          0.019 *0.981
   914        1:0        1:0         *0.925  0.075
   915        1:0        1:0         *0.925  0.075
   916        2:1        2:1          0.071 *0.929
   917        1:0        1:0         *0.912  0.088
   918        1:0        1:0         *0.925  0.075
   919        2:1        1:0      +  *0.58   0.42 
   920        1:0        1:0         *0.925  0.075
   921        1:0        1:0         *0.912  0.088
   922        1:0        1:0         *0.925  0.075
   923        1:0        1:0         *0.925  0.075
   924        2:1        2:1          0.071 *0.929
   925        1:0        2:1      +   0.325 *0.675
   926        1:0        1:0         *0.925  0.075
   927        1:0        1:0         *0.925  0.075
   928        2:1        2:1          0.019 *0.981
   929        1:0        1:0         *0.925  0.075
   930        1:0        1:0         *0.912  0.088
   931        1:0        1:0         *0.925  0.075
   932        2:1        2:1          0.057 *0.943
   933        2:1        2:1          0.057 *0.943
   934        2:1        2:1          0.057 *0.943
   935        1:0        1:0         *1      0    
   936        2:1        2:1          0.264 *0.736
   937        1:0        1:0         *0.912  0.088
   938        1:0        1:0         *0.925  0.075
   939        2:1        2:1          0.017 *0.983
   940        1:0        1:0         *0.912  0.088
   941        2:1        2:1          0.071 *0.929
   942        1:0        1:0         *0.96   0.04 
   943        2:1        2:1          0.017 *0.983
   944        2:1        2:1          0.017 *0.983
   945        1:0        1:0         *0.912  0.088
   946        1:0        1:0         *0.75   0.25 
   947        2:1        1:0      +  *0.571  0.429
   948        2:1        2:1          0.019 *0.981
   949        2:1        2:1          0.057 *0.943
   950        1:0        2:1      +   0.414 *0.586
   951        2:1        2:1          0.019 *0.981
   952        1:0        1:0         *0.912  0.088
   953        1:0        2:1      +   0.467 *0.533
   954        1:0        1:0         *0.925  0.075
   955        2:1        2:1          0.019 *0.981
   956        2:1        2:1          0.017 *0.983
   957        1:0        1:0         *0.925  0.075
   958        1:0        1:0         *0.588  0.412
   959        2:1        2:1          0.019 *0.981
   960        2:1        2:1          0.333 *0.667
   961        1:0        1:0         *0.925  0.075
   962        2:1        2:1          0.019 *0.981
   963        1:0        1:0         *0.925  0.075
   964        1:0        1:0         *0.75   0.25 
   965        2:1        1:0      +  *0.667  0.333
   966        2:1        2:1          0.325 *0.675
   967        1:0        2:1      +   0.426 *0.574
   968        1:0        1:0         *0.6    0.4  
   969        2:1        2:1          0.395 *0.605
   970        1:0        1:0         *0.925  0.075
   971        1:0        2:1      +   0.167 *0.833
   972        2:1        2:1          0.017 *0.983
   973        2:1        2:1          0.017 *0.983
   974        1:0        1:0         *0.925  0.075
   975        1:0        1:0         *0.818  0.182
   976        2:1        2:1          0.017 *0.983
   977        1:0        2:1      +   0.333 *0.667
   978        1:0        1:0         *0.925  0.075
   979        2:1        2:1          0.353 *0.647
   980        2:1        2:1          0.019 *0.981
   981        1:0        1:0         *0.715  0.285
   982        2:1        2:1          0.019 *0.981
   983        2:1        2:1          0.019 *0.981
   984        1:0        2:1      +   0.325 *0.675
   985        1:0        1:0         *0.925  0.075
   986        1:0        1:0         *0.925  0.075
   987        2:1        2:1          0.325 *0.675
   988        1:0        1:0         *0.925  0.075
   989        2:1        2:1          0.019 *0.981
   990        1:0        1:0         *0.912  0.088
   991        1:0        1:0         *0.912  0.088
   992        2:1        2:1          0.057 *0.943
   993        2:1        2:1          0.057 *0.943
   994        1:0        1:0         *0.925  0.075
   995        2:1        2:1          0.017 *0.983
   996        2:1        1:0      +  *0.925  0.075
   997        1:0        1:0         *0.714  0.286
   998        1:0        1:0         *0.6    0.4  
   999        2:1        2:1          0.057 *0.943
  1000        2:1        2:1          0.019 *0.981
  1001        2:1        2:1          0     *1    
  1002        1:0        1:0         *0.925  0.075
  1003        2:1        2:1          0.019 *0.981
  1004        1:0        1:0         *0.925  0.075
  1005        1:0        2:1      +   0.448 *0.552
  1006        2:1        2:1          0.017 *0.983
  1007        2:1        2:1          0.071 *0.929
  1008        1:0        1:0         *0.925  0.075
  1009        2:1        2:1          0.019 *0.981
  1010        2:1        2:1          0.071 *0.929
  1011        2:1        2:1          0.019 *0.981
  1012        2:1        2:1          0.071 *0.929
  1013        2:1        2:1          0.019 *0.981
  1014        2:1        2:1          0.071 *0.929
  1015        2:1        1:0      +  *0.636  0.364
  1016        2:1        2:1          0.264 *0.736
  1017        1:0        1:0         *0.925  0.075
  1018        1:0        1:0         *0.925  0.075
  1019        2:1        2:1          0.071 *0.929
  1020        2:1        2:1          0.45  *0.55 
  1021        2:1        2:1          0.426 *0.574
  1022        1:0        1:0         *0.925  0.075
  1023        2:1        2:1          0.057 *0.943
  1024        2:1        2:1          0.25  *0.75 
  1025        2:1        2:1          0.057 *0.943
  1026        2:1        2:1          0.017 *0.983
  1027        2:1        2:1          0.057 *0.943
  1028        2:1        2:1          0.019 *0.981
  1029        1:0        1:0         *0.912  0.088
  1030        1:0        1:0         *0.544  0.456
  1031        1:0        1:0         *0.925  0.075
  1032        1:0        1:0         *1      0    
  1033        2:1        2:1          0.057 *0.943
  1034        2:1        2:1          0.019 *0.981
  1035        2:1        2:1          0.017 *0.983
  1036        2:1        2:1          0.019 *0.981
  1037        1:0        1:0         *0.563  0.438
  1038        2:1        2:1          0.057 *0.943
  1039        1:0        1:0         *0.667  0.333
  1040        1:0        1:0         *1      0    
  1041        1:0        1:0         *1      0    
  1042        1:0        2:1      +   0.057 *0.943
  1043        2:1        2:1          0.017 *0.983
  1044        2:1        2:1          0.071 *0.929
  1045        1:0        1:0         *0.96   0.04 
  1046        2:1        2:1          0.019 *0.981
  1047        2:1        2:1          0.017 *0.983
  1048        2:1        1:0      +  *0.778  0.222
  1049        2:1        2:1          0.017 *0.983
  1050        2:1        2:1          0.017 *0.983
  1051        2:1        2:1          0.017 *0.983
  1052        1:0        1:0         *0.889  0.111
  1053        2:1        2:1          0.071 *0.929
  1054        2:1        2:1          0.071 *0.929
  1055        2:1        2:1          0.019 *0.981
  1056        2:1        1:0      +  *0.727  0.273
  1057        2:1        2:1          0.019 *0.981
  1058        2:1        2:1          0.017 *0.983
  1059        1:0        1:0         *0.667  0.333
  1060        2:1        2:1          0.325 *0.675
  1061        2:1        2:1          0.333 *0.667
  1062        2:1        2:1          0     *1    
  1063        2:1        2:1          0.019 *0.981
  1064        1:0        1:0         *0.715  0.285
  1065        2:1        2:1          0.017 *0.983
  1066        2:1        2:1          0.019 *0.981
  1067        1:0        1:0         *0.925  0.075
  1068        2:1        2:1          0.071 *0.929
  1069        2:1        2:1          0.264 *0.736
  1070        2:1        2:1          0.057 *0.943
  1071        2:1        2:1          0.143 *0.857
  1072        2:1        2:1          0.364 *0.636
  1073        2:1        2:1          0.019 *0.981
  1074        1:0        1:0         *0.912  0.088
  1075        2:1        2:1          0.057 *0.943
  1076        2:1        2:1          0.017 *0.983
  1077        2:1        2:1          0.071 *0.929
  1078        2:1        2:1          0.479 *0.521
  1079        2:1        1:0      +  *0.544  0.456
  1080        1:0        2:1      +   0.375 *0.625
  1081        1:0        1:0         *0.925  0.075
  1082        2:1        2:1          0.019 *0.981
  1083        1:0        1:0         *0.727  0.273
  1084        2:1        2:1          0.017 *0.983
  1085        1:0        2:1      +   0.325 *0.675
  1086        1:0        1:0         *0.96   0.04 
  1087        2:1        2:1          0.395 *0.605
  1088        1:0        1:0         *0.925  0.075
  1089        1:0        1:0         *0.925  0.075
  1090        1:0        1:0         *0.925  0.075
  1091        1:0        1:0         *0.925  0.075
  1092        2:1        2:1          0     *1    
  1093        2:1        2:1          0.057 *0.943
  1094        1:0        1:0         *1      0    
  1095        1:0        2:1      +   0.426 *0.574
  1096        2:1        2:1          0.019 *0.981
  1097        1:0        1:0         *0.538  0.462
  1098        2:1        2:1          0.057 *0.943
  1099        2:1        2:1          0.057 *0.943
  1100        1:0        1:0         *0.925  0.075
  1101        2:1        2:1          0.057 *0.943
  1102        1:0        1:0         *0.925  0.075
  1103        2:1        2:1          0.071 *0.929
  1104        2:1        2:1          0.017 *0.983
  1105        2:1        2:1          0.017 *0.983
  1106        2:1        2:1          0     *1    
  1107        2:1        2:1          0.017 *0.983
  1108        2:1        2:1          0     *1    
  1109        1:0        1:0         *0.925  0.075
  1110        1:0        2:1      +   0.214 *0.786
  1111        1:0        1:0         *0.925  0.075
  1112        1:0        1:0         *0.925  0.075
  1113        2:1        2:1          0.019 *0.981
  1114        1:0        1:0         *0.925  0.075
  1115        1:0        1:0         *0.925  0.075
  1116        2:1        2:1          0.019 *0.981
  1117        2:1        2:1          0.333 *0.667
  1118        2:1        2:1          0.057 *0.943
  1119        1:0        1:0         *0.925  0.075
  1120        2:1        2:1          0.2   *0.8  
  1121        1:0        1:0         *0.96   0.04 
  1122        2:1        2:1          0.019 *0.981
  1123        2:1        2:1          0.019 *0.981
  1124        2:1        2:1          0.071 *0.929
  1125        1:0        1:0         *0.5    0.5  
  1126        2:1        2:1          0.357 *0.643
  1127        2:1        2:1          0.017 *0.983
  1128        1:0        1:0         *0.925  0.075
  1129        1:0        1:0         *0.925  0.075
  1130        2:1        2:1          0.071 *0.929
  1131        1:0        2:1      +   0.448 *0.552
  1132        2:1        2:1          0.017 *0.983
  1133        2:1        1:0      +  *0.563  0.438
  1134        1:0        2:1      +   0.325 *0.675
  1135        2:1        2:1          0.019 *0.981
  1136        2:1        2:1          0.019 *0.981
  1137        2:1        2:1          0.017 *0.983
  1138        1:0        1:0         *1      0    
  1139        1:0        1:0         *0.714  0.286
  1140        1:0        2:1      +   0.071 *0.929
  1141        1:0        1:0         *0.58   0.42 
  1142        2:1        1:0      +  *0.925  0.075
  1143        2:1        2:1          0.019 *0.981
  1144        2:1        2:1          0.019 *0.981
  1145        2:1        2:1          0.019 *0.981
  1146        1:0        1:0         *1      0    
  1147        2:1        2:1          0.071 *0.929
  1148        1:0        1:0         *0.912  0.088
  1149        1:0        1:0         *0.925  0.075
  1150        1:0        1:0         *0.925  0.075
  1151        2:1        2:1          0.017 *0.983
  1152        1:0        1:0         *0.925  0.075
  1153        2:1        2:1          0.017 *0.983
  1154        2:1        1:0      +  *0.58   0.42 
  1155        2:1        2:1          0.019 *0.981
  1156        2:1        2:1          0.167 *0.833
  1157        2:1        2:1          0.019 *0.981
  1158        1:0        1:0         *0.912  0.088
  1159        2:1        2:1          0.019 *0.981
  1160        1:0        2:1      +   0.429 *0.571
  1161        2:1        2:1          0.019 *0.981
  1162        2:1        2:1          0.019 *0.981
  1163        1:0        1:0         *0.96   0.04 
  1164        1:0        1:0         *0.556  0.444
  1165        2:1        2:1          0.333 *0.667
  1166        2:1        2:1          0.057 *0.943
  1167        1:0        1:0         *0.912  0.088
  1168        1:0        1:0         *0.667  0.333
  1169        2:1        2:1          0.057 *0.943
  1170        1:0        1:0         *0.925  0.075
  1171        2:1        2:1          0.071 *0.929
  1172        1:0        1:0         *0.96   0.04 
  1173        1:0        1:0         *0.96   0.04 
  1174        2:1        2:1          0.429 *0.571
  1175        2:1        2:1          0.017 *0.983
  1176        2:1        2:1          0.019 *0.981
  1177        2:1        2:1          0.019 *0.981
  1178        2:1        2:1          0.019 *0.981
  1179        2:1        2:1          0.45  *0.55 
  1180        2:1        2:1          0.019 *0.981
  1181        2:1        2:1          0     *1    
  1182        2:1        2:1          0.057 *0.943
  1183        2:1        2:1          0.017 *0.983
  1184        2:1        2:1          0     *1    
  1185        2:1        2:1          0.426 *0.574
  1186        2:1        2:1          0.438 *0.563
  1187        1:0        1:0         *0.925  0.075
  1188        2:1        2:1          0.25  *0.75 
  1189        1:0        2:1      +   0.264 *0.736
  1190        2:1        1:0      +  *0.75   0.25 
  1191        2:1        2:1          0.017 *0.983
  1192        1:0        1:0         *0.96   0.04 
  1193        2:1        1:0      +  *0.538  0.462
  1194        2:1        2:1          0.019 *0.981
  1195        2:1        2:1          0.019 *0.981
  1196        2:1        2:1          0.057 *0.943
  1197        1:0        1:0         *0.912  0.088
  1198        1:0        2:1      +   0.333 *0.667
  1199        2:1        2:1          0.45  *0.55 
  1200        2:1        2:1          0.071 *0.929
  1201        2:1        2:1          0.019 *0.981
  1202        2:1        2:1          0.019 *0.981
  1203        1:0        1:0         *0.925  0.075
  1204        2:1        2:1          0.017 *0.983
  1205        2:1        2:1          0.017 *0.983
  1206        2:1        1:0      +  *0.541  0.459
  1207        1:0        1:0         *0.925  0.075
  1208        1:0        1:0         *0.544  0.456
  1209        2:1        2:1          0.017 *0.983
  1210        2:1        1:0      +  *0.75   0.25 
  1211        2:1        1:0      +  *0.715  0.285
  1212        1:0        1:0         *0.544  0.456
  1213        2:1        2:1          0.017 *0.983
  1214        1:0        2:1      +   0.364 *0.636
  1215        2:1        2:1          0     *1    
  1216        2:1        2:1          0.057 *0.943
  1217        2:1        2:1          0.057 *0.943
  1218        2:1        2:1          0.019 *0.981
  1219        1:0        1:0         *0.96   0.04 
  1220        2:1        1:0      +  *0.571  0.429
  1221        1:0        1:0         *0.912  0.088
  1222        2:1        2:1          0.017 *0.983
  1223        2:1        2:1          0.071 *0.929
  1224        2:1        1:0      +  *0.925  0.075
  1225        1:0        1:0         *0.925  0.075
  1226        2:1        2:1          0.057 *0.943
  1227        2:1        2:1          0.071 *0.929
  1228        1:0        1:0         *0.925  0.075
  1229        1:0        1:0         *0.912  0.088
  1230        1:0        1:0         *0.75   0.25 
  1231        2:1        2:1          0.019 *0.981
  1232        2:1        2:1          0.3   *0.7  
  1233        2:1        2:1          0.325 *0.675
  1234        2:1        2:1          0.057 *0.943
  1235        2:1        1:0      +  *0.5    0.5  
  1236        1:0        1:0         *0.925  0.075
  1237        2:1        2:1          0.017 *0.983
  1238        2:1        2:1          0.057 *0.943
  1239        2:1        1:0      +  *0.765  0.235
  1240        2:1        2:1          0.019 *0.981
  1241        1:0        1:0         *0.925  0.075
  1242        2:1        2:1          0.368 *0.632
  1243        1:0        1:0         *0.925  0.075
  1244        2:1        2:1          0.479 *0.521
  1245        2:1        2:1          0.019 *0.981
  1246        1:0        1:0         *0.925  0.075
  1247        2:1        2:1          0.019 *0.981
  1248        1:0        1:0         *0.571  0.429
  1249        2:1        2:1          0.057 *0.943
  1250        2:1        2:1          0.057 *0.943
  1251        1:0        1:0         *0.541  0.459
  1252        1:0        2:1      +   0.438 *0.563
  1253        2:1        2:1          0.057 *0.943
  1254        2:1        2:1          0.264 *0.736
  1255        1:0        1:0         *0.925  0.075
  1256        2:1        2:1          0.125 *0.875
  1257        1:0        1:0         *0.912  0.088
  1258        1:0        1:0         *0.925  0.075
  1259        1:0        1:0         *0.925  0.075
  1260        2:1        2:1          0.019 *0.981
  1261        2:1        2:1          0.448 *0.552
  1262        1:0        1:0         *0.544  0.456
  1263        2:1        2:1          0.264 *0.736
  1264        1:0        1:0         *0.925  0.075
  1265        1:0        1:0         *0.571  0.429
  1266        2:1        2:1          0.333 *0.667
  1267        2:1        2:1          0.017 *0.983
  1268        1:0        1:0         *0.667  0.333
  1269        1:0        1:0         *0.556  0.444
  1270        2:1        2:1          0.325 *0.675
  1271        2:1        1:0      +  *0.611  0.389
  1272        2:1        2:1          0.017 *0.983
  1273        1:0        1:0         *0.571  0.429
  1274        2:1        2:1          0.071 *0.929
  1275        2:1        1:0      +  *0.538  0.462
  1276        2:1        1:0      +  *0.912  0.088
  1277        2:1        2:1          0.019 *0.981
  1278        1:0        1:0         *0.925  0.075
  1279        1:0        1:0         *0.58   0.42 
  1280        1:0        1:0         *0.571  0.429
  1281        1:0        1:0         *1      0    
  1282        1:0        2:1      +   0.071 *0.929
  1283        1:0        1:0         *0.925  0.075
  1284        2:1        2:1          0.019 *0.981
  1285        2:1        2:1          0.017 *0.983
  1286        1:0        1:0         *0.925  0.075
  1287        1:0        1:0         *0.96   0.04 
  1288        2:1        2:1          0.017 *0.983
  1289        2:1        2:1          0.017 *0.983
  1290        2:1        2:1          0.455 *0.545
  1291        2:1        2:1          0.395 *0.605
  1292        2:1        2:1          0.017 *0.983
  1293        2:1        2:1          0.071 *0.929
  1294        2:1        2:1          0.017 *0.983
  1295        1:0        1:0         *0.912  0.088
  1296        1:0        1:0         *0.58   0.42 
  1297        2:1        2:1          0.017 *0.983
  1298        2:1        2:1          0.357 *0.643
  1299        2:1        2:1          0.017 *0.983
  1300        2:1        1:0      +  *0.925  0.075
  1301        2:1        2:1          0.017 *0.983
  1302        2:1        1:0      +  *0.571  0.429
  1303        1:0        1:0         *1      0    
  1304        2:1        2:1          0.264 *0.736
  1305        2:1        2:1          0.019 *0.981
  1306        2:1        2:1          0.019 *0.981
  1307        2:1        2:1          0.071 *0.929
  1308        2:1        1:0      +  *0.667  0.333
  1309        2:1        2:1          0.057 *0.943
  1310        2:1        2:1          0.017 *0.983
  1311        1:0        1:0         *0.925  0.075
  1312        2:1        2:1          0.019 *0.981
  1313        1:0        1:0         *0.925  0.075
  1314        1:0        2:1      +   0.019 *0.981
  1315        2:1        2:1          0.325 *0.675
  1316        1:0        1:0         *0.75   0.25 
  1317        1:0        1:0         *0.925  0.075
  1318        1:0        2:1      +   0.45  *0.55 
  1319        2:1        2:1          0.479 *0.521
  1320        2:1        2:1          0.333 *0.667
  1321        2:1        2:1          0.019 *0.981
  1322        2:1        2:1          0.057 *0.943
  1323        2:1        2:1          0.071 *0.929
  1324        1:0        1:0         *0.925  0.075
  1325        2:1        2:1          0.019 *0.981
  1326        1:0        2:1      +   0.395 *0.605
  1327        2:1        2:1          0     *1    
  1328        2:1        2:1          0.057 *0.943
  1329        2:1        2:1          0.375 *0.625
  1330        2:1        2:1          0.353 *0.647
  1331        1:0        1:0         *0.75   0.25 
  1332        1:0        1:0         *0.58   0.42 
  1333        1:0        2:1      +   0.385 *0.615
  1334        2:1        2:1          0.017 *0.983
  1335        2:1        2:1          0.019 *0.981
  1336        1:0        2:1      +   0.25  *0.75 
  1337        1:0        1:0         *0.667  0.333
  1338        1:0        1:0         *0.715  0.285
  1339        2:1        2:1          0.273 *0.727
  1340        1:0        2:1      +   0.45  *0.55 
  1341        2:1        2:1          0.071 *0.929
  1342        2:1        1:0      +  *0.715  0.285
  1343        2:1        2:1          0.273 *0.727
  1344        2:1        2:1          0.017 *0.983
  1345        2:1        2:1          0.426 *0.574
  1346        2:1        2:1          0.057 *0.943
  1347        2:1        2:1          0.017 *0.983
  1348        1:0        1:0         *0.925  0.075
  1349        1:0        1:0         *0.925  0.075
  1350        2:1        2:1          0.017 *0.983
  1351        2:1        2:1          0.267 *0.733
  1352        2:1        2:1          0.057 *0.943
  1353        1:0        1:0         *0.925  0.075
  1354        2:1        2:1          0.133 *0.867
  1355        2:1        2:1          0.071 *0.929
  1356        1:0        1:0         *0.75   0.25 
  1357        2:1        2:1          0.017 *0.983
  1358        2:1        2:1          0.017 *0.983
  1359        1:0        2:1      +   0.019 *0.981
  1360        2:1        2:1          0.017 *0.983
  1361        2:1        2:1          0.057 *0.943
  1362        2:1        1:0      +  *0.544  0.456
  1363        2:1        2:1          0.017 *0.983
  1364        2:1        2:1          0.019 *0.981
  1365        1:0        1:0         *0.615  0.385
  1366        2:1        2:1          0.325 *0.675
  1367        1:0        1:0         *0.925  0.075
  1368        1:0        1:0         *0.643  0.357
  1369        1:0        2:1      +   0.467 *0.533
  1370        2:1        1:0      +  *0.789  0.211
  1371        2:1        2:1          0.019 *0.981
  1372        2:1        2:1          0.45  *0.55 
  1373        2:1        1:0      +  *0.715  0.285
  1374        1:0        1:0         *0.917  0.083
  1375        1:0        1:0         *0.611  0.389
  1376        1:0        1:0         *0.715  0.285
  1377        2:1        2:1          0.019 *0.981
  1378        2:1        2:1          0.426 *0.574
  1379        2:1        2:1          0.071 *0.929
  1380        2:1        2:1          0.325 *0.675
  1381        1:0        1:0         *0.667  0.333
  1382        1:0        1:0         *0.96   0.04 
  1383        2:1        2:1          0.019 *0.981
  1384        1:0        1:0         *0.818  0.182
  1385        1:0        1:0         *0.912  0.088
  1386        1:0        1:0         *0.925  0.075
  1387        2:1        2:1          0.25  *0.75 
  1388        2:1        2:1          0.019 *0.981
  1389        2:1        2:1          0.017 *0.983
  1390        1:0        1:0         *0.925  0.075
  1391        2:1        2:1          0.019 *0.981
  1392        1:0        1:0         *0.912  0.088
  1393        2:1        2:1          0.019 *0.981
  1394        1:0        1:0         *0.8    0.2  
  1395        1:0        1:0         *0.538  0.462
  1396        2:1        2:1          0.017 *0.983
  1397        2:1        2:1          0.429 *0.571
  1398        1:0        1:0         *0.925  0.075
  1399        1:0        2:1      +   0.479 *0.521
  1400        2:1        2:1          0.071 *0.929
  1401        2:1        2:1          0.017 *0.983
  1402        2:1        2:1          0.019 *0.981
  1403        1:0        2:1      +   0.414 *0.586
  1404        1:0        1:0         *0.925  0.075
  1405        1:0        2:1      +   0.3   *0.7  
  1406        1:0        1:0         *0.715  0.285
  1407        2:1        2:1          0.071 *0.929
  1408        2:1        2:1          0.017 *0.983
  1409        2:1        2:1          0.017 *0.983
  1410        1:0        1:0         *0.912  0.088
  1411        2:1        2:1          0.017 *0.983
  1412        2:1        2:1          0.019 *0.981
  1413        2:1        1:0      +  *0.75   0.25 
  1414        2:1        2:1          0.017 *0.983
  1415        2:1        2:1          0.017 *0.983
  1416        2:1        2:1          0.057 *0.943
  1417        2:1        2:1          0.019 *0.981
  1418        1:0        1:0         *0.6    0.4  
  1419        2:1        2:1          0.071 *0.929
  1420        2:1        2:1          0.017 *0.983
  1421        2:1        2:1          0.057 *0.943
  1422        2:1        1:0      +  *0.925  0.075
  1423        2:1        2:1          0.4   *0.6  
  1424        2:1        2:1          0.017 *0.983
  1425        2:1        2:1          0.019 *0.981
  1426        2:1        2:1          0.019 *0.981
  1427        2:1        2:1          0.019 *0.981
  1428        1:0        1:0         *0.925  0.075
  1429        2:1        2:1          0.019 *0.981
  1430        1:0        2:1      +   0.264 *0.736
  1431        1:0        1:0         *0.96   0.04 
  1432        2:1        2:1          0.071 *0.929
  1433        1:0        1:0         *0.715  0.285
  1434        2:1        2:1          0.071 *0.929
  1435        2:1        2:1          0.019 *0.981
  1436        1:0        2:1      +   0.448 *0.552
  1437        1:0        1:0         *0.925  0.075
  1438        2:1        2:1          0.017 *0.983
  1439        1:0        1:0         *0.611  0.389
  1440        1:0        1:0         *0.925  0.075
  1441        2:1        1:0      +  *0.715  0.285
  1442        2:1        2:1          0.019 *0.981
  1443        2:1        2:1          0.071 *0.929
  1444        1:0        1:0         *0.912  0.088
  1445        1:0        1:0         *0.925  0.075
  1446        2:1        2:1          0.019 *0.981
  1447        2:1        2:1          0.019 *0.981
  1448        2:1        2:1          0.019 *0.981
  1449        1:0        1:0         *0.925  0.075
  1450        1:0        2:1      +   0.479 *0.521
  1451        1:0        1:0         *0.778  0.222
  1452        2:1        2:1          0.019 *0.981
  1453        2:1        2:1          0.019 *0.981
  1454        2:1        1:0      +  *0.571  0.429
  1455        2:1        1:0      +  *0.636  0.364
  1456        2:1        2:1          0.071 *0.929
  1457        1:0        1:0         *0.925  0.075
  1458        2:1        2:1          0.019 *0.981
  1459        2:1        2:1          0.019 *0.981
  1460        2:1        2:1          0.017 *0.983
  1461        1:0        1:0         *0.96   0.04 
  1462        1:0        1:0         *0.912  0.088
  1463        1:0        1:0         *0.96   0.04 
  1464        1:0        1:0         *0.925  0.075
  1465        1:0        1:0         *0.925  0.075
  1466        2:1        2:1          0.357 *0.643
  1467        2:1        2:1          0.019 *0.981
  1468        2:1        2:1          0.019 *0.981
  1469        1:0        2:1      +   0.45  *0.55 
  1470        2:1        2:1          0.479 *0.521
  1471        2:1        2:1          0.019 *0.981
  1472        2:1        2:1          0.071 *0.929
  1473        2:1        2:1          0.019 *0.981
  1474        2:1        2:1          0.071 *0.929
  1475        2:1        2:1          0.057 *0.943
  1476        2:1        2:1          0.071 *0.929
  1477        1:0        1:0         *0.96   0.04 
  1478        2:1        2:1          0.019 *0.981
  1479        2:1        2:1          0.017 *0.983
  1480        1:0        1:0         *0.925  0.075
  1481        2:1        2:1          0     *1    
  1482        1:0        1:0         *0.912  0.088
  1483        1:0        2:1      +   0.3   *0.7  
  1484        2:1        2:1          0.019 *0.981
  1485        2:1        2:1          0.019 *0.981
  1486        2:1        2:1          0     *1    
  1487        2:1        2:1          0.019 *0.981
  1488        2:1        2:1          0.071 *0.929
  1489        1:0        1:0         *0.925  0.075
  1490        2:1        2:1          0.017 *0.983
  1491        1:0        1:0         *0.912  0.088
  1492        1:0        2:1      +   0.019 *0.981
  1493        2:1        2:1          0.264 *0.736
  1494        2:1        2:1          0.017 *0.983
  1495        1:0        2:1      +   0.429 *0.571
  1496        2:1        2:1          0.057 *0.943
  1497        1:0        1:0         *1      0    
  1498        2:1        2:1          0.057 *0.943
  1499        2:1        2:1          0     *1    
  1500        1:0        1:0         *0.912  0.088
  1501        1:0        1:0         *0.925  0.075
  1502        1:0        1:0         *0.925  0.075
  1503        2:1        2:1          0.019 *0.981
  1504        2:1        2:1          0.426 *0.574
  1505        2:1        2:1          0.019 *0.981
  1506        2:1        2:1          0.017 *0.983
  1507        2:1        2:1          0.019 *0.981
  1508        1:0        1:0         *0.667  0.333
  1509        1:0        1:0         *0.912  0.088
  1510        1:0        2:1      +   0.385 *0.615
  1511        2:1        1:0      +  *0.925  0.075
  1512        1:0        2:1      +   0.264 *0.736
  1513        2:1        2:1          0.348 *0.652
  1514        2:1        2:1          0.395 *0.605
  1515        2:1        2:1          0.071 *0.929
  1516        1:0        1:0         *0.912  0.088
  1517        1:0        1:0         *0.925  0.075
  1518        1:0        1:0         *0.925  0.075
  1519        2:1        2:1          0.019 *0.981
  1520        1:0        1:0         *0.925  0.075
  1521        2:1        2:1          0.057 *0.943
  1522        1:0        1:0         *0.925  0.075
  1523        1:0        1:0         *0.925  0.075
  1524        1:0        1:0         *0.925  0.075
  1525        2:1        2:1          0.019 *0.981
  1526        1:0        1:0         *0.925  0.075
  1527        2:1        2:1          0.019 *0.981
  1528        1:0        1:0         *0.925  0.075
  1529        2:1        2:1          0.057 *0.943
  1530        1:0        2:1      +   0.264 *0.736
  1531        1:0        1:0         *0.925  0.075
  1532        2:1        2:1          0.017 *0.983
  1533        2:1        2:1          0.019 *0.981
  1534        1:0        1:0         *0.925  0.075
  1535        1:0        1:0         *0.912  0.088
  1536        1:0        1:0         *0.925  0.075
  1537        1:0        1:0         *0.912  0.088
  1538        2:1        2:1          0.057 *0.943
  1539        2:1        2:1          0.071 *0.929
  1540        2:1        2:1          0.019 *0.981
  1541        1:0        2:1      +   0.019 *0.981
  1542        2:1        2:1          0.019 *0.981
  1543        1:0        1:0         *0.715  0.285
